digraph Tree {
node [shape=box, style="filled, rounded", color="black", fontname="helvetica"] ;
edge [fontname="helvetica"] ;
0 [label="bun_mean <= -0.394\ngini = 0.421\nsamples = 21193\nvalue = [10069, 23421]\nclass = 1", fillcolor="#8ec7f0"] ;
1 [label="gcs_eyes <= 0.412\ngini = 0.48\nsamples = 9279\nvalue = [5874, 8841]\nclass = 1", fillcolor="#bddef6"] ;
0 -> 1 [labeldistance=2.5, labelangle=45, headlabel="True"] ;
2 [label="gcs_verbal <= -0.308\ngini = 0.444\nsamples = 5009\nvalue = [2643, 5313]\nclass = 1", fillcolor="#9bcef2"] ;
1 -> 2 ;
3 [label="admission_age <= -1.954\ngini = 0.396\nsamples = 3012\nvalue = [1307, 3492]\nclass = 1", fillcolor="#83c2ef"] ;
2 -> 3 ;
4 [label="weight_admit <= 0.187\ngini = 0.496\nsamples = 296\nvalue = [219, 260]\nclass = 1", fillcolor="#e0f0fb"] ;
3 -> 4 ;
5 [label="mbp_mean <= -0.814\ngini = 0.499\nsamples = 214\nvalue = [178, 166]\nclass = 0", fillcolor="#fdf7f2"] ;
4 -> 5 ;
6 [label="gini = 0.38\nsamples = 32\nvalue = [35, 12]\nclass = 0", fillcolor="#eeac7d"] ;
5 -> 6 ;
7 [label="gini = 0.499\nsamples = 182\nvalue = [143, 154]\nclass = 1", fillcolor="#f1f8fd"] ;
5 -> 7 ;
8 [label="dbp_min <= -0.799\ngini = 0.423\nsamples = 82\nvalue = [41, 94]\nclass = 1", fillcolor="#8fc8f0"] ;
4 -> 8 ;
9 [label="gini = 0.48\nsamples = 12\nvalue = [12, 8]\nclass = 0", fillcolor="#f6d5bd"] ;
8 -> 9 ;
10 [label="gini = 0.377\nsamples = 70\nvalue = [29, 86]\nclass = 1", fillcolor="#7cbeee"] ;
8 -> 10 ;
11 [label="abs_monocytes_mean <= -0.285\ngini = 0.377\nsamples = 2716\nvalue = [1088, 3232]\nclass = 1", fillcolor="#7cbeee"] ;
3 -> 11 ;
12 [label="po2_min <= 0.969\ngini = 0.44\nsamples = 555\nvalue = [296, 610]\nclass = 1", fillcolor="#99cdf2"] ;
11 -> 12 ;
13 [label="gini = 0.413\nsamples = 454\nvalue = [215, 523]\nclass = 1", fillcolor="#8ac5f0"] ;
12 -> 13 ;
14 [label="gini = 0.499\nsamples = 101\nvalue = [81, 87]\nclass = 1", fillcolor="#f1f8fd"] ;
12 -> 14 ;
15 [label="po2_min <= 0.535\ngini = 0.356\nsamples = 2161\nvalue = [792, 2622]\nclass = 1", fillcolor="#75bbed"] ;
11 -> 15 ;
16 [label="gini = 0.326\nsamples = 1581\nvalue = [509, 1975]\nclass = 1", fillcolor="#6cb6ec"] ;
15 -> 16 ;
17 [label="gini = 0.423\nsamples = 580\nvalue = [283, 647]\nclass = 1", fillcolor="#90c8f0"] ;
15 -> 17 ;
18 [label="inr_max <= -0.097\ngini = 0.488\nsamples = 1997\nvalue = [1336, 1821]\nclass = 1", fillcolor="#cae5f8"] ;
2 -> 18 ;
19 [label="sbp_min <= -0.083\ngini = 0.496\nsamples = 1549\nvalue = [1117, 1345]\nclass = 1", fillcolor="#ddeefb"] ;
18 -> 19 ;
20 [label="pco2_max <= 1.143\ngini = 0.476\nsamples = 588\nvalue = [366, 573]\nclass = 1", fillcolor="#b7dcf6"] ;
19 -> 20 ;
21 [label="gini = 0.483\nsamples = 542\nvalue = [355, 514]\nclass = 1", fillcolor="#c2e1f7"] ;
20 -> 21 ;
22 [label="gini = 0.265\nsamples = 46\nvalue = [11, 59]\nclass = 1", fillcolor="#5eafea"] ;
20 -> 22 ;
23 [label="glucose_max <= -0.544\ngini = 0.5\nsamples = 961\nvalue = [751, 772]\nclass = 1", fillcolor="#fafcfe"] ;
19 -> 23 ;
24 [label="gini = 0.488\nsamples = 367\nvalue = [329, 241]\nclass = 0", fillcolor="#f8ddca"] ;
23 -> 24 ;
25 [label="gini = 0.493\nsamples = 594\nvalue = [422, 531]\nclass = 1", fillcolor="#d6ebfa"] ;
23 -> 25 ;
26 [label="sbp_min <= 0.379\ngini = 0.432\nsamples = 448\nvalue = [219, 476]\nclass = 1", fillcolor="#94caf1"] ;
18 -> 26 ;
27 [label="glucose_mean <= 1.219\ngini = 0.384\nsamples = 349\nvalue = [142, 407]\nclass = 1", fillcolor="#7ebfee"] ;
26 -> 27 ;
28 [label="gini = 0.365\nsamples = 337\nvalue = [128, 405]\nclass = 1", fillcolor="#78bced"] ;
27 -> 28 ;
29 [label="gini = 0.219\nsamples = 12\nvalue = [14, 2]\nclass = 0", fillcolor="#e99355"] ;
27 -> 29 ;
30 [label="female <= 0.5\ngini = 0.498\nsamples = 99\nvalue = [77, 69]\nclass = 0", fillcolor="#fcf2ea"] ;
26 -> 30 ;
31 [label="gini = 0.452\nsamples = 58\nvalue = [59, 31]\nclass = 0", fillcolor="#f3c3a1"] ;
30 -> 31 ;
32 [label="gini = 0.436\nsamples = 41\nvalue = [18, 38]\nclass = 1", fillcolor="#97cbf1"] ;
30 -> 32 ;
33 [label="admission_age <= -0.189\ngini = 0.499\nsamples = 4270\nvalue = [3231, 3528]\nclass = 1", fillcolor="#eef7fd"] ;
1 -> 33 ;
34 [label="weight_admit <= 0.896\ngini = 0.494\nsamples = 2425\nvalue = [2130, 1694]\nclass = 0", fillcolor="#fae5d6"] ;
33 -> 34 ;
35 [label="ptt_max <= -0.069\ngini = 0.48\nsamples = 2002\nvalue = [1902, 1265]\nclass = 0", fillcolor="#f6d5bd"] ;
34 -> 35 ;
36 [label="platelets_mean <= -0.748\ngini = 0.461\nsamples = 1701\nvalue = [1712, 964]\nclass = 0", fillcolor="#f4c8a8"] ;
35 -> 36 ;
37 [label="gini = 0.5\nsamples = 212\nvalue = [163, 160]\nclass = 0", fillcolor="#fffdfb"] ;
36 -> 37 ;
38 [label="gini = 0.45\nsamples = 1489\nvalue = [1549, 804]\nclass = 0", fillcolor="#f2c2a0"] ;
36 -> 38 ;
39 [label="resp_rate_mean <= -0.575\ngini = 0.474\nsamples = 301\nvalue = [190, 301]\nclass = 1", fillcolor="#b6dbf5"] ;
35 -> 39 ;
40 [label="gini = 0.498\nsamples = 97\nvalue = [85, 74]\nclass = 0", fillcolor="#fcefe5"] ;
39 -> 40 ;
41 [label="gini = 0.432\nsamples = 204\nvalue = [105, 227]\nclass = 1", fillcolor="#95caf1"] ;
39 -> 41 ;
42 [label="sbp_min <= 0.264\ngini = 0.453\nsamples = 423\nvalue = [228, 429]\nclass = 1", fillcolor="#a2d1f3"] ;
34 -> 42 ;
43 [label="abs_lymphocytes_mean <= -0.054\ngini = 0.314\nsamples = 166\nvalue = [50, 206]\nclass = 1", fillcolor="#69b5eb"] ;
42 -> 43 ;
44 [label="gini = 0.189\nsamples = 96\nvalue = [15, 127]\nclass = 1", fillcolor="#50a9e8"] ;
43 -> 44 ;
45 [label="gini = 0.426\nsamples = 70\nvalue = [35, 79]\nclass = 1", fillcolor="#91c8f1"] ;
43 -> 45 ;
46 [label="totalco2_max <= 0.02\ngini = 0.494\nsamples = 257\nvalue = [178, 223]\nclass = 1", fillcolor="#d7ebfa"] ;
42 -> 46 ;
47 [label="gini = 0.499\nsamples = 185\nvalue = [154, 140]\nclass = 0", fillcolor="#fdf4ed"] ;
46 -> 47 ;
48 [label="gini = 0.348\nsamples = 72\nvalue = [24, 83]\nclass = 1", fillcolor="#72b9ed"] ;
46 -> 48 ;
49 [label="pco2_max <= 0.375\ngini = 0.469\nsamples = 1845\nvalue = [1101, 1834]\nclass = 1", fillcolor="#b0d8f5"] ;
33 -> 49 ;
50 [label="wbc_mean <= -0.718\ngini = 0.48\nsamples = 1593\nvalue = [1016, 1530]\nclass = 1", fillcolor="#bcdef6"] ;
49 -> 50 ;
51 [label="heart_rate_min <= 0.266\ngini = 0.497\nsamples = 134\nvalue = [120, 102]\nclass = 0", fillcolor="#fbece1"] ;
50 -> 51 ;
52 [label="gini = 0.462\nsamples = 82\nvalue = [83, 47]\nclass = 0", fillcolor="#f4c8a9"] ;
51 -> 52 ;
53 [label="gini = 0.481\nsamples = 52\nvalue = [37, 55]\nclass = 1", fillcolor="#bedff6"] ;
51 -> 53 ;
54 [label="dbp_min <= 1.023\ngini = 0.474\nsamples = 1459\nvalue = [896, 1428]\nclass = 1", fillcolor="#b5daf5"] ;
50 -> 54 ;
55 [label="gini = 0.463\nsamples = 1261\nvalue = [735, 1284]\nclass = 1", fillcolor="#aad5f4"] ;
54 -> 55 ;
56 [label="gini = 0.498\nsamples = 198\nvalue = [161, 144]\nclass = 0", fillcolor="#fcf2ea"] ;
54 -> 56 ;
57 [label="dbp_mean <= -1.921\ngini = 0.342\nsamples = 252\nvalue = [85, 304]\nclass = 1", fillcolor="#70b8ec"] ;
49 -> 57 ;
58 [label="gini = 0.0\nsamples = 4\nvalue = [9, 0]\nclass = 0", fillcolor="#e58139"] ;
57 -> 58 ;
59 [label="po2_min <= 0.252\ngini = 0.32\nsamples = 248\nvalue = [76, 304]\nclass = 1", fillcolor="#6ab6ec"] ;
57 -> 59 ;
60 [label="gini = 0.266\nsamples = 204\nvalue = [50, 267]\nclass = 1", fillcolor="#5eafea"] ;
59 -> 60 ;
61 [label="gini = 0.485\nsamples = 44\nvalue = [26, 37]\nclass = 1", fillcolor="#c4e2f7"] ;
59 -> 61 ;
62 [label="baseexcess_min <= 0.073\ngini = 0.347\nsamples = 11914\nvalue = [4195, 14580]\nclass = 1", fillcolor="#72b9ec"] ;
0 -> 62 [labeldistance=2.5, labelangle=-45, headlabel="False"] ;
63 [label="ph_max <= -4.674\ngini = 0.254\nsamples = 4563\nvalue = [1081, 6170]\nclass = 1", fillcolor="#5caeea"] ;
62 -> 63 ;
64 [label="sbp_mean <= -2.268\ngini = 0.495\nsamples = 48\nvalue = [45, 37]\nclass = 0", fillcolor="#fae9dc"] ;
63 -> 64 ;
65 [label="bun_mean <= 0.867\ngini = 0.269\nsamples = 13\nvalue = [21, 4]\nclass = 0", fillcolor="#ea995f"] ;
64 -> 65 ;
66 [label="gini = 0.0\nsamples = 9\nvalue = [20, 0]\nclass = 0", fillcolor="#e58139"] ;
65 -> 66 ;
67 [label="potassium_min.1 <= 0.232\ngini = 0.32\nsamples = 4\nvalue = [1, 4]\nclass = 1", fillcolor="#6ab6ec"] ;
65 -> 67 ;
68 [label="gini = 0.0\nsamples = 1\nvalue = [1, 0]\nclass = 0", fillcolor="#e58139"] ;
67 -> 68 ;
69 [label="gini = 0.0\nsamples = 3\nvalue = [0, 4]\nclass = 1", fillcolor="#399de5"] ;
67 -> 69 ;
70 [label="admission_age <= -0.849\ngini = 0.488\nsamples = 35\nvalue = [24, 33]\nclass = 1", fillcolor="#c9e4f8"] ;
64 -> 70 ;
71 [label="aniongap_max <= 1.396\ngini = 0.332\nsamples = 12\nvalue = [15, 4]\nclass = 0", fillcolor="#eca36e"] ;
70 -> 71 ;
72 [label="gini = 0.0\nsamples = 2\nvalue = [0, 4]\nclass = 1", fillcolor="#399de5"] ;
71 -> 72 ;
73 [label="gini = 0.0\nsamples = 10\nvalue = [15, 0]\nclass = 0", fillcolor="#e58139"] ;
71 -> 73 ;
74 [label="heart_rate_max <= -0.069\ngini = 0.361\nsamples = 23\nvalue = [9, 29]\nclass = 1", fillcolor="#76bbed"] ;
70 -> 74 ;
75 [label="gini = 0.32\nsamples = 7\nvalue = [8, 2]\nclass = 0", fillcolor="#eca06a"] ;
74 -> 75 ;
76 [label="gini = 0.069\nsamples = 16\nvalue = [1, 27]\nclass = 1", fillcolor="#40a1e6"] ;
74 -> 76 ;
77 [label="dbp_min <= 0.264\ngini = 0.247\nsamples = 4515\nvalue = [1036, 6133]\nclass = 1", fillcolor="#5aaee9"] ;
63 -> 77 ;
78 [label="potassium_max.1 <= 3.667\ngini = 0.215\nsamples = 3418\nvalue = [670, 4799]\nclass = 1", fillcolor="#55abe9"] ;
77 -> 78 ;
79 [label="gcs_eyes <= -0.461\ngini = 0.21\nsamples = 3352\nvalue = [640, 4730]\nclass = 1", fillcolor="#54aae9"] ;
78 -> 79 ;
80 [label="gini = 0.159\nsamples = 1354\nvalue = [190, 1989]\nclass = 1", fillcolor="#4ca6e7"] ;
79 -> 80 ;
81 [label="gini = 0.242\nsamples = 1998\nvalue = [450, 2741]\nclass = 1", fillcolor="#5aade9"] ;
79 -> 81 ;
82 [label="spo2_min <= -0.178\ngini = 0.422\nsamples = 66\nvalue = [30, 69]\nclass = 1", fillcolor="#8fc8f0"] ;
78 -> 82 ;
83 [label="gini = 0.048\nsamples = 30\nvalue = [1, 40]\nclass = 1", fillcolor="#3e9fe6"] ;
82 -> 83 ;
84 [label="gini = 0.5\nsamples = 36\nvalue = [29, 29]\nclass = 0", fillcolor="#ffffff"] ;
82 -> 84 ;
85 [label="po2_max <= -0.856\ngini = 0.338\nsamples = 1097\nvalue = [366, 1334]\nclass = 1", fillcolor="#6fb8ec"] ;
77 -> 85 ;
86 [label="glucose_max.2 <= 1.551\ngini = 0.431\nsamples = 372\nvalue = [181, 395]\nclass = 1", fillcolor="#94caf1"] ;
85 -> 86 ;
87 [label="gini = 0.39\nsamples = 298\nvalue = [123, 341]\nclass = 1", fillcolor="#80c0ee"] ;
86 -> 87 ;
88 [label="gini = 0.499\nsamples = 74\nvalue = [58, 54]\nclass = 0", fillcolor="#fdf6f1"] ;
86 -> 88 ;
89 [label="abs_lymphocytes_mean <= -0.064\ngini = 0.275\nsamples = 725\nvalue = [185, 939]\nclass = 1", fillcolor="#60b0ea"] ;
85 -> 89 ;
90 [label="gini = 0.164\nsamples = 220\nvalue = [32, 322]\nclass = 1", fillcolor="#4da7e8"] ;
89 -> 90 ;
91 [label="gini = 0.318\nsamples = 505\nvalue = [153, 617]\nclass = 1", fillcolor="#6ab5eb"] ;
89 -> 91 ;
92 [label="ph_max <= 0.152\ngini = 0.394\nsamples = 7351\nvalue = [3114, 8410]\nclass = 1", fillcolor="#82c1ef"] ;
62 -> 92 ;
93 [label="ph_min <= 0.058\ngini = 0.433\nsamples = 5074\nvalue = [2529, 5464]\nclass = 1", fillcolor="#95caf1"] ;
92 -> 93 ;
94 [label="mbp_min <= -0.057\ngini = 0.302\nsamples = 653\nvalue = [186, 819]\nclass = 1", fillcolor="#66b3eb"] ;
93 -> 94 ;
95 [label="dbp_max <= 0.895\ngini = 0.218\nsamples = 362\nvalue = [70, 493]\nclass = 1", fillcolor="#55abe9"] ;
94 -> 95 ;
96 [label="gini = 0.184\nsamples = 303\nvalue = [48, 420]\nclass = 1", fillcolor="#50a8e8"] ;
95 -> 96 ;
97 [label="gini = 0.356\nsamples = 59\nvalue = [22, 73]\nclass = 1", fillcolor="#75bbed"] ;
95 -> 97 ;
98 [label="mbp_min <= 1.111\ngini = 0.387\nsamples = 291\nvalue = [116, 326]\nclass = 1", fillcolor="#7fc0ee"] ;
94 -> 98 ;
99 [label="gini = 0.359\nsamples = 252\nvalue = [89, 290]\nclass = 1", fillcolor="#76bbed"] ;
98 -> 99 ;
100 [label="gini = 0.49\nsamples = 39\nvalue = [27, 36]\nclass = 1", fillcolor="#cee6f8"] ;
98 -> 100 ;
101 [label="sbp_min <= 0.148\ngini = 0.446\nsamples = 4421\nvalue = [2343, 4645]\nclass = 1", fillcolor="#9dcef2"] ;
93 -> 101 ;
102 [label="pco2_max <= 0.033\ngini = 0.403\nsamples = 2165\nvalue = [958, 2465]\nclass = 1", fillcolor="#86c3ef"] ;
101 -> 102 ;
103 [label="gini = 0.419\nsamples = 1898\nvalue = [899, 2107]\nclass = 1", fillcolor="#8dc7f0"] ;
102 -> 103 ;
104 [label="gini = 0.243\nsamples = 267\nvalue = [59, 358]\nclass = 1", fillcolor="#5aade9"] ;
102 -> 104 ;
105 [label="heart_rate_max <= 0.446\ngini = 0.475\nsamples = 2256\nvalue = [1385, 2180]\nclass = 1", fillcolor="#b7dbf6"] ;
101 -> 105 ;
106 [label="gini = 0.486\nsamples = 1817\nvalue = [1194, 1668]\nclass = 1", fillcolor="#c7e3f8"] ;
105 -> 106 ;
107 [label="gini = 0.396\nsamples = 439\nvalue = [191, 512]\nclass = 1", fillcolor="#83c2ef"] ;
105 -> 107 ;
108 [label="temperature_max <= 0.438\ngini = 0.276\nsamples = 2277\nvalue = [585, 2946]\nclass = 1", fillcolor="#60b0ea"] ;
92 -> 108 ;
109 [label="pco2_max <= -0.992\ngini = 0.305\nsamples = 1660\nvalue = [480, 2076]\nclass = 1", fillcolor="#67b4eb"] ;
108 -> 109 ;
110 [label="abs_monocytes_mean <= -0.083\ngini = 0.406\nsamples = 288\nvalue = [125, 316]\nclass = 1", fillcolor="#87c4ef"] ;
109 -> 110 ;
111 [label="gini = 0.442\nsamples = 203\nvalue = [103, 210]\nclass = 1", fillcolor="#9acdf2"] ;
110 -> 111 ;
112 [label="gini = 0.285\nsamples = 85\nvalue = [22, 106]\nclass = 1", fillcolor="#62b1ea"] ;
110 -> 112 ;
113 [label="hematocrit_min.1 <= -0.395\ngini = 0.279\nsamples = 1372\nvalue = [355, 1760]\nclass = 1", fillcolor="#61b1ea"] ;
109 -> 113 ;
114 [label="gini = 0.228\nsamples = 624\nvalue = [127, 843]\nclass = 1", fillcolor="#57ace9"] ;
113 -> 114 ;
115 [label="gini = 0.319\nsamples = 748\nvalue = [228, 917]\nclass = 1", fillcolor="#6ab5eb"] ;
113 -> 115 ;
116 [label="dbp_max <= 5.009\ngini = 0.192\nsamples = 617\nvalue = [105, 870]\nclass = 1", fillcolor="#51a9e8"] ;
108 -> 116 ;
117 [label="glucose_max.2 <= 2.737\ngini = 0.189\nsamples = 615\nvalue = [103, 870]\nclass = 1", fillcolor="#50a9e8"] ;
116 -> 117 ;
118 [label="gini = 0.184\nsamples = 612\nvalue = [99, 869]\nclass = 1", fillcolor="#50a8e8"] ;
117 -> 118 ;
119 [label="gini = 0.32\nsamples = 3\nvalue = [4, 1]\nclass = 0", fillcolor="#eca06a"] ;
117 -> 119 ;
120 [label="gini = 0.0\nsamples = 2\nvalue = [2, 0]\nclass = 0", fillcolor="#e58139"] ;
116 -> 120 ;
}