digraph Tree {
node [shape=box, style="filled, rounded", color="black", fontname="helvetica"] ;
edge [fontname="helvetica"] ;
0 [label="hematocrit_max.1 <= -0.088\ngini = 0.423\nsamples = 21277\nvalue = [10182, 23308]\nclass = 1", fillcolor="#8fc8f0"] ;
1 [label="weight_admit <= -0.327\ngini = 0.399\nsamples = 10333\nvalue = [4453, 11751]\nclass = 1", fillcolor="#84c2ef"] ;
0 -> 1 [labeldistance=2.5, labelangle=45, headlabel="True"] ;
2 [label="ph_min <= -0.266\ngini = 0.454\nsamples = 4508\nvalue = [2474, 4612]\nclass = 1", fillcolor="#a3d2f3"] ;
1 -> 2 ;
3 [label="aniongap_min <= 0.147\ngini = 0.342\nsamples = 977\nvalue = [341, 1218]\nclass = 1", fillcolor="#70b8ec"] ;
2 -> 3 ;
4 [label="abs_basophils_mean <= -0.499\ngini = 0.399\nsamples = 598\nvalue = [263, 691]\nclass = 1", fillcolor="#84c2ef"] ;
3 -> 4 ;
5 [label="potassium_max.1 <= -0.87\ngini = 0.161\nsamples = 74\nvalue = [10, 103]\nclass = 1", fillcolor="#4ca7e8"] ;
4 -> 5 ;
6 [label="gini = 0.48\nsamples = 4\nvalue = [3, 2]\nclass = 0", fillcolor="#f6d5bd"] ;
5 -> 6 ;
7 [label="gini = 0.121\nsamples = 70\nvalue = [7, 101]\nclass = 1", fillcolor="#47a4e7"] ;
5 -> 7 ;
8 [label="admission_age <= 0.622\ngini = 0.421\nsamples = 524\nvalue = [253, 588]\nclass = 1", fillcolor="#8ec7f0"] ;
4 -> 8 ;
9 [label="gini = 0.48\nsamples = 341\nvalue = [214, 322]\nclass = 1", fillcolor="#bddef6"] ;
8 -> 9 ;
10 [label="gini = 0.223\nsamples = 183\nvalue = [39, 266]\nclass = 1", fillcolor="#56abe9"] ;
8 -> 10 ;
11 [label="glucose_max <= -0.865\ngini = 0.225\nsamples = 379\nvalue = [78, 527]\nclass = 1", fillcolor="#56ace9"] ;
3 -> 11 ;
12 [label="baseexcess_min <= -0.535\ngini = 0.461\nsamples = 20\nvalue = [9, 16]\nclass = 1", fillcolor="#a8d4f4"] ;
11 -> 12 ;
13 [label="gini = 0.245\nsamples = 12\nvalue = [2, 12]\nclass = 1", fillcolor="#5aade9"] ;
12 -> 13 ;
14 [label="gini = 0.463\nsamples = 8\nvalue = [7, 4]\nclass = 0", fillcolor="#f4c9aa"] ;
12 -> 14 ;
15 [label="pco2_max <= -2.102\ngini = 0.21\nsamples = 359\nvalue = [69, 511]\nclass = 1", fillcolor="#54aae9"] ;
11 -> 15 ;
16 [label="gini = 0.0\nsamples = 2\nvalue = [3, 0]\nclass = 0", fillcolor="#e58139"] ;
15 -> 16 ;
17 [label="gini = 0.203\nsamples = 357\nvalue = [66, 511]\nclass = 1", fillcolor="#53aae8"] ;
15 -> 17 ;
18 [label="dbp_min <= -0.083\ngini = 0.474\nsamples = 3531\nvalue = [2133, 3394]\nclass = 1", fillcolor="#b5dbf5"] ;
2 -> 18 ;
19 [label="ptt_min <= -0.216\ngini = 0.44\nsamples = 1939\nvalue = [983, 2022]\nclass = 1", fillcolor="#99cdf2"] ;
18 -> 19 ;
20 [label="admission_age <= -0.922\ngini = 0.481\nsamples = 810\nvalue = [493, 732]\nclass = 1", fillcolor="#bedff7"] ;
19 -> 20 ;
21 [label="gini = 0.458\nsamples = 55\nvalue = [51, 28]\nclass = 0", fillcolor="#f3c6a6"] ;
20 -> 21 ;
22 [label="gini = 0.474\nsamples = 755\nvalue = [442, 704]\nclass = 1", fillcolor="#b5dbf5"] ;
20 -> 22 ;
23 [label="ph_max <= 0.152\ngini = 0.399\nsamples = 1129\nvalue = [490, 1290]\nclass = 1", fillcolor="#84c2ef"] ;
19 -> 23 ;
24 [label="gini = 0.449\nsamples = 660\nvalue = [353, 683]\nclass = 1", fillcolor="#9fd0f2"] ;
23 -> 24 ;
25 [label="gini = 0.3\nsamples = 469\nvalue = [137, 607]\nclass = 1", fillcolor="#66b3eb"] ;
23 -> 25 ;
26 [label="admission_age <= 0.155\ngini = 0.496\nsamples = 1592\nvalue = [1150, 1372]\nclass = 1", fillcolor="#dfeffb"] ;
18 -> 26 ;
27 [label="spo2_mean <= 0.999\ngini = 0.5\nsamples = 937\nvalue = [744, 722]\nclass = 0", fillcolor="#fefbf9"] ;
26 -> 27 ;
28 [label="gini = 0.498\nsamples = 778\nvalue = [643, 566]\nclass = 0", fillcolor="#fcf0e7"] ;
27 -> 28 ;
29 [label="gini = 0.477\nsamples = 159\nvalue = [101, 156]\nclass = 1", fillcolor="#b9dcf6"] ;
27 -> 29 ;
30 [label="pco2_max <= -0.394\ngini = 0.473\nsamples = 655\nvalue = [406, 650]\nclass = 1", fillcolor="#b5daf5"] ;
26 -> 30 ;
31 [label="gini = 0.392\nsamples = 237\nvalue = [101, 277]\nclass = 1", fillcolor="#81c1ee"] ;
30 -> 31 ;
32 [label="gini = 0.495\nsamples = 418\nvalue = [305, 373]\nclass = 1", fillcolor="#dbedfa"] ;
30 -> 32 ;
33 [label="mbp_mean <= 0.07\ngini = 0.34\nsamples = 5825\nvalue = [1979, 7139]\nclass = 1", fillcolor="#70b8ec"] ;
1 -> 33 ;
34 [label="gcs_motor <= 0.26\ngini = 0.303\nsamples = 3941\nvalue = [1147, 5023]\nclass = 1", fillcolor="#66b3eb"] ;
33 -> 34 ;
35 [label="temperature_min <= -5.064\ngini = 0.209\nsamples = 1268\nvalue = [237, 1764]\nclass = 1", fillcolor="#54aae8"] ;
34 -> 35 ;
36 [label="ph_max <= -3.195\ngini = 0.499\nsamples = 14\nvalue = [10, 11]\nclass = 1", fillcolor="#edf6fd"] ;
35 -> 36 ;
37 [label="gini = 0.0\nsamples = 4\nvalue = [9, 0]\nclass = 0", fillcolor="#e58139"] ;
36 -> 37 ;
38 [label="gini = 0.153\nsamples = 10\nvalue = [1, 11]\nclass = 1", fillcolor="#4ba6e7"] ;
36 -> 38 ;
39 [label="bun_mean <= -0.223\ngini = 0.203\nsamples = 1254\nvalue = [227, 1753]\nclass = 1", fillcolor="#53aae8"] ;
35 -> 39 ;
40 [label="gini = 0.275\nsamples = 618\nvalue = [161, 817]\nclass = 1", fillcolor="#60b0ea"] ;
39 -> 40 ;
41 [label="gini = 0.123\nsamples = 636\nvalue = [66, 936]\nclass = 1", fillcolor="#47a4e7"] ;
39 -> 41 ;
42 [label="baseexcess_min <= 0.276\ngini = 0.341\nsamples = 2673\nvalue = [910, 3259]\nclass = 1", fillcolor="#70b8ec"] ;
34 -> 42 ;
43 [label="totalco2_min <= -0.086\ngini = 0.373\nsamples = 1749\nvalue = [677, 2050]\nclass = 1", fillcolor="#7abdee"] ;
42 -> 43 ;
44 [label="gini = 0.287\nsamples = 753\nvalue = [204, 973]\nclass = 1", fillcolor="#63b2ea"] ;
43 -> 44 ;
45 [label="gini = 0.424\nsamples = 996\nvalue = [473, 1077]\nclass = 1", fillcolor="#90c8f0"] ;
43 -> 45 ;
46 [label="admission_age <= -0.572\ngini = 0.271\nsamples = 924\nvalue = [233, 1209]\nclass = 1", fillcolor="#5fb0ea"] ;
42 -> 46 ;
47 [label="gini = 0.412\nsamples = 161\nvalue = [69, 169]\nclass = 1", fillcolor="#8ac5f0"] ;
46 -> 47 ;
48 [label="gini = 0.235\nsamples = 763\nvalue = [164, 1040]\nclass = 1", fillcolor="#58ace9"] ;
46 -> 48 ;
49 [label="po2_min <= -0.199\ngini = 0.405\nsamples = 1884\nvalue = [832, 2116]\nclass = 1", fillcolor="#87c4ef"] ;
33 -> 49 ;
50 [label="admission_age <= -0.113\ngini = 0.338\nsamples = 671\nvalue = [225, 819]\nclass = 1", fillcolor="#6fb8ec"] ;
49 -> 50 ;
51 [label="admission_age <= -0.16\ngini = 0.404\nsamples = 346\nvalue = [154, 394]\nclass = 1", fillcolor="#86c3ef"] ;
50 -> 51 ;
52 [label="gini = 0.391\nsamples = 335\nvalue = [142, 391]\nclass = 1", fillcolor="#81c1ee"] ;
51 -> 52 ;
53 [label="gini = 0.32\nsamples = 11\nvalue = [12, 3]\nclass = 0", fillcolor="#eca06a"] ;
51 -> 53 ;
54 [label="hematocrit_min.1 <= -2.332\ngini = 0.245\nsamples = 325\nvalue = [71, 425]\nclass = 1", fillcolor="#5aade9"] ;
50 -> 54 ;
55 [label="gini = 0.0\nsamples = 2\nvalue = [4, 0]\nclass = 0", fillcolor="#e58139"] ;
54 -> 55 ;
56 [label="gini = 0.235\nsamples = 323\nvalue = [67, 425]\nclass = 1", fillcolor="#58ace9"] ;
54 -> 56 ;
57 [label="mbp_max <= -0.546\ngini = 0.434\nsamples = 1213\nvalue = [607, 1297]\nclass = 1", fillcolor="#96cbf1"] ;
49 -> 57 ;
58 [label="wbc_mean <= -0.571\ngini = 0.375\nsamples = 28\nvalue = [33, 11]\nclass = 0", fillcolor="#eeab7b"] ;
57 -> 58 ;
59 [label="gini = 0.42\nsamples = 7\nvalue = [3, 7]\nclass = 1", fillcolor="#8ec7f0"] ;
58 -> 59 ;
60 [label="gini = 0.208\nsamples = 21\nvalue = [30, 4]\nclass = 0", fillcolor="#e89253"] ;
58 -> 60 ;
61 [label="dbp_min <= 0.763\ngini = 0.427\nsamples = 1185\nvalue = [574, 1286]\nclass = 1", fillcolor="#91c9f1"] ;
57 -> 61 ;
62 [label="gini = 0.369\nsamples = 713\nvalue = [272, 842]\nclass = 1", fillcolor="#79bded"] ;
61 -> 62 ;
63 [label="gini = 0.482\nsamples = 472\nvalue = [302, 444]\nclass = 1", fillcolor="#c0e0f7"] ;
61 -> 63 ;
64 [label="inr_max <= -0.178\ngini = 0.443\nsamples = 10944\nvalue = [5729, 11557]\nclass = 1", fillcolor="#9bcef2"] ;
0 -> 64 [labeldistance=2.5, labelangle=-45, headlabel="False"] ;
65 [label="gcs_motor <= 0.26\ngini = 0.472\nsamples = 7496\nvalue = [4532, 7328]\nclass = 1", fillcolor="#b3daf5"] ;
64 -> 65 ;
66 [label="glucose_mean <= 0.098\ngini = 0.383\nsamples = 2033\nvalue = [826, 2369]\nclass = 1", fillcolor="#7ebfee"] ;
65 -> 66 ;
67 [label="sbp_min <= -0.025\ngini = 0.419\nsamples = 1305\nvalue = [609, 1428]\nclass = 1", fillcolor="#8dc7f0"] ;
66 -> 67 ;
68 [label="weight_admit <= -0.28\ngini = 0.35\nsamples = 646\nvalue = [229, 785]\nclass = 1", fillcolor="#73baed"] ;
67 -> 68 ;
69 [label="gini = 0.439\nsamples = 271\nvalue = [140, 291]\nclass = 1", fillcolor="#98ccf2"] ;
68 -> 69 ;
70 [label="gini = 0.259\nsamples = 375\nvalue = [89, 494]\nclass = 1", fillcolor="#5dafea"] ;
68 -> 70 ;
71 [label="temperature_min <= 0.784\ngini = 0.467\nsamples = 659\nvalue = [380, 643]\nclass = 1", fillcolor="#aed7f4"] ;
67 -> 71 ;
72 [label="gini = 0.482\nsamples = 511\nvalue = [320, 470]\nclass = 1", fillcolor="#c0e0f7"] ;
71 -> 72 ;
73 [label="gini = 0.382\nsamples = 148\nvalue = [60, 173]\nclass = 1", fillcolor="#7ebfee"] ;
71 -> 73 ;
74 [label="po2_min <= -0.249\ngini = 0.305\nsamples = 728\nvalue = [217, 941]\nclass = 1", fillcolor="#67b4eb"] ;
66 -> 74 ;
75 [label="po2_max <= 2.367\ngini = 0.241\nsamples = 319\nvalue = [75, 459]\nclass = 1", fillcolor="#59ade9"] ;
74 -> 75 ;
76 [label="gini = 0.225\nsamples = 316\nvalue = [68, 459]\nclass = 1", fillcolor="#56ace9"] ;
75 -> 76 ;
77 [label="gini = 0.0\nsamples = 3\nvalue = [7, 0]\nclass = 0", fillcolor="#e58139"] ;
75 -> 77 ;
78 [label="chloride_mean <= 2.741\ngini = 0.352\nsamples = 409\nvalue = [142, 482]\nclass = 1", fillcolor="#73baed"] ;
74 -> 78 ;
79 [label="gini = 0.336\nsamples = 397\nvalue = [129, 475]\nclass = 1", fillcolor="#6fb8ec"] ;
78 -> 79 ;
80 [label="gini = 0.455\nsamples = 12\nvalue = [13, 7]\nclass = 0", fillcolor="#f3c5a4"] ;
78 -> 80 ;
81 [label="admission_age <= -1.394\ngini = 0.49\nsamples = 5463\nvalue = [3706, 4959]\nclass = 1", fillcolor="#cde6f8"] ;
65 -> 81 ;
82 [label="weight_admit <= 0.17\ngini = 0.439\nsamples = 870\nvalue = [940, 454]\nclass = 0", fillcolor="#f2be99"] ;
81 -> 82 ;
83 [label="calcium_min.1 <= 1.235\ngini = 0.357\nsamples = 541\nvalue = [663, 201]\nclass = 0", fillcolor="#eda775"] ;
82 -> 83 ;
84 [label="gini = 0.382\nsamples = 478\nvalue = [563, 195]\nclass = 0", fillcolor="#eead7e"] ;
83 -> 84 ;
85 [label="gini = 0.107\nsamples = 63\nvalue = [100, 6]\nclass = 0", fillcolor="#e78945"] ;
83 -> 85 ;
86 [label="hematocrit_min.1 <= 0.861\ngini = 0.499\nsamples = 329\nvalue = [277, 253]\nclass = 0", fillcolor="#fdf4ee"] ;
82 -> 86 ;
87 [label="gini = 0.455\nsamples = 126\nvalue = [70, 130]\nclass = 1", fillcolor="#a4d2f3"] ;
86 -> 87 ;
88 [label="gini = 0.468\nsamples = 203\nvalue = [207, 123]\nclass = 0", fillcolor="#f4ccaf"] ;
86 -> 88 ;
89 [label="admission_age <= -0.241\ngini = 0.471\nsamples = 4593\nvalue = [2766, 4505]\nclass = 1", fillcolor="#b3d9f5"] ;
81 -> 89 ;
90 [label="glucose_max <= -0.71\ngini = 0.497\nsamples = 1705\nvalue = [1269, 1468]\nclass = 1", fillcolor="#e4f2fb"] ;
89 -> 90 ;
91 [label="gini = 0.484\nsamples = 396\nvalue = [378, 262]\nclass = 0", fillcolor="#f7d8c2"] ;
90 -> 91 ;
92 [label="gini = 0.489\nsamples = 1309\nvalue = [891, 1206]\nclass = 1", fillcolor="#cbe5f8"] ;
90 -> 92 ;
93 [label="weight_admit <= 0.641\ngini = 0.442\nsamples = 2888\nvalue = [1497, 3037]\nclass = 1", fillcolor="#9bcdf2"] ;
89 -> 93 ;
94 [label="gini = 0.464\nsamples = 2322\nvalue = [1337, 2319]\nclass = 1", fillcolor="#abd6f4"] ;
93 -> 94 ;
95 [label="gini = 0.298\nsamples = 566\nvalue = [160, 718]\nclass = 1", fillcolor="#65b3eb"] ;
93 -> 95 ;
96 [label="mbp_mean <= 0.562\ngini = 0.344\nsamples = 3448\nvalue = [1197, 4229]\nclass = 1", fillcolor="#71b9ec"] ;
64 -> 96 ;
97 [label="bun_mean <= -0.321\ngini = 0.315\nsamples = 2720\nvalue = [839, 3445]\nclass = 1", fillcolor="#69b5eb"] ;
96 -> 97 ;
98 [label="admission_age <= -2.283\ngini = 0.386\nsamples = 1215\nvalue = [500, 1417]\nclass = 1", fillcolor="#7fc0ee"] ;
97 -> 98 ;
99 [label="temperature_mean <= 2.289\ngini = 0.465\nsamples = 43\nvalue = [43, 25]\nclass = 0", fillcolor="#f4caac"] ;
98 -> 99 ;
100 [label="gini = 0.425\nsamples = 40\nvalue = [43, 19]\nclass = 0", fillcolor="#f0b990"] ;
99 -> 100 ;
101 [label="gini = 0.0\nsamples = 3\nvalue = [0, 6]\nclass = 1", fillcolor="#399de5"] ;
99 -> 101 ;
102 [label="glucose_mean <= -0.125\ngini = 0.372\nsamples = 1172\nvalue = [457, 1392]\nclass = 1", fillcolor="#7abdee"] ;
98 -> 102 ;
103 [label="gini = 0.405\nsamples = 769\nvalue = [341, 870]\nclass = 1", fillcolor="#87c3ef"] ;
102 -> 103 ;
104 [label="gini = 0.298\nsamples = 403\nvalue = [116, 522]\nclass = 1", fillcolor="#65b3eb"] ;
102 -> 104 ;
105 [label="heart_rate_max <= 0.103\ngini = 0.245\nsamples = 1505\nvalue = [339, 2028]\nclass = 1", fillcolor="#5aade9"] ;
97 -> 105 ;
106 [label="spo2_mean <= -6.568\ngini = 0.299\nsamples = 791\nvalue = [228, 1019]\nclass = 1", fillcolor="#65b3eb"] ;
105 -> 106 ;
107 [label="gini = 0.18\nsamples = 7\nvalue = [9, 1]\nclass = 0", fillcolor="#e88f4f"] ;
106 -> 107 ;
108 [label="gini = 0.291\nsamples = 784\nvalue = [219, 1018]\nclass = 1", fillcolor="#64b2eb"] ;
106 -> 108 ;
109 [label="sbp_mean <= 0.485\ngini = 0.179\nsamples = 714\nvalue = [111, 1009]\nclass = 1", fillcolor="#4fa8e8"] ;
105 -> 109 ;
110 [label="gini = 0.161\nsamples = 688\nvalue = [95, 984]\nclass = 1", fillcolor="#4ca6e8"] ;
109 -> 110 ;
111 [label="gini = 0.476\nsamples = 26\nvalue = [16, 25]\nclass = 1", fillcolor="#b8dcf6"] ;
109 -> 111 ;
112 [label="baseexcess_min <= -0.535\ngini = 0.43\nsamples = 728\nvalue = [358, 784]\nclass = 1", fillcolor="#93caf1"] ;
96 -> 112 ;
113 [label="mbp_max <= 0.238\ngini = 0.271\nsamples = 154\nvalue = [40, 207]\nclass = 1", fillcolor="#5fb0ea"] ;
112 -> 113 ;
114 [label="aniongap_min <= -0.409\ngini = 0.444\nsamples = 47\nvalue = [25, 50]\nclass = 1", fillcolor="#9ccef2"] ;
113 -> 114 ;
115 [label="gini = 0.461\nsamples = 13\nvalue = [16, 9]\nclass = 0", fillcolor="#f4c8a8"] ;
114 -> 115 ;
116 [label="gini = 0.295\nsamples = 34\nvalue = [9, 41]\nclass = 1", fillcolor="#64b3eb"] ;
114 -> 116 ;
117 [label="temperature_min <= -11.054\ngini = 0.159\nsamples = 107\nvalue = [15, 157]\nclass = 1", fillcolor="#4ca6e7"] ;
113 -> 117 ;
118 [label="gini = 0.0\nsamples = 1\nvalue = [2, 0]\nclass = 0", fillcolor="#e58139"] ;
117 -> 118 ;
119 [label="gini = 0.141\nsamples = 106\nvalue = [13, 157]\nclass = 1", fillcolor="#49a5e7"] ;
117 -> 119 ;
120 [label="bun_mean <= -0.37\ngini = 0.458\nsamples = 574\nvalue = [318, 577]\nclass = 1", fillcolor="#a6d3f3"] ;
112 -> 120 ;
121 [label="gcs_eyes <= 0.412\ngini = 0.498\nsamples = 264\nvalue = [196, 223]\nclass = 1", fillcolor="#e7f3fc"] ;
120 -> 121 ;
122 [label="gini = 0.441\nsamples = 117\nvalue = [63, 129]\nclass = 1", fillcolor="#9acdf2"] ;
121 -> 122 ;
123 [label="gini = 0.485\nsamples = 147\nvalue = [133, 94]\nclass = 0", fillcolor="#f7dac5"] ;
121 -> 123 ;
124 [label="glucose_mean <= -1.088\ngini = 0.381\nsamples = 310\nvalue = [122, 354]\nclass = 1", fillcolor="#7dbfee"] ;
120 -> 124 ;
125 [label="gini = 0.355\nsamples = 16\nvalue = [20, 6]\nclass = 0", fillcolor="#eda774"] ;
124 -> 125 ;
126 [label="gini = 0.351\nsamples = 294\nvalue = [102, 348]\nclass = 1", fillcolor="#73baed"] ;
124 -> 126 ;
}