digraph Tree {
node [shape=box, style="filled, rounded", color="black", fontname="helvetica"] ;
edge [fontname="helvetica"] ;
0 [label="dbp_min <= 0.09\ngini = 0.415\nsamples = 21153\nvalue = [9823, 23667]\nclass = 1", fillcolor="#8bc6f0"] ;
1 [label="weight_admit <= -0.409\ngini = 0.357\nsamples = 11771\nvalue = [4324, 14299]\nclass = 1", fillcolor="#75bbed"] ;
0 -> 1 [labeldistance=2.5, labelangle=45, headlabel="True"] ;
2 [label="admission_age <= -0.475\ngini = 0.438\nsamples = 4538\nvalue = [2327, 4857]\nclass = 1", fillcolor="#98ccf1"] ;
1 -> 2 ;
3 [label="inr_max <= -0.178\ngini = 0.5\nsamples = 727\nvalue = [591, 590]\nclass = 0", fillcolor="#ffffff"] ;
2 -> 3 ;
4 [label="baseexcess_min <= 0.276\ngini = 0.485\nsamples = 482\nvalue = [467, 331]\nclass = 0", fillcolor="#f7dac5"] ;
3 -> 4 ;
5 [label="admission_age <= -1.762\ngini = 0.454\nsamples = 334\nvalue = [353, 189]\nclass = 0", fillcolor="#f3c4a3"] ;
4 -> 5 ;
6 [label="gini = 0.341\nsamples = 128\nvalue = [147, 41]\nclass = 0", fillcolor="#eca470"] ;
5 -> 6 ;
7 [label="gini = 0.487\nsamples = 206\nvalue = [206, 148]\nclass = 0", fillcolor="#f8dcc7"] ;
5 -> 7 ;
8 [label="glucose_mean <= 0.798\ngini = 0.494\nsamples = 148\nvalue = [114, 142]\nclass = 1", fillcolor="#d8ecfa"] ;
4 -> 8 ;
9 [label="gini = 0.499\nsamples = 139\nvalue = [113, 124]\nclass = 1", fillcolor="#edf6fd"] ;
8 -> 9 ;
10 [label="gini = 0.1\nsamples = 9\nvalue = [1, 18]\nclass = 1", fillcolor="#44a2e6"] ;
8 -> 10 ;
11 [label="ph_max <= -4.674\ngini = 0.438\nsamples = 245\nvalue = [124, 259]\nclass = 1", fillcolor="#98ccf1"] ;
3 -> 11 ;
12 [label="abs_eosinophils_mean <= -0.34\ngini = 0.198\nsamples = 5\nvalue = [8, 1]\nclass = 0", fillcolor="#e89152"] ;
11 -> 12 ;
13 [label="gini = 0.0\nsamples = 1\nvalue = [0, 1]\nclass = 1", fillcolor="#399de5"] ;
12 -> 13 ;
14 [label="gini = 0.0\nsamples = 4\nvalue = [8, 0]\nclass = 0", fillcolor="#e58139"] ;
12 -> 14 ;
15 [label="aniongap_max <= -0.177\ngini = 0.428\nsamples = 240\nvalue = [116, 258]\nclass = 1", fillcolor="#92c9f1"] ;
11 -> 15 ;
16 [label="gini = 0.49\nsamples = 130\nvalue = [86, 115]\nclass = 1", fillcolor="#cde6f8"] ;
15 -> 16 ;
17 [label="gini = 0.287\nsamples = 110\nvalue = [30, 143]\nclass = 1", fillcolor="#63b2ea"] ;
15 -> 17 ;
18 [label="totalco2_min <= -0.295\ngini = 0.411\nsamples = 3811\nvalue = [1736, 4267]\nclass = 1", fillcolor="#8ac5f0"] ;
2 -> 18 ;
19 [label="hematocrit_min.1 <= -0.634\ngini = 0.31\nsamples = 1087\nvalue = [336, 1417]\nclass = 1", fillcolor="#68b4eb"] ;
18 -> 19 ;
20 [label="aniongap_max <= 0.02\ngini = 0.232\nsamples = 542\nvalue = [115, 745]\nclass = 1", fillcolor="#58ace9"] ;
19 -> 20 ;
21 [label="gini = 0.313\nsamples = 270\nvalue = [82, 341]\nclass = 1", fillcolor="#69b5eb"] ;
20 -> 21 ;
22 [label="gini = 0.14\nsamples = 272\nvalue = [33, 404]\nclass = 1", fillcolor="#49a5e7"] ;
20 -> 22 ;
23 [label="dbp_mean <= -1.957\ngini = 0.372\nsamples = 545\nvalue = [221, 672]\nclass = 1", fillcolor="#7abdee"] ;
19 -> 23 ;
24 [label="gini = 0.475\nsamples = 22\nvalue = [19, 12]\nclass = 0", fillcolor="#f5d1b6"] ;
23 -> 24 ;
25 [label="gini = 0.359\nsamples = 523\nvalue = [202, 660]\nclass = 1", fillcolor="#76bbed"] ;
23 -> 25 ;
26 [label="po2_min <= -0.199\ngini = 0.442\nsamples = 2724\nvalue = [1400, 2850]\nclass = 1", fillcolor="#9acdf2"] ;
18 -> 26 ;
27 [label="sbp_mean <= 0.113\ngini = 0.361\nsamples = 794\nvalue = [296, 957]\nclass = 1", fillcolor="#76bbed"] ;
26 -> 27 ;
28 [label="gini = 0.315\nsamples = 553\nvalue = [172, 707]\nclass = 1", fillcolor="#69b5eb"] ;
27 -> 28 ;
29 [label="gini = 0.443\nsamples = 241\nvalue = [124, 250]\nclass = 1", fillcolor="#9bcef2"] ;
27 -> 29 ;
30 [label="bun_mean <= -0.59\ngini = 0.465\nsamples = 1930\nvalue = [1104, 1893]\nclass = 1", fillcolor="#acd6f4"] ;
26 -> 30 ;
31 [label="gini = 0.5\nsamples = 375\nvalue = [306, 299]\nclass = 0", fillcolor="#fefcfa"] ;
30 -> 31 ;
32 [label="gini = 0.445\nsamples = 1555\nvalue = [798, 1594]\nclass = 1", fillcolor="#9ccef2"] ;
30 -> 32 ;
33 [label="gcs_verbal <= 0.618\ngini = 0.288\nsamples = 7233\nvalue = [1997, 9442]\nclass = 1", fillcolor="#63b2ea"] ;
1 -> 33 ;
34 [label="inr_min <= -0.099\ngini = 0.227\nsamples = 3951\nvalue = [822, 5485]\nclass = 1", fillcolor="#57ace9"] ;
33 -> 34 ;
35 [label="dbp_mean <= 0.03\ngini = 0.26\nsamples = 2399\nvalue = [583, 3214]\nclass = 1", fillcolor="#5dafea"] ;
34 -> 35 ;
36 [label="glucose_max <= 1.415\ngini = 0.232\nsamples = 1998\nvalue = [424, 2744]\nclass = 1", fillcolor="#58ace9"] ;
35 -> 36 ;
37 [label="gini = 0.245\nsamples = 1852\nvalue = [419, 2517]\nclass = 1", fillcolor="#5aade9"] ;
36 -> 37 ;
38 [label="gini = 0.042\nsamples = 146\nvalue = [5, 227]\nclass = 1", fillcolor="#3d9fe6"] ;
36 -> 38 ;
39 [label="ptt_min <= 0.118\ngini = 0.378\nsamples = 401\nvalue = [159, 470]\nclass = 1", fillcolor="#7cbeee"] ;
35 -> 39 ;
40 [label="gini = 0.407\nsamples = 346\nvalue = [155, 390]\nclass = 1", fillcolor="#88c4ef"] ;
39 -> 40 ;
41 [label="gini = 0.091\nsamples = 55\nvalue = [4, 80]\nclass = 1", fillcolor="#43a2e6"] ;
39 -> 41 ;
42 [label="ph_max <= -2.65\ngini = 0.172\nsamples = 1552\nvalue = [239, 2271]\nclass = 1", fillcolor="#4ea7e8"] ;
34 -> 42 ;
43 [label="aniongap_max <= 4.345\ngini = 0.406\nsamples = 62\nvalue = [28, 71]\nclass = 1", fillcolor="#87c4ef"] ;
42 -> 43 ;
44 [label="gini = 0.455\nsamples = 51\nvalue = [27, 50]\nclass = 1", fillcolor="#a4d2f3"] ;
43 -> 44 ;
45 [label="gini = 0.087\nsamples = 11\nvalue = [1, 21]\nclass = 1", fillcolor="#42a2e6"] ;
43 -> 45 ;
46 [label="sbp_mean <= -2.105\ngini = 0.16\nsamples = 1490\nvalue = [211, 2200]\nclass = 1", fillcolor="#4ca6e7"] ;
42 -> 46 ;
47 [label="gini = 0.478\nsamples = 21\nvalue = [15, 23]\nclass = 1", fillcolor="#baddf6"] ;
46 -> 47 ;
48 [label="gini = 0.152\nsamples = 1469\nvalue = [196, 2177]\nclass = 1", fillcolor="#4ba6e7"] ;
46 -> 48 ;
49 [label="ph_max <= -0.003\ngini = 0.353\nsamples = 3282\nvalue = [1175, 3957]\nclass = 1", fillcolor="#74baed"] ;
33 -> 49 ;
50 [label="heart_rate_mean <= -1.924\ngini = 0.284\nsamples = 1139\nvalue = [309, 1498]\nclass = 1", fillcolor="#62b1ea"] ;
49 -> 50 ;
51 [label="mbp_min <= -0.495\ngini = 0.475\nsamples = 10\nvalue = [11, 7]\nclass = 0", fillcolor="#f6d1b7"] ;
50 -> 51 ;
52 [label="gini = 0.0\nsamples = 5\nvalue = [0, 5]\nclass = 1", fillcolor="#399de5"] ;
51 -> 52 ;
53 [label="gini = 0.26\nsamples = 5\nvalue = [11, 2]\nclass = 0", fillcolor="#ea985d"] ;
51 -> 53 ;
54 [label="potassium_max.1 <= -0.154\ngini = 0.278\nsamples = 1129\nvalue = [298, 1491]\nclass = 1", fillcolor="#61b1ea"] ;
50 -> 54 ;
55 [label="gini = 0.352\nsamples = 458\nvalue = [168, 569]\nclass = 1", fillcolor="#73baed"] ;
54 -> 55 ;
56 [label="gini = 0.217\nsamples = 671\nvalue = [130, 922]\nclass = 1", fillcolor="#55abe9"] ;
54 -> 56 ;
57 [label="baseexcess_min <= 0.276\ngini = 0.385\nsamples = 2143\nvalue = [866, 2459]\nclass = 1", fillcolor="#7fc0ee"] ;
49 -> 57 ;
58 [label="heart_rate_mean <= 1.965\ngini = 0.413\nsamples = 1534\nvalue = [693, 1686]\nclass = 1", fillcolor="#8ac5f0"] ;
57 -> 58 ;
59 [label="gini = 0.419\nsamples = 1486\nvalue = [688, 1619]\nclass = 1", fillcolor="#8dc7f0"] ;
58 -> 59 ;
60 [label="gini = 0.129\nsamples = 48\nvalue = [5, 67]\nclass = 1", fillcolor="#48a4e7"] ;
58 -> 60 ;
61 [label="totalco2_max <= -1.325\ngini = 0.299\nsamples = 609\nvalue = [173, 773]\nclass = 1", fillcolor="#65b3eb"] ;
57 -> 61 ;
62 [label="gini = 0.0\nsamples = 4\nvalue = [4, 0]\nclass = 0", fillcolor="#e58139"] ;
61 -> 62 ;
63 [label="gini = 0.294\nsamples = 605\nvalue = [169, 773]\nclass = 1", fillcolor="#64b2eb"] ;
61 -> 63 ;
64 [label="ph_min <= 0.058\ngini = 0.466\nsamples = 9382\nvalue = [5499, 9368]\nclass = 1", fillcolor="#add7f4"] ;
0 -> 64 [labeldistance=2.5, labelangle=-45, headlabel="False"] ;
65 [label="admission_age <= -0.839\ngini = 0.404\nsamples = 2641\nvalue = [1190, 3039]\nclass = 1", fillcolor="#87c3ef"] ;
64 -> 65 ;
66 [label="bun_mean <= -0.296\ngini = 0.472\nsamples = 740\nvalue = [458, 739]\nclass = 1", fillcolor="#b4daf5"] ;
65 -> 66 ;
67 [label="gcs_verbal <= -0.772\ngini = 0.493\nsamples = 552\nvalue = [395, 504]\nclass = 1", fillcolor="#d4eaf9"] ;
66 -> 67 ;
68 [label="po2_min <= -0.132\ngini = 0.467\nsamples = 293\nvalue = [178, 302]\nclass = 1", fillcolor="#aed7f4"] ;
67 -> 68 ;
69 [label="gini = 0.367\nsamples = 154\nvalue = [62, 194]\nclass = 1", fillcolor="#78bced"] ;
68 -> 69 ;
70 [label="gini = 0.499\nsamples = 139\nvalue = [116, 108]\nclass = 0", fillcolor="#fdf6f1"] ;
68 -> 70 ;
71 [label="spo2_mean <= 0.111\ngini = 0.499\nsamples = 259\nvalue = [217, 202]\nclass = 0", fillcolor="#fdf6f1"] ;
67 -> 71 ;
72 [label="gini = 0.453\nsamples = 79\nvalue = [45, 85]\nclass = 1", fillcolor="#a2d1f3"] ;
71 -> 72 ;
73 [label="gini = 0.482\nsamples = 180\nvalue = [172, 117]\nclass = 0", fillcolor="#f7d7c0"] ;
71 -> 73 ;
74 [label="platelets_mean <= -0.68\ngini = 0.333\nsamples = 188\nvalue = [63, 235]\nclass = 1", fillcolor="#6eb7ec"] ;
66 -> 74 ;
75 [label="baseexcess_max <= 5.872\ngini = 0.118\nsamples = 55\nvalue = [6, 89]\nclass = 1", fillcolor="#46a4e7"] ;
74 -> 75 ;
76 [label="gini = 0.101\nsamples = 54\nvalue = [5, 89]\nclass = 1", fillcolor="#44a3e6"] ;
75 -> 76 ;
77 [label="gini = 0.0\nsamples = 1\nvalue = [1, 0]\nclass = 0", fillcolor="#e58139"] ;
75 -> 77 ;
78 [label="glucose_max <= -0.987\ngini = 0.404\nsamples = 133\nvalue = [57, 146]\nclass = 1", fillcolor="#86c3ef"] ;
74 -> 78 ;
79 [label="gini = 0.0\nsamples = 4\nvalue = [7, 0]\nclass = 0", fillcolor="#e58139"] ;
78 -> 79 ;
80 [label="gini = 0.38\nsamples = 129\nvalue = [50, 146]\nclass = 1", fillcolor="#7dbfee"] ;
78 -> 80 ;
81 [label="dbp_min <= 1.717\ngini = 0.366\nsamples = 1901\nvalue = [732, 2300]\nclass = 1", fillcolor="#78bced"] ;
65 -> 81 ;
82 [label="sbp_mean <= -0.482\ngini = 0.35\nsamples = 1799\nvalue = [650, 2228]\nclass = 1", fillcolor="#73baed"] ;
81 -> 82 ;
83 [label="mbp_mean <= -1.212\ngini = 0.276\nsamples = 638\nvalue = [167, 842]\nclass = 1", fillcolor="#60b0ea"] ;
82 -> 83 ;
84 [label="gini = 0.278\nsamples = 7\nvalue = [10, 2]\nclass = 0", fillcolor="#ea9a61"] ;
83 -> 84 ;
85 [label="gini = 0.265\nsamples = 631\nvalue = [157, 840]\nclass = 1", fillcolor="#5eafea"] ;
83 -> 85 ;
86 [label="ptt_min <= -0.144\ngini = 0.383\nsamples = 1161\nvalue = [483, 1386]\nclass = 1", fillcolor="#7ebfee"] ;
82 -> 86 ;
87 [label="gini = 0.424\nsamples = 758\nvalue = [372, 846]\nclass = 1", fillcolor="#90c8f0"] ;
86 -> 87 ;
88 [label="gini = 0.283\nsamples = 403\nvalue = [111, 540]\nclass = 1", fillcolor="#62b1ea"] ;
86 -> 88 ;
89 [label="abs_lymphocytes_mean <= -0.057\ngini = 0.498\nsamples = 102\nvalue = [82, 72]\nclass = 0", fillcolor="#fcf0e7"] ;
81 -> 89 ;
90 [label="spo2_mean <= 1.26\ngini = 0.491\nsamples = 74\nvalue = [47, 62]\nclass = 1", fillcolor="#cfe7f9"] ;
89 -> 90 ;
91 [label="gini = 0.461\nsamples = 70\nvalue = [35, 62]\nclass = 1", fillcolor="#a9d4f4"] ;
90 -> 91 ;
92 [label="gini = 0.0\nsamples = 4\nvalue = [12, 0]\nclass = 0", fillcolor="#e58139"] ;
90 -> 92 ;
93 [label="gcs_verbal <= -0.308\ngini = 0.346\nsamples = 28\nvalue = [35, 10]\nclass = 0", fillcolor="#eca572"] ;
89 -> 93 ;
94 [label="gini = 0.463\nsamples = 9\nvalue = [4, 7]\nclass = 1", fillcolor="#aad5f4"] ;
93 -> 94 ;
95 [label="gini = 0.161\nsamples = 19\nvalue = [31, 3]\nclass = 0", fillcolor="#e88d4c"] ;
93 -> 95 ;
96 [label="weight_admit <= 0.386\ngini = 0.482\nsamples = 6741\nvalue = [4309, 6329]\nclass = 1", fillcolor="#c0e0f7"] ;
64 -> 96 ;
97 [label="ptt_max <= -0.235\ngini = 0.495\nsamples = 4758\nvalue = [3387, 4121]\nclass = 1", fillcolor="#dceefa"] ;
96 -> 97 ;
98 [label="gcs_min <= -0.756\ngini = 0.499\nsamples = 3499\nvalue = [2664, 2841]\nclass = 1", fillcolor="#f3f9fd"] ;
97 -> 98 ;
99 [label="admission_age <= -1.203\ngini = 0.438\nsamples = 438\nvalue = [224, 469]\nclass = 1", fillcolor="#98ccf1"] ;
98 -> 99 ;
100 [label="gini = 0.495\nsamples = 61\nvalue = [59, 48]\nclass = 0", fillcolor="#fae8da"] ;
99 -> 100 ;
101 [label="gini = 0.405\nsamples = 377\nvalue = [165, 421]\nclass = 1", fillcolor="#87c3ef"] ;
99 -> 101 ;
102 [label="pco2_min <= -0.134\ngini = 0.5\nsamples = 3061\nvalue = [2440, 2372]\nclass = 0", fillcolor="#fefbf9"] ;
98 -> 102 ;
103 [label="gini = 0.486\nsamples = 734\nvalue = [489, 685]\nclass = 1", fillcolor="#c6e3f8"] ;
102 -> 103 ;
104 [label="gini = 0.497\nsamples = 2327\nvalue = [1951, 1687]\nclass = 0", fillcolor="#fbeee4"] ;
102 -> 104 ;
105 [label="resp_rate_mean <= 0.755\ngini = 0.461\nsamples = 1259\nvalue = [723, 1280]\nclass = 1", fillcolor="#a9d4f4"] ;
97 -> 105 ;
106 [label="bun_mean <= -0.394\ngini = 0.479\nsamples = 989\nvalue = [623, 947]\nclass = 1", fillcolor="#bbddf6"] ;
105 -> 106 ;
107 [label="gini = 0.5\nsamples = 497\nvalue = [382, 396]\nclass = 1", fillcolor="#f8fcfe"] ;
106 -> 107 ;
108 [label="gini = 0.423\nsamples = 492\nvalue = [241, 551]\nclass = 1", fillcolor="#90c8f0"] ;
106 -> 108 ;
109 [label="potassium_max.1 <= 0.443\ngini = 0.355\nsamples = 270\nvalue = [100, 333]\nclass = 1", fillcolor="#74baed"] ;
105 -> 109 ;
110 [label="gini = 0.405\nsamples = 222\nvalue = [98, 250]\nclass = 1", fillcolor="#87c3ef"] ;
109 -> 110 ;
111 [label="gini = 0.046\nsamples = 48\nvalue = [2, 83]\nclass = 1", fillcolor="#3e9fe6"] ;
109 -> 111 ;
112 [label="gcs_verbal <= 0.618\ngini = 0.416\nsamples = 1983\nvalue = [922, 2208]\nclass = 1", fillcolor="#8cc6f0"] ;
96 -> 112 ;
113 [label="ph_min <= 0.166\ngini = 0.316\nsamples = 662\nvalue = [205, 837]\nclass = 1", fillcolor="#69b5eb"] ;
112 -> 113 ;
114 [label="admission_age <= -1.672\ngini = 0.406\nsamples = 205\nvalue = [90, 228]\nclass = 1", fillcolor="#87c4ef"] ;
113 -> 114 ;
115 [label="gini = 0.388\nsamples = 14\nvalue = [14, 5]\nclass = 0", fillcolor="#eeae80"] ;
114 -> 115 ;
116 [label="gini = 0.379\nsamples = 191\nvalue = [76, 223]\nclass = 1", fillcolor="#7cbeee"] ;
114 -> 116 ;
117 [label="glucose_max.2 <= -0.556\ngini = 0.267\nsamples = 457\nvalue = [115, 609]\nclass = 1", fillcolor="#5eb0ea"] ;
113 -> 117 ;
118 [label="gini = 0.426\nsamples = 75\nvalue = [40, 90]\nclass = 1", fillcolor="#91c9f1"] ;
117 -> 118 ;
119 [label="gini = 0.221\nsamples = 382\nvalue = [75, 519]\nclass = 1", fillcolor="#56abe9"] ;
117 -> 119 ;
120 [label="resp_rate_mean <= 0.741\ngini = 0.451\nsamples = 1321\nvalue = [717, 1371]\nclass = 1", fillcolor="#a1d0f3"] ;
112 -> 120 ;
121 [label="mbp_max <= 0.59\ngini = 0.474\nsamples = 1024\nvalue = [619, 989]\nclass = 1", fillcolor="#b5daf5"] ;
120 -> 121 ;
122 [label="gini = 0.486\nsamples = 795\nvalue = [518, 722]\nclass = 1", fillcolor="#c7e3f8"] ;
121 -> 122 ;
123 [label="gini = 0.398\nsamples = 229\nvalue = [101, 267]\nclass = 1", fillcolor="#84c2ef"] ;
121 -> 123 ;
124 [label="glucose_mean <= -0.776\ngini = 0.325\nsamples = 297\nvalue = [98, 382]\nclass = 1", fillcolor="#6cb6ec"] ;
120 -> 124 ;
125 [label="gini = 0.472\nsamples = 48\nvalue = [31, 50]\nclass = 1", fillcolor="#b4daf5"] ;
124 -> 125 ;
126 [label="gini = 0.279\nsamples = 249\nvalue = [67, 332]\nclass = 1", fillcolor="#61b1ea"] ;
124 -> 126 ;
}