digraph Tree {
node [shape=box, style="filled, rounded", color="black", fontname="helvetica"] ;
edge [fontname="helvetica"] ;
0 [label="potassium_max.1 <= -0.154\ngini = 0.42\nsamples = 21108\nvalue = [10029, 23461]\nclass = 1", fillcolor="#8ec7f0"] ;
1 [label="admission_age <= -0.915\ngini = 0.458\nsamples = 11063\nvalue = [6225, 11287]\nclass = 1", fillcolor="#a6d3f3"] ;
0 -> 1 [labeldistance=2.5, labelangle=45, headlabel="True"] ;
2 [label="glucose_max <= -0.732\ngini = 0.499\nsamples = 2202\nvalue = [1812, 1690]\nclass = 0", fillcolor="#fdf7f2"] ;
1 -> 2 ;
3 [label="temperature_mean <= 0.955\ngini = 0.465\nsamples = 699\nvalue = [708, 411]\nclass = 0", fillcolor="#f4caac"] ;
2 -> 3 ;
4 [label="glucose_min <= -0.349\ngini = 0.443\nsamples = 563\nvalue = [598, 297]\nclass = 0", fillcolor="#f2c09b"] ;
3 -> 4 ;
5 [label="admission_age <= -1.903\ngini = 0.466\nsamples = 400\nvalue = [392, 230]\nclass = 0", fillcolor="#f4cbad"] ;
4 -> 5 ;
6 [label="gini = 0.386\nsamples = 182\nvalue = [209, 74]\nclass = 0", fillcolor="#eeae7f"] ;
5 -> 6 ;
7 [label="gini = 0.497\nsamples = 218\nvalue = [183, 156]\nclass = 0", fillcolor="#fbece2"] ;
5 -> 7 ;
8 [label="abs_neutrophils_mean <= -1.22\ngini = 0.37\nsamples = 163\nvalue = [206, 67]\nclass = 0", fillcolor="#edaa79"] ;
4 -> 8 ;
9 [label="gini = 0.245\nsamples = 4\nvalue = [1, 6]\nclass = 1", fillcolor="#5aade9"] ;
8 -> 9 ;
10 [label="gini = 0.353\nsamples = 159\nvalue = [205, 61]\nclass = 0", fillcolor="#eda674"] ;
8 -> 10 ;
11 [label="resp_rate_max <= 0.102\ngini = 0.5\nsamples = 136\nvalue = [110, 114]\nclass = 1", fillcolor="#f8fcfe"] ;
3 -> 11 ;
12 [label="potassium_min.1 <= -0.646\ngini = 0.457\nsamples = 62\nvalue = [36, 66]\nclass = 1", fillcolor="#a5d2f3"] ;
11 -> 12 ;
13 [label="gini = 0.341\nsamples = 34\nvalue = [12, 43]\nclass = 1", fillcolor="#70b8ec"] ;
12 -> 13 ;
14 [label="gini = 0.5\nsamples = 28\nvalue = [24, 23]\nclass = 0", fillcolor="#fefaf7"] ;
12 -> 14 ;
15 [label="spo2_mean <= -1.253\ngini = 0.477\nsamples = 74\nvalue = [74, 48]\nclass = 0", fillcolor="#f6d3b9"] ;
11 -> 15 ;
16 [label="gini = 0.0\nsamples = 5\nvalue = [0, 11]\nclass = 1", fillcolor="#399de5"] ;
15 -> 16 ;
17 [label="gini = 0.444\nsamples = 69\nvalue = [74, 37]\nclass = 0", fillcolor="#f2c09c"] ;
15 -> 17 ;
18 [label="weight_admit <= -0.39\ngini = 0.497\nsamples = 1503\nvalue = [1104, 1279]\nclass = 1", fillcolor="#e4f2fb"] ;
2 -> 18 ;
19 [label="gcs_verbal <= -0.772\ngini = 0.484\nsamples = 528\nvalue = [493, 344]\nclass = 0", fillcolor="#f7d9c3"] ;
18 -> 19 ;
20 [label="weight_admit <= -0.535\ngini = 0.479\nsamples = 169\nvalue = [110, 167]\nclass = 1", fillcolor="#bbdef6"] ;
19 -> 20 ;
21 [label="gini = 0.455\nsamples = 137\nvalue = [78, 145]\nclass = 1", fillcolor="#a4d2f3"] ;
20 -> 21 ;
22 [label="gini = 0.483\nsamples = 32\nvalue = [32, 22]\nclass = 0", fillcolor="#f7d8c1"] ;
20 -> 22 ;
23 [label="po2_max <= -0.284\ngini = 0.432\nsamples = 359\nvalue = [383, 177]\nclass = 0", fillcolor="#f1bb95"] ;
19 -> 23 ;
24 [label="gini = 0.494\nsamples = 144\nvalue = [120, 96]\nclass = 0", fillcolor="#fae6d7"] ;
23 -> 24 ;
25 [label="gini = 0.36\nsamples = 215\nvalue = [263, 81]\nclass = 0", fillcolor="#eda876"] ;
23 -> 25 ;
26 [label="po2_min <= -0.533\ngini = 0.478\nsamples = 975\nvalue = [611, 935]\nclass = 1", fillcolor="#baddf6"] ;
18 -> 26 ;
27 [label="glucose_mean <= 0.312\ngini = 0.378\nsamples = 193\nvalue = [75, 221]\nclass = 1", fillcolor="#7cbeee"] ;
26 -> 27 ;
28 [label="gini = 0.313\nsamples = 138\nvalue = [40, 166]\nclass = 1", fillcolor="#69b5eb"] ;
27 -> 28 ;
29 [label="gini = 0.475\nsamples = 55\nvalue = [35, 55]\nclass = 1", fillcolor="#b7dbf6"] ;
27 -> 29 ;
30 [label="totalco2_min <= 0.747\ngini = 0.49\nsamples = 782\nvalue = [536, 714]\nclass = 1", fillcolor="#cee7f9"] ;
26 -> 30 ;
31 [label="gini = 0.497\nsamples = 680\nvalue = [502, 588]\nclass = 1", fillcolor="#e2f1fb"] ;
30 -> 31 ;
32 [label="gini = 0.335\nsamples = 102\nvalue = [34, 126]\nclass = 1", fillcolor="#6eb7ec"] ;
30 -> 32 ;
33 [label="ph_max <= 0.152\ngini = 0.432\nsamples = 8861\nvalue = [4413, 9597]\nclass = 1", fillcolor="#94caf1"] ;
1 -> 33 ;
34 [label="ph_max <= -0.003\ngini = 0.459\nsamples = 5643\nvalue = [3194, 5753]\nclass = 1", fillcolor="#a7d3f3"] ;
33 -> 34 ;
35 [label="ph_max <= -4.363\ngini = 0.403\nsamples = 2465\nvalue = [1099, 2822]\nclass = 1", fillcolor="#86c3ef"] ;
34 -> 35 ;
36 [label="glucose_mean <= -0.763\ngini = 0.403\nsamples = 16\nvalue = [18, 7]\nclass = 0", fillcolor="#efb286"] ;
35 -> 36 ;
37 [label="gini = 0.278\nsamples = 4\nvalue = [1, 5]\nclass = 1", fillcolor="#61b1ea"] ;
36 -> 37 ;
38 [label="gini = 0.188\nsamples = 12\nvalue = [17, 2]\nclass = 0", fillcolor="#e89050"] ;
36 -> 38 ;
39 [label="potassium_max.1 <= -0.989\ngini = 0.401\nsamples = 2449\nvalue = [1081, 2815]\nclass = 1", fillcolor="#85c3ef"] ;
35 -> 39 ;
40 [label="gini = 0.472\nsamples = 332\nvalue = [209, 338]\nclass = 1", fillcolor="#b3daf5"] ;
39 -> 40 ;
41 [label="gini = 0.385\nsamples = 2117\nvalue = [872, 2477]\nclass = 1", fillcolor="#7fbfee"] ;
39 -> 41 ;
42 [label="gcs_verbal <= 0.618\ngini = 0.486\nsamples = 3178\nvalue = [2095, 2931]\nclass = 1", fillcolor="#c7e3f8"] ;
34 -> 42 ;
43 [label="resp_rate_max <= -1.724\ngini = 0.429\nsamples = 968\nvalue = [487, 1073]\nclass = 1", fillcolor="#93c9f1"] ;
42 -> 43 ;
44 [label="gini = 0.0\nsamples = 3\nvalue = [7, 0]\nclass = 0", fillcolor="#e58139"] ;
43 -> 44 ;
45 [label="gini = 0.427\nsamples = 965\nvalue = [480, 1073]\nclass = 1", fillcolor="#92c9f1"] ;
43 -> 45 ;
46 [label="baseexcess_min <= 0.276\ngini = 0.497\nsamples = 2210\nvalue = [1608, 1858]\nclass = 1", fillcolor="#e4f2fc"] ;
42 -> 46 ;
47 [label="gini = 0.499\nsamples = 2094\nvalue = [1563, 1723]\nclass = 1", fillcolor="#edf6fd"] ;
46 -> 47 ;
48 [label="gini = 0.375\nsamples = 116\nvalue = [45, 135]\nclass = 1", fillcolor="#7bbeee"] ;
46 -> 48 ;
49 [label="mbp_mean <= -0.352\ngini = 0.366\nsamples = 3218\nvalue = [1219, 3844]\nclass = 1", fillcolor="#78bced"] ;
33 -> 49 ;
50 [label="po2_max <= 1.693\ngini = 0.302\nsamples = 1198\nvalue = [356, 1564]\nclass = 1", fillcolor="#66b3eb"] ;
49 -> 50 ;
51 [label="abs_neutrophils_mean <= -0.432\ngini = 0.264\nsamples = 1000\nvalue = [249, 1339]\nclass = 1", fillcolor="#5eafea"] ;
50 -> 51 ;
52 [label="gini = 0.374\nsamples = 194\nvalue = [77, 232]\nclass = 1", fillcolor="#7bbeee"] ;
51 -> 52 ;
53 [label="gini = 0.233\nsamples = 806\nvalue = [172, 1107]\nclass = 1", fillcolor="#58ace9"] ;
51 -> 53 ;
54 [label="totalco2_min <= -0.295\ngini = 0.437\nsamples = 198\nvalue = [107, 225]\nclass = 1", fillcolor="#97ccf1"] ;
50 -> 54 ;
55 [label="gini = 0.247\nsamples = 54\nvalue = [13, 77]\nclass = 1", fillcolor="#5aaee9"] ;
54 -> 55 ;
56 [label="gini = 0.475\nsamples = 144\nvalue = [94, 148]\nclass = 1", fillcolor="#b7dbf6"] ;
54 -> 56 ;
57 [label="glucose_max.2 <= -0.055\ngini = 0.398\nsamples = 2020\nvalue = [863, 2280]\nclass = 1", fillcolor="#84c2ef"] ;
49 -> 57 ;
58 [label="inr_min <= 0.078\ngini = 0.427\nsamples = 1340\nvalue = [636, 1420]\nclass = 1", fillcolor="#92c9f1"] ;
57 -> 58 ;
59 [label="gini = 0.445\nsamples = 1121\nvalue = [574, 1145]\nclass = 1", fillcolor="#9ccef2"] ;
58 -> 59 ;
60 [label="gini = 0.3\nsamples = 219\nvalue = [62, 275]\nclass = 1", fillcolor="#66b3eb"] ;
58 -> 60 ;
61 [label="ph_min <= 1.246\ngini = 0.33\nsamples = 680\nvalue = [227, 860]\nclass = 1", fillcolor="#6db7ec"] ;
57 -> 61 ;
62 [label="gini = 0.282\nsamples = 471\nvalue = [130, 635]\nclass = 1", fillcolor="#62b1ea"] ;
61 -> 62 ;
63 [label="gini = 0.421\nsamples = 209\nvalue = [97, 225]\nclass = 1", fillcolor="#8ec7f0"] ;
61 -> 63 ;
64 [label="admission_age <= -1.736\ngini = 0.363\nsamples = 10045\nvalue = [3804, 12174]\nclass = 1", fillcolor="#77bced"] ;
0 -> 64 [labeldistance=2.5, labelangle=-45, headlabel="False"] ;
65 [label="ptt_max <= -0.352\ngini = 0.5\nsamples = 537\nvalue = [406, 428]\nclass = 1", fillcolor="#f5fafe"] ;
64 -> 65 ;
66 [label="sbp_max <= 0.719\ngini = 0.497\nsamples = 371\nvalue = [306, 264]\nclass = 0", fillcolor="#fbeee4"] ;
65 -> 66 ;
67 [label="gcs_motor <= -0.307\ngini = 0.486\nsamples = 311\nvalue = [275, 197]\nclass = 0", fillcolor="#f8dbc7"] ;
66 -> 67 ;
68 [label="glucose_max.2 <= -0.686\ngini = 0.324\nsamples = 36\nvalue = [11, 43]\nclass = 1", fillcolor="#6cb6ec"] ;
67 -> 68 ;
69 [label="gini = 0.0\nsamples = 3\nvalue = [3, 0]\nclass = 0", fillcolor="#e58139"] ;
68 -> 69 ;
70 [label="gini = 0.265\nsamples = 33\nvalue = [8, 43]\nclass = 1", fillcolor="#5eafea"] ;
68 -> 70 ;
71 [label="po2_max <= 0.572\ngini = 0.465\nsamples = 275\nvalue = [264, 154]\nclass = 0", fillcolor="#f4caac"] ;
67 -> 71 ;
72 [label="gini = 0.443\nsamples = 222\nvalue = [232, 115]\nclass = 0", fillcolor="#f2bf9b"] ;
71 -> 72 ;
73 [label="gini = 0.495\nsamples = 53\nvalue = [32, 39]\nclass = 1", fillcolor="#dbedfa"] ;
71 -> 73 ;
74 [label="gcs_eyes <= -1.334\ngini = 0.433\nsamples = 60\nvalue = [31, 67]\nclass = 1", fillcolor="#95caf1"] ;
66 -> 74 ;
75 [label="potassium_min.1 <= -0.997\ngini = 0.133\nsamples = 15\nvalue = [2, 26]\nclass = 1", fillcolor="#48a5e7"] ;
74 -> 75 ;
76 [label="gini = 0.0\nsamples = 1\nvalue = [2, 0]\nclass = 0", fillcolor="#e58139"] ;
75 -> 76 ;
77 [label="gini = 0.0\nsamples = 14\nvalue = [0, 26]\nclass = 1", fillcolor="#399de5"] ;
75 -> 77 ;
78 [label="calcium_min.1 <= 0.871\ngini = 0.485\nsamples = 45\nvalue = [29, 41]\nclass = 1", fillcolor="#c5e2f7"] ;
74 -> 78 ;
79 [label="gini = 0.427\nsamples = 35\nvalue = [17, 38]\nclass = 1", fillcolor="#92c9f1"] ;
78 -> 79 ;
80 [label="gini = 0.32\nsamples = 10\nvalue = [12, 3]\nclass = 0", fillcolor="#eca06a"] ;
78 -> 80 ;
81 [label="ph_min <= -5.451\ngini = 0.471\nsamples = 166\nvalue = [100, 164]\nclass = 1", fillcolor="#b2d9f5"] ;
65 -> 81 ;
82 [label="gini = 0.0\nsamples = 4\nvalue = [10, 0]\nclass = 0", fillcolor="#e58139"] ;
81 -> 82 ;
83 [label="heart_rate_mean <= -0.163\ngini = 0.458\nsamples = 162\nvalue = [90, 164]\nclass = 1", fillcolor="#a6d3f3"] ;
81 -> 83 ;
84 [label="glucose_min <= 0.395\ngini = 0.456\nsamples = 37\nvalue = [37, 20]\nclass = 0", fillcolor="#f3c5a4"] ;
83 -> 84 ;
85 [label="gini = 0.411\nsamples = 34\nvalue = [37, 15]\nclass = 0", fillcolor="#f0b489"] ;
84 -> 85 ;
86 [label="gini = 0.0\nsamples = 3\nvalue = [0, 5]\nclass = 1", fillcolor="#399de5"] ;
84 -> 86 ;
87 [label="platelets_mean <= 0.11\ngini = 0.393\nsamples = 125\nvalue = [53, 144]\nclass = 1", fillcolor="#82c1ef"] ;
83 -> 87 ;
88 [label="gini = 0.288\nsamples = 80\nvalue = [22, 104]\nclass = 1", fillcolor="#63b2ea"] ;
87 -> 88 ;
89 [label="gini = 0.492\nsamples = 45\nvalue = [31, 40]\nclass = 1", fillcolor="#d2e9f9"] ;
87 -> 89 ;
90 [label="dbp_min <= 0.437\ngini = 0.348\nsamples = 9508\nvalue = [3398, 11746]\nclass = 1", fillcolor="#72b9ed"] ;
64 -> 90 ;
91 [label="ph_min <= 0.058\ngini = 0.307\nsamples = 7128\nvalue = [2153, 9238]\nclass = 1", fillcolor="#67b4eb"] ;
90 -> 91 ;
92 [label="aniongap_min <= -0.131\ngini = 0.236\nsamples = 3654\nvalue = [800, 5041]\nclass = 1", fillcolor="#58ade9"] ;
91 -> 92 ;
93 [label="dbp_min <= 0.134\ngini = 0.29\nsamples = 1908\nvalue = [541, 2535]\nclass = 1", fillcolor="#63b2eb"] ;
92 -> 93 ;
94 [label="gini = 0.262\nsamples = 1637\nvalue = [410, 2238]\nclass = 1", fillcolor="#5dafea"] ;
93 -> 94 ;
95 [label="gini = 0.425\nsamples = 271\nvalue = [131, 297]\nclass = 1", fillcolor="#90c8f0"] ;
93 -> 95 ;
96 [label="weight_admit <= -1.779\ngini = 0.17\nsamples = 1746\nvalue = [259, 2506]\nclass = 1", fillcolor="#4da7e8"] ;
92 -> 96 ;
97 [label="gini = 0.49\nsamples = 13\nvalue = [12, 9]\nclass = 0", fillcolor="#f8e0ce"] ;
96 -> 97 ;
98 [label="gini = 0.164\nsamples = 1733\nvalue = [247, 2497]\nclass = 1", fillcolor="#4da7e8"] ;
96 -> 98 ;
99 [label="gcs_eyes <= 0.412\ngini = 0.369\nsamples = 3474\nvalue = [1353, 4197]\nclass = 1", fillcolor="#79bded"] ;
91 -> 99 ;
100 [label="glucose_max <= 0.043\ngini = 0.311\nsamples = 1653\nvalue = [514, 2157]\nclass = 1", fillcolor="#68b4eb"] ;
99 -> 100 ;
101 [label="gini = 0.353\nsamples = 1078\nvalue = [396, 1336]\nclass = 1", fillcolor="#74baed"] ;
100 -> 101 ;
102 [label="gini = 0.22\nsamples = 575\nvalue = [118, 821]\nclass = 1", fillcolor="#55abe9"] ;
100 -> 102 ;
103 [label="ptt_min <= 0.399\ngini = 0.413\nsamples = 1821\nvalue = [839, 2040]\nclass = 1", fillcolor="#8ac5f0"] ;
99 -> 103 ;
104 [label="gini = 0.432\nsamples = 1501\nvalue = [751, 1624]\nclass = 1", fillcolor="#95caf1"] ;
103 -> 104 ;
105 [label="gini = 0.288\nsamples = 320\nvalue = [88, 416]\nclass = 1", fillcolor="#63b2ea"] ;
103 -> 105 ;
106 [label="platelets_mean <= -0.68\ngini = 0.443\nsamples = 2380\nvalue = [1245, 2508]\nclass = 1", fillcolor="#9bcef2"] ;
90 -> 106 ;
107 [label="inr_max <= 0.012\ngini = 0.337\nsamples = 467\nvalue = [151, 554]\nclass = 1", fillcolor="#6fb8ec"] ;
106 -> 107 ;
108 [label="heart_rate_min <= -1.736\ngini = 0.399\nsamples = 290\nvalue = [122, 322]\nclass = 1", fillcolor="#84c2ef"] ;
107 -> 108 ;
109 [label="gini = 0.0\nsamples = 4\nvalue = [5, 0]\nclass = 0", fillcolor="#e58139"] ;
108 -> 109 ;
110 [label="gini = 0.391\nsamples = 286\nvalue = [117, 322]\nclass = 1", fillcolor="#81c1ee"] ;
108 -> 110 ;
111 [label="ptt_max <= -0.449\ngini = 0.198\nsamples = 177\nvalue = [29, 232]\nclass = 1", fillcolor="#52a9e8"] ;
107 -> 111 ;
112 [label="gini = 0.494\nsamples = 7\nvalue = [5, 4]\nclass = 0", fillcolor="#fae6d7"] ;
111 -> 112 ;
113 [label="gini = 0.172\nsamples = 170\nvalue = [24, 228]\nclass = 1", fillcolor="#4ea7e8"] ;
111 -> 113 ;
114 [label="pco2_max <= 0.118\ngini = 0.46\nsamples = 1913\nvalue = [1094, 1954]\nclass = 1", fillcolor="#a8d4f4"] ;
106 -> 114 ;
115 [label="mbp_max <= 0.277\ngini = 0.482\nsamples = 1388\nvalue = [894, 1317]\nclass = 1", fillcolor="#bfe0f7"] ;
114 -> 115 ;
116 [label="gini = 0.496\nsamples = 843\nvalue = [613, 733]\nclass = 1", fillcolor="#dfeffb"] ;
115 -> 116 ;
117 [label="gini = 0.439\nsamples = 545\nvalue = [281, 584]\nclass = 1", fillcolor="#98ccf2"] ;
115 -> 117 ;
118 [label="glucose_mean <= -0.784\ngini = 0.364\nsamples = 525\nvalue = [200, 637]\nclass = 1", fillcolor="#77bced"] ;
114 -> 118 ;
119 [label="gini = 0.499\nsamples = 57\nvalue = [46, 51]\nclass = 1", fillcolor="#ecf5fc"] ;
118 -> 119 ;
120 [label="gini = 0.33\nsamples = 468\nvalue = [154, 586]\nclass = 1", fillcolor="#6db7ec"] ;
118 -> 120 ;
}