digraph Tree {
node [shape=box, style="filled, rounded", color="black", fontname="helvetica"] ;
edge [fontname="helvetica"] ;
0 [label="totalco2_min <= -0.086\ngini = 0.42\nsamples = 21073\nvalue = [10031, 23459]\nclass = 1", fillcolor="#8ec7f0"] ;
1 [label="inr_max <= -0.178\ngini = 0.344\nsamples = 7085\nvalue = [2483, 8772]\nclass = 1", fillcolor="#71b9ec"] ;
0 -> 1 [labeldistance=2.5, labelangle=45, headlabel="True"] ;
2 [label="mbp_min <= -0.222\ngini = 0.405\nsamples = 3351\nvalue = [1503, 3833]\nclass = 1", fillcolor="#87c3ef"] ;
1 -> 2 ;
3 [label="mbp_max <= -1.702\ngini = 0.332\nsamples = 1307\nvalue = [439, 1654]\nclass = 1", fillcolor="#6eb7ec"] ;
2 -> 3 ;
4 [label="gini = 0.0\nsamples = 3\nvalue = [7, 0]\nclass = 0", fillcolor="#e58139"] ;
3 -> 4 ;
5 [label="gcs_min <= -0.04\ngini = 0.328\nsamples = 1304\nvalue = [432, 1654]\nclass = 1", fillcolor="#6db7ec"] ;
3 -> 5 ;
6 [label="bun_mean <= -0.419\ngini = 0.201\nsamples = 301\nvalue = [55, 429]\nclass = 1", fillcolor="#52aae8"] ;
5 -> 6 ;
7 [label="abs_basophils_mean <= 2.226\ngini = 0.353\nsamples = 84\nvalue = [32, 108]\nclass = 1", fillcolor="#74baed"] ;
6 -> 7 ;
8 [label="gini = 0.334\nsamples = 82\nvalue = [29, 108]\nclass = 1", fillcolor="#6eb7ec"] ;
7 -> 8 ;
9 [label="gini = 0.0\nsamples = 2\nvalue = [3, 0]\nclass = 0", fillcolor="#e58139"] ;
7 -> 9 ;
10 [label="bicarbonate_mean <= -2.965\ngini = 0.125\nsamples = 217\nvalue = [23, 321]\nclass = 1", fillcolor="#47a4e7"] ;
6 -> 10 ;
11 [label="gini = 0.375\nsamples = 3\nvalue = [3, 1]\nclass = 0", fillcolor="#eeab7b"] ;
10 -> 11 ;
12 [label="gini = 0.111\nsamples = 214\nvalue = [20, 320]\nclass = 1", fillcolor="#45a3e7"] ;
10 -> 12 ;
13 [label="potassium_max.1 <= -0.392\ngini = 0.36\nsamples = 1003\nvalue = [377, 1225]\nclass = 1", fillcolor="#76bbed"] ;
5 -> 13 ;
14 [label="calcium_max.1 <= -1.494\ngini = 0.467\nsamples = 281\nvalue = [167, 283]\nclass = 1", fillcolor="#aed7f4"] ;
13 -> 14 ;
15 [label="gini = 0.393\nsamples = 21\nvalue = [30, 11]\nclass = 0", fillcolor="#efaf82"] ;
14 -> 15 ;
16 [label="gini = 0.446\nsamples = 260\nvalue = [137, 272]\nclass = 1", fillcolor="#9dcef2"] ;
14 -> 16 ;
17 [label="sbp_mean <= -2.403\ngini = 0.298\nsamples = 722\nvalue = [210, 942]\nclass = 1", fillcolor="#65b3eb"] ;
13 -> 17 ;
18 [label="gini = 0.0\nsamples = 4\nvalue = [5, 0]\nclass = 0", fillcolor="#e58139"] ;
17 -> 18 ;
19 [label="gini = 0.294\nsamples = 718\nvalue = [205, 942]\nclass = 1", fillcolor="#64b2eb"] ;
17 -> 19 ;
20 [label="admission_age <= -1.159\ngini = 0.441\nsamples = 2044\nvalue = [1064, 2179]\nclass = 1", fillcolor="#9acdf2"] ;
2 -> 20 ;
21 [label="sbp_max <= 0.191\ngini = 0.5\nsamples = 464\nvalue = [377, 366]\nclass = 0", fillcolor="#fefbf9"] ;
20 -> 21 ;
22 [label="hematocrit_max.1 <= -1.498\ngini = 0.484\nsamples = 287\nvalue = [271, 188]\nclass = 0", fillcolor="#f7d8c2"] ;
21 -> 22 ;
23 [label="gini = 0.0\nsamples = 7\nvalue = [0, 16]\nclass = 1", fillcolor="#399de5"] ;
22 -> 23 ;
24 [label="temperature_max <= 1.137\ngini = 0.475\nsamples = 280\nvalue = [271, 172]\nclass = 0", fillcolor="#f6d1b7"] ;
22 -> 24 ;
25 [label="gini = 0.448\nsamples = 246\nvalue = [252, 129]\nclass = 0", fillcolor="#f2c29e"] ;
24 -> 25 ;
26 [label="gini = 0.425\nsamples = 34\nvalue = [19, 43]\nclass = 1", fillcolor="#90c8f0"] ;
24 -> 26 ;
27 [label="potassium_max.1 <= 1.04\ngini = 0.468\nsamples = 177\nvalue = [106, 178]\nclass = 1", fillcolor="#afd7f4"] ;
21 -> 27 ;
28 [label="sodium_mean <= -0.016\ngini = 0.49\nsamples = 141\nvalue = [94, 125]\nclass = 1", fillcolor="#cee7f9"] ;
27 -> 28 ;
29 [label="gini = 0.49\nsamples = 64\nvalue = [64, 48]\nclass = 0", fillcolor="#f8e0ce"] ;
28 -> 29 ;
30 [label="gini = 0.404\nsamples = 77\nvalue = [30, 77]\nclass = 1", fillcolor="#86c3ef"] ;
28 -> 30 ;
31 [label="bun_mean <= 2.227\ngini = 0.301\nsamples = 36\nvalue = [12, 53]\nclass = 1", fillcolor="#66b3eb"] ;
27 -> 31 ;
32 [label="gini = 0.212\nsamples = 33\nvalue = [7, 51]\nclass = 1", fillcolor="#54aae9"] ;
31 -> 32 ;
33 [label="gini = 0.408\nsamples = 3\nvalue = [5, 2]\nclass = 0", fillcolor="#efb388"] ;
31 -> 33 ;
34 [label="admission_age <= 0.372\ngini = 0.399\nsamples = 1580\nvalue = [687, 1813]\nclass = 1", fillcolor="#84c2ef"] ;
20 -> 34 ;
35 [label="potassium_max.1 <= -0.154\ngini = 0.427\nsamples = 1068\nvalue = [525, 1177]\nclass = 1", fillcolor="#91c9f1"] ;
34 -> 35 ;
36 [label="ptt_max <= -0.77\ngini = 0.466\nsamples = 478\nvalue = [274, 467]\nclass = 1", fillcolor="#add6f4"] ;
35 -> 36 ;
37 [label="gini = 0.0\nsamples = 5\nvalue = [12, 0]\nclass = 0", fillcolor="#e58139"] ;
36 -> 37 ;
38 [label="gini = 0.46\nsamples = 473\nvalue = [262, 467]\nclass = 1", fillcolor="#a8d4f4"] ;
36 -> 38 ;
39 [label="ptt_max <= -0.143\ngini = 0.386\nsamples = 590\nvalue = [251, 710]\nclass = 1", fillcolor="#7fc0ee"] ;
35 -> 39 ;
40 [label="gini = 0.415\nsamples = 481\nvalue = [234, 563]\nclass = 1", fillcolor="#8bc6f0"] ;
39 -> 40 ;
41 [label="gini = 0.186\nsamples = 109\nvalue = [17, 147]\nclass = 1", fillcolor="#50a8e8"] ;
39 -> 41 ;
42 [label="sbp_max <= -0.292\ngini = 0.324\nsamples = 512\nvalue = [162, 636]\nclass = 1", fillcolor="#6bb6ec"] ;
34 -> 42 ;
43 [label="pco2_max <= -1.504\ngini = 0.414\nsamples = 150\nvalue = [64, 155]\nclass = 1", fillcolor="#8bc5f0"] ;
42 -> 43 ;
44 [label="gini = 0.375\nsamples = 8\nvalue = [9, 3]\nclass = 0", fillcolor="#eeab7b"] ;
43 -> 44 ;
45 [label="gini = 0.39\nsamples = 142\nvalue = [55, 152]\nclass = 1", fillcolor="#81c0ee"] ;
43 -> 45 ;
46 [label="gcs_verbal <= -1.235\ngini = 0.281\nsamples = 362\nvalue = [98, 481]\nclass = 1", fillcolor="#61b1ea"] ;
42 -> 46 ;
47 [label="gini = 0.152\nsamples = 118\nvalue = [16, 177]\nclass = 1", fillcolor="#4ba6e7"] ;
46 -> 47 ;
48 [label="gini = 0.335\nsamples = 244\nvalue = [82, 304]\nclass = 1", fillcolor="#6eb7ec"] ;
46 -> 48 ;
49 [label="mbp_min <= 0.399\ngini = 0.276\nsamples = 3734\nvalue = [980, 4939]\nclass = 1", fillcolor="#60b0ea"] ;
1 -> 49 ;
50 [label="baseexcess_max <= -5.789\ngini = 0.252\nsamples = 3086\nvalue = [720, 4145]\nclass = 1", fillcolor="#5baeea"] ;
49 -> 50 ;
51 [label="pco2_min <= 3.235\ngini = 0.117\nsamples = 11\nvalue = [15, 1]\nclass = 0", fillcolor="#e78946"] ;
50 -> 51 ;
52 [label="gini = 0.0\nsamples = 10\nvalue = [15, 0]\nclass = 0", fillcolor="#e58139"] ;
51 -> 52 ;
53 [label="gini = 0.0\nsamples = 1\nvalue = [0, 1]\nclass = 1", fillcolor="#399de5"] ;
51 -> 53 ;
54 [label="sbp_max <= -2.313\ngini = 0.249\nsamples = 3075\nvalue = [705, 4144]\nclass = 1", fillcolor="#5baee9"] ;
50 -> 54 ;
55 [label="ptt_min <= 3.622\ngini = 0.461\nsamples = 15\nvalue = [16, 9]\nclass = 0", fillcolor="#f4c8a8"] ;
54 -> 55 ;
56 [label="glucose_min.2 <= -0.139\ngini = 0.492\nsamples = 10\nvalue = [7, 9]\nclass = 1", fillcolor="#d3e9f9"] ;
55 -> 56 ;
57 [label="gini = 0.0\nsamples = 2\nvalue = [4, 0]\nclass = 0", fillcolor="#e58139"] ;
56 -> 57 ;
58 [label="gini = 0.375\nsamples = 8\nvalue = [3, 9]\nclass = 1", fillcolor="#7bbeee"] ;
56 -> 58 ;
59 [label="gini = 0.0\nsamples = 5\nvalue = [9, 0]\nclass = 0", fillcolor="#e58139"] ;
55 -> 59 ;
60 [label="aniongap_min <= -0.409\ngini = 0.245\nsamples = 3060\nvalue = [689, 4135]\nclass = 1", fillcolor="#5aade9"] ;
54 -> 60 ;
61 [label="ptt_max <= 0.009\ngini = 0.309\nsamples = 1112\nvalue = [341, 1446]\nclass = 1", fillcolor="#68b4eb"] ;
60 -> 61 ;
62 [label="gini = 0.358\nsamples = 695\nvalue = [260, 854]\nclass = 1", fillcolor="#75bbed"] ;
61 -> 62 ;
63 [label="gini = 0.212\nsamples = 417\nvalue = [81, 592]\nclass = 1", fillcolor="#54aae9"] ;
61 -> 63 ;
64 [label="potassium_min.1 <= 4.619\ngini = 0.203\nsamples = 1948\nvalue = [348, 2689]\nclass = 1", fillcolor="#53aae8"] ;
60 -> 64 ;
65 [label="gini = 0.2\nsamples = 1942\nvalue = [341, 2686]\nclass = 1", fillcolor="#52a9e8"] ;
64 -> 65 ;
66 [label="gini = 0.42\nsamples = 6\nvalue = [7, 3]\nclass = 0", fillcolor="#f0b78e"] ;
64 -> 66 ;
67 [label="abs_lymphocytes_mean <= -0.056\ngini = 0.372\nsamples = 648\nvalue = [260, 794]\nclass = 1", fillcolor="#7abdee"] ;
49 -> 67 ;
68 [label="ph_min <= -0.59\ngini = 0.306\nsamples = 442\nvalue = [135, 581]\nclass = 1", fillcolor="#67b4eb"] ;
67 -> 68 ;
69 [label="potassium_max.1 <= -0.034\ngini = 0.141\nsamples = 143\nvalue = [18, 217]\nclass = 1", fillcolor="#49a5e7"] ;
68 -> 69 ;
70 [label="aniongap_max <= -0.766\ngini = 0.296\nsamples = 58\nvalue = [17, 77]\nclass = 1", fillcolor="#65b3eb"] ;
69 -> 70 ;
71 [label="gini = 0.496\nsamples = 7\nvalue = [6, 5]\nclass = 0", fillcolor="#fbeade"] ;
70 -> 71 ;
72 [label="gini = 0.23\nsamples = 51\nvalue = [11, 72]\nclass = 1", fillcolor="#57ace9"] ;
70 -> 72 ;
73 [label="totalco2_max <= 0.468\ngini = 0.014\nsamples = 85\nvalue = [1, 140]\nclass = 1", fillcolor="#3a9ee5"] ;
69 -> 73 ;
74 [label="gini = 0.0\nsamples = 72\nvalue = [0, 121]\nclass = 1", fillcolor="#399de5"] ;
73 -> 74 ;
75 [label="gini = 0.095\nsamples = 13\nvalue = [1, 19]\nclass = 1", fillcolor="#43a2e6"] ;
73 -> 75 ;
76 [label="aniongap_min <= 0.703\ngini = 0.368\nsamples = 299\nvalue = [117, 364]\nclass = 1", fillcolor="#79bced"] ;
68 -> 76 ;
77 [label="ptt_max <= -0.597\ngini = 0.416\nsamples = 218\nvalue = [105, 251]\nclass = 1", fillcolor="#8cc6f0"] ;
76 -> 77 ;
78 [label="gini = 0.0\nsamples = 4\nvalue = [9, 0]\nclass = 0", fillcolor="#e58139"] ;
77 -> 78 ;
79 [label="gini = 0.4\nsamples = 214\nvalue = [96, 251]\nclass = 1", fillcolor="#85c2ef"] ;
77 -> 79 ;
80 [label="potassium_max.1 <= -1.527\ngini = 0.174\nsamples = 81\nvalue = [12, 113]\nclass = 1", fillcolor="#4ea7e8"] ;
76 -> 80 ;
81 [label="gini = 0.0\nsamples = 1\nvalue = [2, 0]\nclass = 0", fillcolor="#e58139"] ;
80 -> 81 ;
82 [label="gini = 0.149\nsamples = 80\nvalue = [10, 113]\nclass = 1", fillcolor="#4ba6e7"] ;
80 -> 82 ;
83 [label="glucose_max.2 <= -0.248\ngini = 0.466\nsamples = 206\nvalue = [125, 213]\nclass = 1", fillcolor="#add7f4"] ;
67 -> 83 ;
84 [label="bicarbonate_mean <= -0.29\ngini = 0.499\nsamples = 97\nvalue = [77, 85]\nclass = 1", fillcolor="#ecf6fd"] ;
83 -> 84 ;
85 [label="gcs_motor <= -1.724\ngini = 0.431\nsamples = 57\nvalue = [28, 61]\nclass = 1", fillcolor="#94caf1"] ;
84 -> 85 ;
86 [label="gini = 0.069\nsamples = 17\nvalue = [1, 27]\nclass = 1", fillcolor="#40a1e6"] ;
85 -> 86 ;
87 [label="gini = 0.493\nsamples = 40\nvalue = [27, 34]\nclass = 1", fillcolor="#d6ebfa"] ;
85 -> 87 ;
88 [label="gcs_motor <= -1.44\ngini = 0.441\nsamples = 40\nvalue = [49, 24]\nclass = 0", fillcolor="#f2bf9a"] ;
84 -> 88 ;
89 [label="gini = 0.0\nsamples = 13\nvalue = [26, 0]\nclass = 0", fillcolor="#e58139"] ;
88 -> 89 ;
90 [label="gini = 0.5\nsamples = 27\nvalue = [23, 24]\nclass = 1", fillcolor="#f7fbfe"] ;
88 -> 90 ;
91 [label="temperature_min <= -3.029\ngini = 0.397\nsamples = 109\nvalue = [48, 128]\nclass = 1", fillcolor="#83c2ef"] ;
83 -> 91 ;
92 [label="po2_min <= 0.36\ngini = 0.219\nsamples = 5\nvalue = [7, 1]\nclass = 0", fillcolor="#e99355"] ;
91 -> 92 ;
93 [label="gini = 0.0\nsamples = 4\nvalue = [7, 0]\nclass = 0", fillcolor="#e58139"] ;
92 -> 93 ;
94 [label="gini = 0.0\nsamples = 1\nvalue = [0, 1]\nclass = 1", fillcolor="#399de5"] ;
92 -> 94 ;
95 [label="aniongap_max <= -1.356\ngini = 0.369\nsamples = 104\nvalue = [41, 127]\nclass = 1", fillcolor="#79bded"] ;
91 -> 95 ;
96 [label="gini = 0.0\nsamples = 2\nvalue = [3, 0]\nclass = 0", fillcolor="#e58139"] ;
95 -> 96 ;
97 [label="gini = 0.355\nsamples = 102\nvalue = [38, 127]\nclass = 1", fillcolor="#74baed"] ;
95 -> 97 ;
98 [label="po2_max <= -0.227\ngini = 0.448\nsamples = 13988\nvalue = [7548, 14687]\nclass = 1", fillcolor="#9fcff2"] ;
0 -> 98 [labeldistance=2.5, labelangle=-45, headlabel="False"] ;
99 [label="dbp_mean <= 0.063\ngini = 0.391\nsamples = 4728\nvalue = [2031, 5583]\nclass = 1", fillcolor="#81c1ee"] ;
98 -> 99 ;
100 [label="bun_mean <= -0.688\ngini = 0.331\nsamples = 2331\nvalue = [789, 2986]\nclass = 1", fillcolor="#6db7ec"] ;
99 -> 100 ;
101 [label="admission_age <= -1.645\ngini = 0.475\nsamples = 272\nvalue = [176, 277]\nclass = 1", fillcolor="#b7dbf6"] ;
100 -> 101 ;
102 [label="totalco2_min <= 0.747\ngini = 0.479\nsamples = 48\nvalue = [47, 31]\nclass = 0", fillcolor="#f6d4bc"] ;
101 -> 102 ;
103 [label="ptt_min <= 0.263\ngini = 0.385\nsamples = 29\nvalue = [37, 13]\nclass = 0", fillcolor="#eead7f"] ;
102 -> 103 ;
104 [label="gini = 0.292\nsamples = 26\nvalue = [37, 8]\nclass = 0", fillcolor="#eb9c64"] ;
103 -> 104 ;
105 [label="gini = 0.0\nsamples = 3\nvalue = [0, 5]\nclass = 1", fillcolor="#399de5"] ;
103 -> 105 ;
106 [label="mbp_mean <= -0.825\ngini = 0.459\nsamples = 19\nvalue = [10, 18]\nclass = 1", fillcolor="#a7d3f3"] ;
102 -> 106 ;
107 [label="gini = 0.291\nsamples = 11\nvalue = [3, 14]\nclass = 1", fillcolor="#63b2eb"] ;
106 -> 107 ;
108 [label="gini = 0.463\nsamples = 8\nvalue = [7, 4]\nclass = 0", fillcolor="#f4c9aa"] ;
106 -> 108 ;
109 [label="temperature_mean <= 0.036\ngini = 0.451\nsamples = 224\nvalue = [129, 246]\nclass = 1", fillcolor="#a1d0f3"] ;
101 -> 109 ;
110 [label="heart_rate_mean <= -1.179\ngini = 0.5\nsamples = 87\nvalue = [68, 71]\nclass = 1", fillcolor="#f7fbfe"] ;
109 -> 110 ;
111 [label="gini = 0.091\nsamples = 13\nvalue = [1, 20]\nclass = 1", fillcolor="#43a2e6"] ;
110 -> 111 ;
112 [label="gini = 0.491\nsamples = 74\nvalue = [67, 51]\nclass = 0", fillcolor="#f9e1d0"] ;
110 -> 112 ;
113 [label="glucose_max <= -0.965\ngini = 0.383\nsamples = 137\nvalue = [61, 175]\nclass = 1", fillcolor="#7ebfee"] ;
109 -> 113 ;
114 [label="gini = 0.153\nsamples = 6\nvalue = [11, 1]\nclass = 0", fillcolor="#e78c4b"] ;
113 -> 114 ;
115 [label="gini = 0.347\nsamples = 131\nvalue = [50, 174]\nclass = 1", fillcolor="#72b9ec"] ;
113 -> 115 ;
116 [label="glucose_max <= -0.71\ngini = 0.301\nsamples = 2059\nvalue = [613, 2709]\nclass = 1", fillcolor="#66b3eb"] ;
100 -> 116 ;
117 [label="ptt_min <= 0.182\ngini = 0.408\nsamples = 357\nvalue = [161, 404]\nclass = 1", fillcolor="#88c4ef"] ;
116 -> 117 ;
118 [label="temperature_max <= 0.753\ngini = 0.455\nsamples = 239\nvalue = [132, 245]\nclass = 1", fillcolor="#a4d2f3"] ;
117 -> 118 ;
119 [label="gini = 0.486\nsamples = 189\nvalue = [127, 177]\nclass = 1", fillcolor="#c7e3f8"] ;
118 -> 119 ;
120 [label="gini = 0.128\nsamples = 50\nvalue = [5, 68]\nclass = 1", fillcolor="#48a4e7"] ;
118 -> 120 ;
121 [label="dbp_max <= -0.577\ngini = 0.261\nsamples = 118\nvalue = [29, 159]\nclass = 1", fillcolor="#5dafea"] ;
117 -> 121 ;
122 [label="gini = 0.37\nsamples = 56\nvalue = [23, 71]\nclass = 1", fillcolor="#79bded"] ;
121 -> 122 ;
123 [label="gini = 0.12\nsamples = 62\nvalue = [6, 88]\nclass = 1", fillcolor="#46a4e7"] ;
121 -> 123 ;
124 [label="platelets_mean <= 1.711\ngini = 0.274\nsamples = 1702\nvalue = [452, 2305]\nclass = 1", fillcolor="#60b0ea"] ;
116 -> 124 ;
125 [label="resp_rate_max <= -1.025\ngini = 0.261\nsamples = 1587\nvalue = [399, 2186]\nclass = 1", fillcolor="#5dafea"] ;
124 -> 125 ;
126 [label="gini = 0.38\nsamples = 165\nvalue = [67, 196]\nclass = 1", fillcolor="#7dbeee"] ;
125 -> 126 ;
127 [label="gini = 0.245\nsamples = 1422\nvalue = [332, 1990]\nclass = 1", fillcolor="#5aade9"] ;
125 -> 127 ;
128 [label="resp_rate_max <= -1.296\ngini = 0.426\nsamples = 115\nvalue = [53, 119]\nclass = 1", fillcolor="#91c9f1"] ;
124 -> 128 ;
129 [label="gini = 0.153\nsamples = 6\nvalue = [11, 1]\nclass = 0", fillcolor="#e78c4b"] ;
128 -> 129 ;
130 [label="gini = 0.387\nsamples = 109\nvalue = [42, 118]\nclass = 1", fillcolor="#7fc0ee"] ;
128 -> 130 ;
131 [label="ptt_max <= -0.14\ngini = 0.438\nsamples = 2397\nvalue = [1242, 2597]\nclass = 1", fillcolor="#98ccf1"] ;
99 -> 131 ;
132 [label="po2_min <= 0.619\ngini = 0.457\nsamples = 1934\nvalue = [1087, 1992]\nclass = 1", fillcolor="#a5d2f3"] ;
131 -> 132 ;
133 [label="glucose_mean <= -0.113\ngini = 0.447\nsamples = 1766\nvalue = [948, 1860]\nclass = 1", fillcolor="#9ecff2"] ;
132 -> 133 ;
134 [label="weight_admit <= -0.068\ngini = 0.47\nsamples = 1006\nvalue = [599, 991]\nclass = 1", fillcolor="#b1d8f5"] ;
133 -> 134 ;
135 [label="gini = 0.497\nsamples = 491\nvalue = [364, 426]\nclass = 1", fillcolor="#e2f1fb"] ;
134 -> 135 ;
136 [label="gini = 0.415\nsamples = 515\nvalue = [235, 565]\nclass = 1", fillcolor="#8bc6f0"] ;
134 -> 136 ;
137 [label="admission_age <= 1.149\ngini = 0.409\nsamples = 760\nvalue = [349, 869]\nclass = 1", fillcolor="#89c4ef"] ;
133 -> 137 ;
138 [label="gini = 0.392\nsamples = 704\nvalue = [303, 829]\nclass = 1", fillcolor="#81c1ef"] ;
137 -> 138 ;
139 [label="gini = 0.498\nsamples = 56\nvalue = [46, 40]\nclass = 0", fillcolor="#fcefe5"] ;
137 -> 139 ;
140 [label="aniongap_max <= 0.02\ngini = 0.5\nsamples = 168\nvalue = [139, 132]\nclass = 0", fillcolor="#fef9f5"] ;
132 -> 140 ;
141 [label="glucose_max.2 <= -0.469\ngini = 0.486\nsamples = 112\nvalue = [113, 81]\nclass = 0", fillcolor="#f8dbc7"] ;
140 -> 141 ;
142 [label="gini = 0.32\nsamples = 37\nvalue = [52, 13]\nclass = 0", fillcolor="#eca06a"] ;
141 -> 142 ;
143 [label="gini = 0.499\nsamples = 75\nvalue = [61, 68]\nclass = 1", fillcolor="#ebf5fc"] ;
141 -> 143 ;
144 [label="po2_max <= -0.568\ngini = 0.447\nsamples = 56\nvalue = [26, 51]\nclass = 1", fillcolor="#9ecff2"] ;
140 -> 144 ;
145 [label="gini = 0.493\nsamples = 20\nvalue = [14, 11]\nclass = 0", fillcolor="#f9e4d5"] ;
144 -> 145 ;
146 [label="gini = 0.355\nsamples = 36\nvalue = [12, 40]\nclass = 1", fillcolor="#74baed"] ;
144 -> 146 ;
147 [label="wbc_mean <= -0.424\ngini = 0.325\nsamples = 463\nvalue = [155, 605]\nclass = 1", fillcolor="#6cb6ec"] ;
131 -> 147 ;
148 [label="admission_age <= 0.854\ngini = 0.431\nsamples = 125\nvalue = [67, 146]\nclass = 1", fillcolor="#94caf1"] ;
147 -> 148 ;
149 [label="inr_max <= -0.462\ngini = 0.372\nsamples = 104\nvalue = [44, 134]\nclass = 1", fillcolor="#7abdee"] ;
148 -> 149 ;
150 [label="gini = 0.375\nsamples = 7\nvalue = [6, 2]\nclass = 0", fillcolor="#eeab7b"] ;
149 -> 150 ;
151 [label="gini = 0.347\nsamples = 97\nvalue = [38, 132]\nclass = 1", fillcolor="#72b9ec"] ;
149 -> 151 ;
152 [label="sbp_min <= 0.379\ngini = 0.451\nsamples = 21\nvalue = [23, 12]\nclass = 0", fillcolor="#f3c3a0"] ;
148 -> 152 ;
153 [label="gini = 0.469\nsamples = 12\nvalue = [6, 10]\nclass = 1", fillcolor="#b0d8f5"] ;
152 -> 153 ;
154 [label="gini = 0.188\nsamples = 9\nvalue = [17, 2]\nclass = 0", fillcolor="#e89050"] ;
152 -> 154 ;
155 [label="glucose_max.2 <= -0.855\ngini = 0.27\nsamples = 338\nvalue = [88, 459]\nclass = 1", fillcolor="#5fb0ea"] ;
147 -> 155 ;
156 [label="gini = 0.0\nsamples = 2\nvalue = [5, 0]\nclass = 0", fillcolor="#e58139"] ;
155 -> 156 ;
157 [label="mbp_max <= -0.115\ngini = 0.259\nsamples = 336\nvalue = [83, 459]\nclass = 1", fillcolor="#5dafea"] ;
155 -> 157 ;
158 [label="gini = 0.387\nsamples = 106\nvalue = [43, 121]\nclass = 1", fillcolor="#7fc0ee"] ;
157 -> 158 ;
159 [label="gini = 0.189\nsamples = 230\nvalue = [40, 338]\nclass = 1", fillcolor="#50a9e8"] ;
157 -> 159 ;
160 [label="pco2_min <= -0.007\ngini = 0.47\nsamples = 9260\nvalue = [5517, 9104]\nclass = 1", fillcolor="#b1d8f5"] ;
98 -> 160 ;
161 [label="admission_age <= -1.362\ngini = 0.483\nsamples = 7239\nvalue = [4657, 6752]\nclass = 1", fillcolor="#c2e1f7"] ;
160 -> 161 ;
162 [label="totalco2_max <= 0.692\ngini = 0.452\nsamples = 758\nvalue = [786, 415]\nclass = 0", fillcolor="#f3c4a2"] ;
161 -> 162 ;
163 [label="aniongap_min <= 2.092\ngini = 0.443\nsamples = 739\nvalue = [781, 386]\nclass = 0", fillcolor="#f2bf9b"] ;
162 -> 163 ;
164 [label="inr_min <= 0.078\ngini = 0.437\nsamples = 728\nvalue = [779, 371]\nclass = 0", fillcolor="#f1bd97"] ;
163 -> 164 ;
165 [label="gini = 0.408\nsamples = 626\nvalue = [706, 282]\nclass = 0", fillcolor="#efb388"] ;
164 -> 165 ;
166 [label="gini = 0.495\nsamples = 102\nvalue = [73, 89]\nclass = 1", fillcolor="#dbedfa"] ;
164 -> 166 ;
167 [label="glucose_mean <= -1.283\ngini = 0.208\nsamples = 11\nvalue = [2, 15]\nclass = 1", fillcolor="#53aae8"] ;
163 -> 167 ;
168 [label="gini = 0.0\nsamples = 1\nvalue = [1, 0]\nclass = 0", fillcolor="#e58139"] ;
167 -> 168 ;
169 [label="gini = 0.117\nsamples = 10\nvalue = [1, 15]\nclass = 1", fillcolor="#46a4e7"] ;
167 -> 169 ;
170 [label="abs_lymphocytes_mean <= -0.053\ngini = 0.251\nsamples = 19\nvalue = [5, 29]\nclass = 1", fillcolor="#5baee9"] ;
162 -> 170 ;
171 [label="glucose_max.2 <= -0.701\ngini = 0.071\nsamples = 14\nvalue = [1, 26]\nclass = 1", fillcolor="#41a1e6"] ;
170 -> 171 ;
172 [label="gini = 0.0\nsamples = 1\nvalue = [1, 0]\nclass = 0", fillcolor="#e58139"] ;
171 -> 172 ;
173 [label="gini = 0.0\nsamples = 13\nvalue = [0, 26]\nclass = 1", fillcolor="#399de5"] ;
171 -> 173 ;
174 [label="po2_max <= 0.208\ngini = 0.49\nsamples = 5\nvalue = [4, 3]\nclass = 0", fillcolor="#f8e0ce"] ;
170 -> 174 ;
175 [label="gini = 0.0\nsamples = 2\nvalue = [0, 3]\nclass = 1", fillcolor="#399de5"] ;
174 -> 175 ;
176 [label="gini = 0.0\nsamples = 3\nvalue = [4, 0]\nclass = 0", fillcolor="#e58139"] ;
174 -> 176 ;
177 [label="dbp_min <= 0.264\ngini = 0.471\nsamples = 6481\nvalue = [3871, 6337]\nclass = 1", fillcolor="#b2d9f5"] ;
161 -> 177 ;
178 [label="totalco2_max <= 0.02\ngini = 0.444\nsamples = 3897\nvalue = [2029, 4073]\nclass = 1", fillcolor="#9ccef2"] ;
177 -> 178 ;
179 [label="wbc_mean <= -0.384\ngini = 0.464\nsamples = 2966\nvalue = [1698, 2933]\nclass = 1", fillcolor="#acd6f4"] ;
178 -> 179 ;
180 [label="gini = 0.489\nsamples = 1168\nvalue = [769, 1042]\nclass = 1", fillcolor="#cbe5f8"] ;
179 -> 180 ;
181 [label="gini = 0.442\nsamples = 1798\nvalue = [929, 1891]\nclass = 1", fillcolor="#9acdf2"] ;
179 -> 181 ;
182 [label="pco2_max <= -0.992\ngini = 0.349\nsamples = 931\nvalue = [331, 1140]\nclass = 1", fillcolor="#72b9ed"] ;
178 -> 182 ;
183 [label="gini = 0.5\nsamples = 22\nvalue = [18, 17]\nclass = 0", fillcolor="#fef8f4"] ;
182 -> 183 ;
184 [label="gini = 0.341\nsamples = 909\nvalue = [313, 1123]\nclass = 1", fillcolor="#70b8ec"] ;
182 -> 184 ;
185 [label="sbp_max <= 1.597\ngini = 0.495\nsamples = 2584\nvalue = [1842, 2264]\nclass = 1", fillcolor="#daedfa"] ;
177 -> 185 ;
186 [label="gcs_eyes <= 0.412\ngini = 0.498\nsamples = 2349\nvalue = [1748, 1998]\nclass = 1", fillcolor="#e6f3fc"] ;
185 -> 186 ;
187 [label="gini = 0.473\nsamples = 768\nvalue = [467, 748]\nclass = 1", fillcolor="#b5daf5"] ;
186 -> 187 ;
188 [label="gini = 0.5\nsamples = 1581\nvalue = [1281, 1250]\nclass = 0", fillcolor="#fefcfa"] ;
186 -> 188 ;
189 [label="spo2_mean <= 0.755\ngini = 0.386\nsamples = 235\nvalue = [94, 266]\nclass = 1", fillcolor="#7fc0ee"] ;
185 -> 189 ;
190 [label="gini = 0.34\nsamples = 192\nvalue = [65, 234]\nclass = 1", fillcolor="#70b8ec"] ;
189 -> 190 ;
191 [label="gini = 0.499\nsamples = 43\nvalue = [29, 32]\nclass = 1", fillcolor="#ecf6fd"] ;
189 -> 191 ;
192 [label="temperature_min <= -2.309\ngini = 0.392\nsamples = 2021\nvalue = [860, 2352]\nclass = 1", fillcolor="#81c1ef"] ;
160 -> 192 ;
193 [label="calcium_min.1 <= 0.143\ngini = 0.499\nsamples = 35\nvalue = [27, 30]\nclass = 1", fillcolor="#ebf5fc"] ;
192 -> 193 ;
194 [label="heart_rate_mean <= -2.206\ngini = 0.412\nsamples = 20\nvalue = [9, 22]\nclass = 1", fillcolor="#8ac5f0"] ;
193 -> 194 ;
195 [label="gini = 0.0\nsamples = 1\nvalue = [3, 0]\nclass = 0", fillcolor="#e58139"] ;
194 -> 195 ;
196 [label="aniongap_min <= -1.242\ngini = 0.337\nsamples = 19\nvalue = [6, 22]\nclass = 1", fillcolor="#6fb8ec"] ;
194 -> 196 ;
197 [label="gini = 0.494\nsamples = 5\nvalue = [5, 4]\nclass = 0", fillcolor="#fae6d7"] ;
196 -> 197 ;
198 [label="gini = 0.1\nsamples = 14\nvalue = [1, 18]\nclass = 1", fillcolor="#44a2e6"] ;
196 -> 198 ;
199 [label="glucose_min <= -0.714\ngini = 0.426\nsamples = 15\nvalue = [18, 8]\nclass = 0", fillcolor="#f1b991"] ;
193 -> 199 ;
200 [label="ptt_min <= -0.415\ngini = 0.278\nsamples = 4\nvalue = [1, 5]\nclass = 1", fillcolor="#61b1ea"] ;
199 -> 200 ;
201 [label="gini = 0.0\nsamples = 1\nvalue = [1, 0]\nclass = 0", fillcolor="#e58139"] ;
200 -> 201 ;
202 [label="gini = 0.0\nsamples = 3\nvalue = [0, 5]\nclass = 1", fillcolor="#399de5"] ;
200 -> 202 ;
203 [label="mbp_min <= -0.97\ngini = 0.255\nsamples = 11\nvalue = [17, 3]\nclass = 0", fillcolor="#ea975c"] ;
199 -> 203 ;
204 [label="gini = 0.0\nsamples = 2\nvalue = [0, 2]\nclass = 1", fillcolor="#399de5"] ;
203 -> 204 ;
205 [label="gini = 0.105\nsamples = 9\nvalue = [17, 1]\nclass = 0", fillcolor="#e78845"] ;
203 -> 205 ;
206 [label="ph_max <= -0.782\ngini = 0.389\nsamples = 1986\nvalue = [833, 2322]\nclass = 1", fillcolor="#80c0ee"] ;
192 -> 206 ;
207 [label="bun_mean <= -0.59\ngini = 0.472\nsamples = 348\nvalue = [205, 333]\nclass = 1", fillcolor="#b3d9f5"] ;
206 -> 207 ;
208 [label="ptt_min <= 0.408\ngini = 0.49\nsamples = 114\nvalue = [106, 80]\nclass = 0", fillcolor="#f9e0ce"] ;
207 -> 208 ;
209 [label="gini = 0.476\nsamples = 107\nvalue = [105, 67]\nclass = 0", fillcolor="#f6d1b7"] ;
208 -> 209 ;
210 [label="gini = 0.133\nsamples = 7\nvalue = [1, 13]\nclass = 1", fillcolor="#48a5e7"] ;
208 -> 210 ;
211 [label="sbp_min <= 0.495\ngini = 0.404\nsamples = 234\nvalue = [99, 253]\nclass = 1", fillcolor="#86c3ef"] ;
207 -> 211 ;
212 [label="gini = 0.322\nsamples = 172\nvalue = [53, 210]\nclass = 1", fillcolor="#6bb6ec"] ;
211 -> 212 ;
213 [label="gini = 0.499\nsamples = 62\nvalue = [46, 43]\nclass = 0", fillcolor="#fdf7f2"] ;
211 -> 213 ;
214 [label="sbp_min <= -0.141\ngini = 0.365\nsamples = 1638\nvalue = [628, 1989]\nclass = 1", fillcolor="#78bced"] ;
206 -> 214 ;
215 [label="weight_admit <= 0.926\ngini = 0.301\nsamples = 774\nvalue = [232, 1026]\nclass = 1", fillcolor="#66b3eb"] ;
214 -> 215 ;
216 [label="gini = 0.349\nsamples = 608\nvalue = [221, 760]\nclass = 1", fillcolor="#73b9ed"] ;
215 -> 216 ;
217 [label="gini = 0.076\nsamples = 166\nvalue = [11, 266]\nclass = 1", fillcolor="#41a1e6"] ;
215 -> 217 ;
218 [label="dbp_min <= 0.589\ngini = 0.413\nsamples = 864\nvalue = [396, 963]\nclass = 1", fillcolor="#8ac5f0"] ;
214 -> 218 ;
219 [label="gini = 0.384\nsamples = 619\nvalue = [251, 719]\nclass = 1", fillcolor="#7ebfee"] ;
218 -> 219 ;
220 [label="gini = 0.468\nsamples = 245\nvalue = [145, 244]\nclass = 1", fillcolor="#afd7f4"] ;
218 -> 220 ;
}