digraph Tree {
node [shape=box, style="filled, rounded", color="black", fontname="helvetica"] ;
edge [fontname="helvetica"] ;
0 [label="inr_max <= -0.197\ngini = 0.419\nsamples = 21151\nvalue = [10003, 23487]\nclass = 1", fillcolor="#8dc7f0"] ;
1 [label="gcs_motor <= 0.26\ngini = 0.457\nsamples = 12966\nvalue = [7299, 13346]\nclass = 1", fillcolor="#a5d3f3"] ;
0 -> 1 [labeldistance=2.5, labelangle=45, headlabel="True"] ;
2 [label="sbp_min <= -0.126\ngini = 0.368\nsamples = 3465\nvalue = [1319, 4097]\nclass = 1", fillcolor="#79bded"] ;
1 -> 2 ;
3 [label="sbp_mean <= -1.659\ngini = 0.306\nsamples = 1662\nvalue = [481, 2073]\nclass = 1", fillcolor="#67b4eb"] ;
2 -> 3 ;
4 [label="hematocrit_min.1 <= 1.115\ngini = 0.489\nsamples = 41\nvalue = [31, 23]\nclass = 0", fillcolor="#f8decc"] ;
3 -> 4 ;
5 [label="glucose_min.2 <= -0.358\ngini = 0.408\nsamples = 26\nvalue = [25, 10]\nclass = 0", fillcolor="#efb388"] ;
4 -> 5 ;
6 [label="glucose_max <= -0.832\ngini = 0.498\nsamples = 13\nvalue = [7, 8]\nclass = 1", fillcolor="#e6f3fc"] ;
5 -> 6 ;
7 [label="gini = 0.375\nsamples = 7\nvalue = [6, 2]\nclass = 0", fillcolor="#eeab7b"] ;
6 -> 7 ;
8 [label="gini = 0.245\nsamples = 6\nvalue = [1, 6]\nclass = 1", fillcolor="#5aade9"] ;
6 -> 8 ;
9 [label="temperature_mean <= -1.607\ngini = 0.18\nsamples = 13\nvalue = [18, 2]\nclass = 0", fillcolor="#e88f4f"] ;
5 -> 9 ;
10 [label="gini = 0.48\nsamples = 4\nvalue = [3, 2]\nclass = 0", fillcolor="#f6d5bd"] ;
9 -> 10 ;
11 [label="gini = 0.0\nsamples = 9\nvalue = [15, 0]\nclass = 0", fillcolor="#e58139"] ;
9 -> 11 ;
12 [label="baseexcess_max <= -1.946\ngini = 0.432\nsamples = 15\nvalue = [6, 13]\nclass = 1", fillcolor="#94caf1"] ;
4 -> 12 ;
13 [label="dbp_max <= -0.501\ngini = 0.32\nsamples = 4\nvalue = [4, 1]\nclass = 0", fillcolor="#eca06a"] ;
12 -> 13 ;
14 [label="gini = 0.0\nsamples = 3\nvalue = [4, 0]\nclass = 0", fillcolor="#e58139"] ;
13 -> 14 ;
15 [label="gini = 0.0\nsamples = 1\nvalue = [0, 1]\nclass = 1", fillcolor="#399de5"] ;
13 -> 15 ;
16 [label="mbp_min <= -0.422\ngini = 0.245\nsamples = 11\nvalue = [2, 12]\nclass = 1", fillcolor="#5aade9"] ;
12 -> 16 ;
17 [label="gini = 0.0\nsamples = 8\nvalue = [0, 11]\nclass = 1", fillcolor="#399de5"] ;
16 -> 17 ;
18 [label="gini = 0.444\nsamples = 3\nvalue = [2, 1]\nclass = 0", fillcolor="#f2c09c"] ;
16 -> 18 ;
19 [label="po2_max <= 1.643\ngini = 0.295\nsamples = 1621\nvalue = [450, 2050]\nclass = 1", fillcolor="#64b3eb"] ;
3 -> 19 ;
20 [label="bun_mean <= -0.615\ngini = 0.274\nsamples = 1400\nvalue = [355, 1807]\nclass = 1", fillcolor="#60b0ea"] ;
19 -> 20 ;
21 [label="glucose_mean <= -0.894\ngini = 0.418\nsamples = 279\nvalue = [127, 299]\nclass = 1", fillcolor="#8dc7f0"] ;
20 -> 21 ;
22 [label="gini = 0.454\nsamples = 30\nvalue = [30, 16]\nclass = 0", fillcolor="#f3c4a3"] ;
21 -> 22 ;
23 [label="gini = 0.38\nsamples = 249\nvalue = [97, 283]\nclass = 1", fillcolor="#7dbfee"] ;
21 -> 23 ;
24 [label="pco2_max <= 0.289\ngini = 0.228\nsamples = 1121\nvalue = [228, 1508]\nclass = 1", fillcolor="#57ace9"] ;
20 -> 24 ;
25 [label="gini = 0.278\nsamples = 686\nvalue = [179, 892]\nclass = 1", fillcolor="#61b1ea"] ;
24 -> 25 ;
26 [label="gini = 0.137\nsamples = 435\nvalue = [49, 616]\nclass = 1", fillcolor="#49a5e7"] ;
24 -> 26 ;
27 [label="glucose_max.2 <= -0.682\ngini = 0.404\nsamples = 221\nvalue = [95, 243]\nclass = 1", fillcolor="#86c3ef"] ;
19 -> 27 ;
28 [label="female <= 0.5\ngini = 0.491\nsamples = 25\nvalue = [21, 16]\nclass = 0", fillcolor="#f9e1d0"] ;
27 -> 28 ;
29 [label="gini = 0.408\nsamples = 18\nvalue = [20, 8]\nclass = 0", fillcolor="#efb388"] ;
28 -> 29 ;
30 [label="gini = 0.198\nsamples = 7\nvalue = [1, 8]\nclass = 1", fillcolor="#52a9e8"] ;
28 -> 30 ;
31 [label="weight_admit <= 0.148\ngini = 0.371\nsamples = 196\nvalue = [74, 227]\nclass = 1", fillcolor="#7abded"] ;
27 -> 31 ;
32 [label="gini = 0.435\nsamples = 140\nvalue = [69, 147]\nclass = 1", fillcolor="#96cbf1"] ;
31 -> 32 ;
33 [label="gini = 0.111\nsamples = 56\nvalue = [5, 80]\nclass = 1", fillcolor="#45a3e7"] ;
31 -> 33 ;
34 [label="admission_age <= 0.072\ngini = 0.414\nsamples = 1803\nvalue = [838, 2024]\nclass = 1", fillcolor="#8bc6f0"] ;
2 -> 34 ;
35 [label="mbp_mean <= -1.472\ngini = 0.451\nsamples = 915\nvalue = [503, 962]\nclass = 1", fillcolor="#a1d0f3"] ;
34 -> 35 ;
36 [label="gini = 0.0\nsamples = 5\nvalue = [11, 0]\nclass = 0", fillcolor="#e58139"] ;
35 -> 36 ;
37 [label="temperature_max <= -0.46\ngini = 0.448\nsamples = 910\nvalue = [492, 962]\nclass = 1", fillcolor="#9ecff2"] ;
35 -> 37 ;
38 [label="sbp_max <= 0.411\ngini = 0.499\nsamples = 170\nvalue = [127, 136]\nclass = 1", fillcolor="#f2f9fd"] ;
37 -> 38 ;
39 [label="gini = 0.483\nsamples = 111\nvalue = [105, 72]\nclass = 0", fillcolor="#f7d7c1"] ;
38 -> 39 ;
40 [label="gini = 0.381\nsamples = 59\nvalue = [22, 64]\nclass = 1", fillcolor="#7dbfee"] ;
38 -> 40 ;
41 [label="sbp_max <= 2.388\ngini = 0.425\nsamples = 740\nvalue = [365, 826]\nclass = 1", fillcolor="#90c8f0"] ;
37 -> 41 ;
42 [label="gini = 0.432\nsamples = 712\nvalue = [364, 789]\nclass = 1", fillcolor="#94caf1"] ;
41 -> 42 ;
43 [label="gini = 0.051\nsamples = 28\nvalue = [1, 37]\nclass = 1", fillcolor="#3ea0e6"] ;
41 -> 43 ;
44 [label="wbc_mean <= 0.054\ngini = 0.365\nsamples = 888\nvalue = [335, 1062]\nclass = 1", fillcolor="#77bced"] ;
34 -> 44 ;
45 [label="weight_admit <= 0.371\ngini = 0.401\nsamples = 612\nvalue = [263, 683]\nclass = 1", fillcolor="#85c3ef"] ;
44 -> 45 ;
46 [label="abs_lymphocytes_mean <= -0.189\ngini = 0.433\nsamples = 488\nvalue = [242, 522]\nclass = 1", fillcolor="#95caf1"] ;
45 -> 46 ;
47 [label="gini = 0.185\nsamples = 41\nvalue = [7, 61]\nclass = 1", fillcolor="#50a8e8"] ;
46 -> 47 ;
48 [label="gini = 0.447\nsamples = 447\nvalue = [235, 461]\nclass = 1", fillcolor="#9ecff2"] ;
46 -> 48 ;
49 [label="calcium_max.1 <= -0.947\ngini = 0.204\nsamples = 124\nvalue = [21, 161]\nclass = 1", fillcolor="#53aae8"] ;
45 -> 49 ;
50 [label="gini = 0.497\nsamples = 9\nvalue = [6, 7]\nclass = 1", fillcolor="#e3f1fb"] ;
49 -> 50 ;
51 [label="gini = 0.162\nsamples = 115\nvalue = [15, 154]\nclass = 1", fillcolor="#4ca7e8"] ;
49 -> 51 ;
52 [label="glucose_max <= 4.078\ngini = 0.268\nsamples = 276\nvalue = [72, 379]\nclass = 1", fillcolor="#5fb0ea"] ;
44 -> 52 ;
53 [label="po2_max <= -1.476\ngini = 0.255\nsamples = 273\nvalue = [67, 379]\nclass = 1", fillcolor="#5caeea"] ;
52 -> 53 ;
54 [label="gini = 0.0\nsamples = 1\nvalue = [2, 0]\nclass = 0", fillcolor="#e58139"] ;
53 -> 54 ;
55 [label="gini = 0.25\nsamples = 272\nvalue = [65, 379]\nclass = 1", fillcolor="#5baee9"] ;
53 -> 55 ;
56 [label="gini = 0.0\nsamples = 3\nvalue = [5, 0]\nclass = 0", fillcolor="#e58139"] ;
52 -> 56 ;
57 [label="glucose_max <= -0.212\ngini = 0.477\nsamples = 9501\nvalue = [5980, 9249]\nclass = 1", fillcolor="#b9dcf6"] ;
1 -> 57 ;
58 [label="glucose_max <= -0.22\ngini = 0.493\nsamples = 5605\nvalue = [3957, 4994]\nclass = 1", fillcolor="#d6ebfa"] ;
57 -> 58 ;
59 [label="totalco2_max <= 0.02\ngini = 0.49\nsamples = 5360\nvalue = [3687, 4872]\nclass = 1", fillcolor="#cfe7f9"] ;
58 -> 59 ;
60 [label="ph_min <= -0.374\ngini = 0.497\nsamples = 3985\nvalue = [2951, 3410]\nclass = 1", fillcolor="#e4f2fc"] ;
59 -> 60 ;
61 [label="wbc_mean <= -0.594\ngini = 0.415\nsamples = 246\nvalue = [124, 298]\nclass = 1", fillcolor="#8bc6f0"] ;
60 -> 61 ;
62 [label="gini = 0.493\nsamples = 33\nvalue = [29, 23]\nclass = 0", fillcolor="#fae5d6"] ;
61 -> 62 ;
63 [label="gini = 0.382\nsamples = 213\nvalue = [95, 275]\nclass = 1", fillcolor="#7dbfee"] ;
61 -> 63 ;
64 [label="weight_admit <= -0.712\ngini = 0.499\nsamples = 3739\nvalue = [2827, 3112]\nclass = 1", fillcolor="#edf6fd"] ;
60 -> 64 ;
65 [label="gini = 0.489\nsamples = 996\nvalue = [901, 672]\nclass = 0", fillcolor="#f8dfcd"] ;
64 -> 65 ;
66 [label="gini = 0.493\nsamples = 2743\nvalue = [1926, 2440]\nclass = 1", fillcolor="#d5eafa"] ;
64 -> 66 ;
67 [label="mbp_min <= 0.18\ngini = 0.445\nsamples = 1375\nvalue = [736, 1462]\nclass = 1", fillcolor="#9dcef2"] ;
59 -> 67 ;
68 [label="resp_rate_max <= 0.063\ngini = 0.4\nsamples = 729\nvalue = [328, 857]\nclass = 1", fillcolor="#85c3ef"] ;
67 -> 68 ;
69 [label="gini = 0.442\nsamples = 438\nvalue = [240, 488]\nclass = 1", fillcolor="#9acdf2"] ;
68 -> 69 ;
70 [label="gini = 0.311\nsamples = 291\nvalue = [88, 369]\nclass = 1", fillcolor="#68b4eb"] ;
68 -> 70 ;
71 [label="bun_mean <= -0.566\ngini = 0.481\nsamples = 646\nvalue = [408, 605]\nclass = 1", fillcolor="#bfdff7"] ;
67 -> 71 ;
72 [label="gini = 0.498\nsamples = 280\nvalue = [223, 199]\nclass = 0", fillcolor="#fcf1ea"] ;
71 -> 72 ;
73 [label="gini = 0.43\nsamples = 366\nvalue = [185, 406]\nclass = 1", fillcolor="#93caf1"] ;
71 -> 73 ;
74 [label="gcs_min <= 0.318\ngini = 0.429\nsamples = 245\nvalue = [270, 122]\nclass = 0", fillcolor="#f1ba92"] ;
58 -> 74 ;
75 [label="glucose_mean <= -0.232\ngini = 0.5\nsamples = 81\nvalue = [70, 72]\nclass = 1", fillcolor="#fafcfe"] ;
74 -> 75 ;
76 [label="mbp_mean <= 1.578\ngini = 0.465\nsamples = 59\nvalue = [67, 39]\nclass = 0", fillcolor="#f4caac"] ;
75 -> 76 ;
77 [label="gini = 0.389\nsamples = 48\nvalue = [64, 23]\nclass = 0", fillcolor="#eeae80"] ;
76 -> 77 ;
78 [label="gini = 0.266\nsamples = 11\nvalue = [3, 16]\nclass = 1", fillcolor="#5eafea"] ;
76 -> 78 ;
79 [label="baseexcess_max <= 1.764\ngini = 0.153\nsamples = 22\nvalue = [3, 33]\nclass = 1", fillcolor="#4ba6e7"] ;
75 -> 79 ;
80 [label="gini = 0.108\nsamples = 21\nvalue = [2, 33]\nclass = 1", fillcolor="#45a3e7"] ;
79 -> 80 ;
81 [label="gini = 0.0\nsamples = 1\nvalue = [1, 0]\nclass = 0", fillcolor="#e58139"] ;
79 -> 81 ;
82 [label="sbp_min <= -0.198\ngini = 0.32\nsamples = 164\nvalue = [200, 50]\nclass = 0", fillcolor="#eca06a"] ;
74 -> 82 ;
83 [label="baseexcess_min <= -0.13\ngini = 0.498\nsamples = 23\nvalue = [14, 16]\nclass = 1", fillcolor="#e6f3fc"] ;
82 -> 83 ;
84 [label="gini = 0.0\nsamples = 5\nvalue = [0, 8]\nclass = 1", fillcolor="#399de5"] ;
83 -> 84 ;
85 [label="gini = 0.463\nsamples = 18\nvalue = [14, 8]\nclass = 0", fillcolor="#f4c9aa"] ;
83 -> 85 ;
86 [label="totalco2_min <= 0.539\ngini = 0.261\nsamples = 141\nvalue = [186, 34]\nclass = 0", fillcolor="#ea985d"] ;
82 -> 86 ;
87 [label="gini = 0.21\nsamples = 120\nvalue = [163, 22]\nclass = 0", fillcolor="#e99254"] ;
86 -> 87 ;
88 [label="gini = 0.451\nsamples = 21\nvalue = [23, 12]\nclass = 0", fillcolor="#f3c3a0"] ;
86 -> 88 ;
89 [label="dbp_min <= -0.083\ngini = 0.437\nsamples = 3896\nvalue = [2023, 4255]\nclass = 1", fillcolor="#97ccf1"] ;
57 -> 89 ;
90 [label="ptt_max <= -0.352\ngini = 0.38\nsamples = 1813\nvalue = [744, 2174]\nclass = 1", fillcolor="#7dbfee"] ;
89 -> 90 ;
91 [label="aniongap_max <= 1.2\ngini = 0.408\nsamples = 1205\nvalue = [560, 1398]\nclass = 1", fillcolor="#88c4ef"] ;
90 -> 91 ;
92 [label="dbp_mean <= -0.823\ngini = 0.392\nsamples = 1087\nvalue = [473, 1293]\nclass = 1", fillcolor="#81c1ef"] ;
91 -> 92 ;
93 [label="gini = 0.32\nsamples = 417\nvalue = [138, 551]\nclass = 1", fillcolor="#6bb6ec"] ;
92 -> 93 ;
94 [label="gini = 0.429\nsamples = 670\nvalue = [335, 742]\nclass = 1", fillcolor="#92c9f1"] ;
92 -> 94 ;
95 [label="abs_lymphocytes_mean <= 0.063\ngini = 0.496\nsamples = 118\nvalue = [87, 105]\nclass = 1", fillcolor="#ddeefb"] ;
91 -> 95 ;
96 [label="gini = 0.472\nsamples = 99\nvalue = [62, 100]\nclass = 1", fillcolor="#b4daf5"] ;
95 -> 96 ;
97 [label="gini = 0.278\nsamples = 19\nvalue = [25, 5]\nclass = 0", fillcolor="#ea9a61"] ;
95 -> 97 ;
98 [label="bun_mean <= -0.59\ngini = 0.31\nsamples = 608\nvalue = [184, 776]\nclass = 1", fillcolor="#68b4eb"] ;
90 -> 98 ;
99 [label="chloride_mean <= -0.312\ngini = 0.48\nsamples = 95\nvalue = [58, 87]\nclass = 1", fillcolor="#bddef6"] ;
98 -> 99 ;
100 [label="gini = 0.451\nsamples = 19\nvalue = [21, 11]\nclass = 0", fillcolor="#f3c3a1"] ;
99 -> 100 ;
101 [label="gini = 0.44\nsamples = 76\nvalue = [37, 76]\nclass = 1", fillcolor="#99cdf2"] ;
99 -> 101 ;
102 [label="sbp_min <= 2.459\ngini = 0.261\nsamples = 513\nvalue = [126, 689]\nclass = 1", fillcolor="#5dafea"] ;
98 -> 102 ;
103 [label="gini = 0.256\nsamples = 511\nvalue = [122, 689]\nclass = 1", fillcolor="#5caeea"] ;
102 -> 103 ;
104 [label="gini = 0.0\nsamples = 2\nvalue = [4, 0]\nclass = 0", fillcolor="#e58139"] ;
102 -> 104 ;
105 [label="totalco2_min <= -2.378\ngini = 0.472\nsamples = 2083\nvalue = [1279, 2081]\nclass = 1", fillcolor="#b3d9f5"] ;
89 -> 105 ;
106 [label="inr_max <= -0.273\ngini = 0.451\nsamples = 82\nvalue = [80, 42]\nclass = 0", fillcolor="#f3c3a1"] ;
105 -> 106 ;
107 [label="mbp_mean <= -0.016\ngini = 0.499\nsamples = 51\nvalue = [38, 35]\nclass = 0", fillcolor="#fdf5ef"] ;
106 -> 107 ;
108 [label="gini = 0.34\nsamples = 15\nvalue = [18, 5]\nclass = 0", fillcolor="#eca470"] ;
107 -> 108 ;
109 [label="gini = 0.48\nsamples = 36\nvalue = [20, 30]\nclass = 1", fillcolor="#bddef6"] ;
107 -> 109 ;
110 [label="resp_rate_min <= 1.977\ngini = 0.245\nsamples = 31\nvalue = [42, 7]\nclass = 0", fillcolor="#e9965a"] ;
106 -> 110 ;
111 [label="gini = 0.159\nsamples = 30\nvalue = [42, 4]\nclass = 0", fillcolor="#e78d4c"] ;
110 -> 111 ;
112 [label="gini = 0.0\nsamples = 1\nvalue = [0, 3]\nclass = 1", fillcolor="#399de5"] ;
110 -> 112 ;
113 [label="resp_rate_mean <= 0.273\ngini = 0.466\nsamples = 2001\nvalue = [1199, 2039]\nclass = 1", fillcolor="#add7f4"] ;
105 -> 113 ;
114 [label="female <= 0.5\ngini = 0.483\nsamples = 1403\nvalue = [926, 1349]\nclass = 1", fillcolor="#c1e0f7"] ;
113 -> 114 ;
115 [label="gini = 0.467\nsamples = 842\nvalue = [513, 871]\nclass = 1", fillcolor="#aed7f4"] ;
114 -> 115 ;
116 [label="gini = 0.497\nsamples = 561\nvalue = [413, 478]\nclass = 1", fillcolor="#e4f2fb"] ;
114 -> 116 ;
117 [label="totalco2_max <= 0.468\ngini = 0.406\nsamples = 598\nvalue = [273, 690]\nclass = 1", fillcolor="#87c4ef"] ;
113 -> 117 ;
118 [label="gini = 0.438\nsamples = 454\nvalue = [238, 497]\nclass = 1", fillcolor="#98ccf1"] ;
117 -> 118 ;
119 [label="gini = 0.26\nsamples = 144\nvalue = [35, 193]\nclass = 1", fillcolor="#5dafea"] ;
117 -> 119 ;
120 [label="gcs_verbal <= 0.618\ngini = 0.332\nsamples = 8185\nvalue = [2704, 10141]\nclass = 1", fillcolor="#6eb7ec"] ;
0 -> 120 [labeldistance=2.5, labelangle=-45, headlabel="False"] ;
121 [label="potassium_max.1 <= -0.154\ngini = 0.284\nsamples = 4674\nvalue = [1260, 6101]\nclass = 1", fillcolor="#62b1ea"] ;
120 -> 121 ;
122 [label="spo2_mean <= -5.307\ngini = 0.341\nsamples = 1930\nvalue = [677, 2425]\nclass = 1", fillcolor="#70b8ec"] ;
121 -> 122 ;
123 [label="temperature_min <= -1.997\ngini = 0.384\nsamples = 19\nvalue = [20, 7]\nclass = 0", fillcolor="#eead7e"] ;
122 -> 123 ;
124 [label="gini = 0.0\nsamples = 4\nvalue = [0, 6]\nclass = 1", fillcolor="#399de5"] ;
123 -> 124 ;
125 [label="temperature_max <= -1.303\ngini = 0.091\nsamples = 15\nvalue = [20, 1]\nclass = 0", fillcolor="#e68743"] ;
123 -> 125 ;
126 [label="dbp_min <= 0.155\ngini = 0.5\nsamples = 2\nvalue = [1, 1]\nclass = 0", fillcolor="#ffffff"] ;
125 -> 126 ;
127 [label="gini = 0.0\nsamples = 1\nvalue = [1, 0]\nclass = 0", fillcolor="#e58139"] ;
126 -> 127 ;
128 [label="gini = 0.0\nsamples = 1\nvalue = [0, 1]\nclass = 1", fillcolor="#399de5"] ;
126 -> 128 ;
129 [label="gini = 0.0\nsamples = 13\nvalue = [19, 0]\nclass = 0", fillcolor="#e58139"] ;
125 -> 129 ;
130 [label="gcs_min <= -3.62\ngini = 0.336\nsamples = 1911\nvalue = [657, 2418]\nclass = 1", fillcolor="#6fb8ec"] ;
122 -> 130 ;
131 [label="mbp_min <= -0.349\ngini = 0.457\nsamples = 144\nvalue = [89, 163]\nclass = 1", fillcolor="#a5d3f3"] ;
130 -> 131 ;
132 [label="bicarbonate_mean <= -1.954\ngini = 0.288\nsamples = 51\nvalue = [15, 71]\nclass = 1", fillcolor="#63b2ea"] ;
131 -> 132 ;
133 [label="gini = 0.444\nsamples = 4\nvalue = [6, 3]\nclass = 0", fillcolor="#f2c09c"] ;
132 -> 133 ;
134 [label="gini = 0.206\nsamples = 47\nvalue = [9, 68]\nclass = 1", fillcolor="#53aae8"] ;
132 -> 134 ;
135 [label="calcium_min.1 <= -0.039\ngini = 0.494\nsamples = 93\nvalue = [74, 92]\nclass = 1", fillcolor="#d8ecfa"] ;
131 -> 135 ;
136 [label="gini = 0.382\nsamples = 37\nvalue = [18, 52]\nclass = 1", fillcolor="#7ebfee"] ;
135 -> 136 ;
137 [label="gini = 0.486\nsamples = 56\nvalue = [56, 40]\nclass = 0", fillcolor="#f8dbc6"] ;
135 -> 137 ;
138 [label="glucose_max <= -0.09\ngini = 0.321\nsamples = 1767\nvalue = [568, 2255]\nclass = 1", fillcolor="#6bb6ec"] ;
130 -> 138 ;
139 [label="totalco2_min <= 0.122\ngini = 0.373\nsamples = 937\nvalue = [374, 1134]\nclass = 1", fillcolor="#7abdee"] ;
138 -> 139 ;
140 [label="gini = 0.408\nsamples = 588\nvalue = [270, 676]\nclass = 1", fillcolor="#88c4ef"] ;
139 -> 140 ;
141 [label="gini = 0.302\nsamples = 349\nvalue = [104, 458]\nclass = 1", fillcolor="#66b3eb"] ;
139 -> 141 ;
142 [label="glucose_min <= -0.599\ngini = 0.252\nsamples = 830\nvalue = [194, 1121]\nclass = 1", fillcolor="#5baee9"] ;
138 -> 142 ;
143 [label="gini = 0.36\nsamples = 216\nvalue = [83, 270]\nclass = 1", fillcolor="#76bbed"] ;
142 -> 143 ;
144 [label="gini = 0.204\nsamples = 614\nvalue = [111, 851]\nclass = 1", fillcolor="#53aae8"] ;
142 -> 144 ;
145 [label="baseexcess_max <= -4.199\ngini = 0.236\nsamples = 2744\nvalue = [583, 3676]\nclass = 1", fillcolor="#58ade9"] ;
121 -> 145 ;
146 [label="po2_min <= -0.917\ngini = 0.499\nsamples = 32\nvalue = [26, 28]\nclass = 1", fillcolor="#f1f8fd"] ;
145 -> 146 ;
147 [label="gini = 0.0\nsamples = 6\nvalue = [8, 0]\nclass = 0", fillcolor="#e58139"] ;
146 -> 147 ;
148 [label="totalco2_max <= -3.566\ngini = 0.476\nsamples = 26\nvalue = [18, 28]\nclass = 1", fillcolor="#b8dcf6"] ;
146 -> 148 ;
149 [label="gini = 0.0\nsamples = 9\nvalue = [0, 20]\nclass = 1", fillcolor="#399de5"] ;
148 -> 149 ;
150 [label="dbp_max <= -1.162\ngini = 0.426\nsamples = 17\nvalue = [18, 8]\nclass = 0", fillcolor="#f1b991"] ;
148 -> 150 ;
151 [label="gini = 0.0\nsamples = 6\nvalue = [9, 0]\nclass = 0", fillcolor="#e58139"] ;
150 -> 151 ;
152 [label="gini = 0.498\nsamples = 11\nvalue = [9, 8]\nclass = 0", fillcolor="#fcf1e9"] ;
150 -> 152 ;
153 [label="aniongap_max <= -0.963\ngini = 0.23\nsamples = 2712\nvalue = [557, 3648]\nclass = 1", fillcolor="#57ace9"] ;
145 -> 153 ;
154 [label="abs_eosinophils_mean <= -0.236\ngini = 0.347\nsamples = 358\nvalue = [127, 442]\nclass = 1", fillcolor="#72b9ec"] ;
153 -> 154 ;
155 [label="dbp_min <= 1.153\ngini = 0.058\nsamples = 43\nvalue = [2, 65]\nclass = 1", fillcolor="#3fa0e6"] ;
154 -> 155 ;
156 [label="gini = 0.031\nsamples = 40\nvalue = [1, 62]\nclass = 1", fillcolor="#3c9fe5"] ;
155 -> 156 ;
157 [label="gini = 0.375\nsamples = 3\nvalue = [1, 3]\nclass = 1", fillcolor="#7bbeee"] ;
155 -> 157 ;
158 [label="potassium_min.1 <= -0.821\ngini = 0.374\nsamples = 315\nvalue = [125, 377]\nclass = 1", fillcolor="#7bbdee"] ;
154 -> 158 ;
159 [label="gini = 0.219\nsamples = 6\nvalue = [7, 1]\nclass = 0", fillcolor="#e99355"] ;
158 -> 159 ;
160 [label="gini = 0.364\nsamples = 309\nvalue = [118, 376]\nclass = 1", fillcolor="#77bced"] ;
158 -> 160 ;
161 [label="sbp_max <= -2.686\ngini = 0.209\nsamples = 2354\nvalue = [430, 3206]\nclass = 1", fillcolor="#54aae8"] ;
153 -> 161 ;
162 [label="hematocrit_min.1 <= 0.368\ngini = 0.346\nsamples = 6\nvalue = [7, 2]\nclass = 0", fillcolor="#eca572"] ;
161 -> 162 ;
163 [label="gini = 0.0\nsamples = 4\nvalue = [6, 0]\nclass = 0", fillcolor="#e58139"] ;
162 -> 163 ;
164 [label="gini = 0.444\nsamples = 2\nvalue = [1, 2]\nclass = 1", fillcolor="#9ccef2"] ;
162 -> 164 ;
165 [label="baseexcess_min <= -1.144\ngini = 0.206\nsamples = 2348\nvalue = [423, 3204]\nclass = 1", fillcolor="#53aae8"] ;
161 -> 165 ;
166 [label="gini = 0.124\nsamples = 718\nvalue = [72, 1011]\nclass = 1", fillcolor="#47a4e7"] ;
165 -> 166 ;
167 [label="gini = 0.238\nsamples = 1630\nvalue = [351, 2193]\nclass = 1", fillcolor="#59ade9"] ;
165 -> 167 ;
168 [label="sbp_min <= 0.076\ngini = 0.388\nsamples = 3511\nvalue = [1444, 4040]\nclass = 1", fillcolor="#80c0ee"] ;
120 -> 168 ;
169 [label="po2_max <= -0.28\ngini = 0.343\nsamples = 2210\nvalue = [762, 2703]\nclass = 1", fillcolor="#71b9ec"] ;
168 -> 169 ;
170 [label="temperature_min <= 0.784\ngini = 0.271\nsamples = 844\nvalue = [213, 1103]\nclass = 1", fillcolor="#5fb0ea"] ;
169 -> 170 ;
171 [label="temperature_mean <= -1.025\ngini = 0.239\nsamples = 746\nvalue = [162, 1004]\nclass = 1", fillcolor="#59ade9"] ;
170 -> 171 ;
172 [label="spo2_max <= 0.017\ngini = 0.067\nsamples = 98\nvalue = [5, 140]\nclass = 1", fillcolor="#40a0e6"] ;
171 -> 172 ;
173 [label="gini = 0.137\nsamples = 33\nvalue = [4, 50]\nclass = 1", fillcolor="#49a5e7"] ;
172 -> 173 ;
174 [label="gini = 0.022\nsamples = 65\nvalue = [1, 90]\nclass = 1", fillcolor="#3b9ee5"] ;
172 -> 174 ;
175 [label="dbp_mean <= -0.536\ngini = 0.26\nsamples = 648\nvalue = [157, 864]\nclass = 1", fillcolor="#5dafea"] ;
171 -> 175 ;
176 [label="gini = 0.167\nsamples = 247\nvalue = [37, 366]\nclass = 1", fillcolor="#4da7e8"] ;
175 -> 176 ;
177 [label="gini = 0.313\nsamples = 401\nvalue = [120, 498]\nclass = 1", fillcolor="#69b5eb"] ;
175 -> 177 ;
178 [label="mbp_min <= 0.454\ngini = 0.449\nsamples = 98\nvalue = [51, 99]\nclass = 1", fillcolor="#9fcff2"] ;
170 -> 178 ;
179 [label="spo2_mean <= 0.414\ngini = 0.413\nsamples = 90\nvalue = [40, 97]\nclass = 1", fillcolor="#8bc5f0"] ;
178 -> 179 ;
180 [label="gini = 0.347\nsamples = 73\nvalue = [25, 87]\nclass = 1", fillcolor="#72b9ec"] ;
179 -> 180 ;
181 [label="gini = 0.48\nsamples = 17\nvalue = [15, 10]\nclass = 0", fillcolor="#f6d5bd"] ;
179 -> 181 ;
182 [label="abs_basophils_mean <= 0.649\ngini = 0.26\nsamples = 8\nvalue = [11, 2]\nclass = 0", fillcolor="#ea985d"] ;
178 -> 182 ;
183 [label="gini = 0.153\nsamples = 7\nvalue = [11, 1]\nclass = 0", fillcolor="#e78c4b"] ;
182 -> 183 ;
184 [label="gini = 0.0\nsamples = 1\nvalue = [0, 1]\nclass = 1", fillcolor="#399de5"] ;
182 -> 184 ;
185 [label="glucose_mean <= -0.762\ngini = 0.38\nsamples = 1366\nvalue = [549, 1600]\nclass = 1", fillcolor="#7dbfee"] ;
169 -> 185 ;
186 [label="glucose_min.2 <= -1.015\ngini = 0.468\nsamples = 198\nvalue = [110, 184]\nclass = 1", fillcolor="#afd8f5"] ;
185 -> 186 ;
187 [label="glucose_min.2 <= -1.259\ngini = 0.314\nsamples = 51\nvalue = [16, 66]\nclass = 1", fillcolor="#69b5eb"] ;
186 -> 187 ;
188 [label="gini = 0.433\nsamples = 25\nvalue = [13, 28]\nclass = 1", fillcolor="#95caf1"] ;
187 -> 188 ;
189 [label="gini = 0.136\nsamples = 26\nvalue = [3, 38]\nclass = 1", fillcolor="#49a5e7"] ;
187 -> 189 ;
190 [label="potassium_min.1 <= -1.172\ngini = 0.494\nsamples = 147\nvalue = [94, 118]\nclass = 1", fillcolor="#d7ebfa"] ;
186 -> 190 ;
191 [label="gini = 0.418\nsamples = 24\nvalue = [26, 11]\nclass = 0", fillcolor="#f0b68d"] ;
190 -> 191 ;
192 [label="gini = 0.475\nsamples = 123\nvalue = [68, 107]\nclass = 1", fillcolor="#b7dbf6"] ;
190 -> 192 ;
193 [label="resp_rate_max <= 0.412\ngini = 0.361\nsamples = 1168\nvalue = [439, 1416]\nclass = 1", fillcolor="#76bbed"] ;
185 -> 193 ;
194 [label="admission_age <= -0.41\ngini = 0.386\nsamples = 850\nvalue = [352, 997]\nclass = 1", fillcolor="#7fc0ee"] ;
193 -> 194 ;
195 [label="gini = 0.475\nsamples = 173\nvalue = [109, 171]\nclass = 1", fillcolor="#b7dbf6"] ;
194 -> 195 ;
196 [label="gini = 0.351\nsamples = 677\nvalue = [243, 826]\nclass = 1", fillcolor="#73baed"] ;
194 -> 196 ;
197 [label="sbp_max <= -1.566\ngini = 0.285\nsamples = 318\nvalue = [87, 419]\nclass = 1", fillcolor="#62b1ea"] ;
193 -> 197 ;
198 [label="gini = 0.488\nsamples = 16\nvalue = [11, 15]\nclass = 1", fillcolor="#cae5f8"] ;
197 -> 198 ;
199 [label="gini = 0.267\nsamples = 302\nvalue = [76, 404]\nclass = 1", fillcolor="#5eafea"] ;
197 -> 199 ;
200 [label="totalco2_max <= 0.02\ngini = 0.447\nsamples = 1301\nvalue = [682, 1337]\nclass = 1", fillcolor="#9ecff2"] ;
168 -> 200 ;
201 [label="sbp_max <= 0.411\ngini = 0.466\nsamples = 917\nvalue = [530, 904]\nclass = 1", fillcolor="#add6f4"] ;
200 -> 201 ;
202 [label="sbp_mean <= -0.571\ngini = 0.485\nsamples = 628\nvalue = [399, 567]\nclass = 1", fillcolor="#c4e2f7"] ;
201 -> 202 ;
203 [label="glucose_min <= -0.315\ngini = 0.403\nsamples = 50\nvalue = [54, 21]\nclass = 0", fillcolor="#efb286"] ;
202 -> 203 ;
204 [label="gini = 0.498\nsamples = 22\nvalue = [17, 15]\nclass = 0", fillcolor="#fcf0e8"] ;
203 -> 204 ;
205 [label="gini = 0.24\nsamples = 28\nvalue = [37, 6]\nclass = 0", fillcolor="#e99559"] ;
203 -> 205 ;
206 [label="spo2_min <= 0.566\ngini = 0.475\nsamples = 578\nvalue = [345, 546]\nclass = 1", fillcolor="#b6dbf5"] ;
202 -> 206 ;
207 [label="gini = 0.459\nsamples = 508\nvalue = [279, 502]\nclass = 1", fillcolor="#a7d3f3"] ;
206 -> 207 ;
208 [label="gini = 0.48\nsamples = 70\nvalue = [66, 44]\nclass = 0", fillcolor="#f6d5bd"] ;
206 -> 208 ;
209 [label="calcium_max.1 <= 0.039\ngini = 0.403\nsamples = 289\nvalue = [131, 337]\nclass = 1", fillcolor="#86c3ef"] ;
201 -> 209 ;
210 [label="inr_max <= -0.083\ngini = 0.469\nsamples = 138\nvalue = [81, 135]\nclass = 1", fillcolor="#b0d8f5"] ;
209 -> 210 ;
211 [label="gini = 0.485\nsamples = 38\nvalue = [41, 29]\nclass = 0", fillcolor="#f7dac5"] ;
210 -> 211 ;
212 [label="gini = 0.398\nsamples = 100\nvalue = [40, 106]\nclass = 1", fillcolor="#84c2ef"] ;
210 -> 212 ;
213 [label="platelets_mean <= 1.24\ngini = 0.318\nsamples = 151\nvalue = [50, 202]\nclass = 1", fillcolor="#6ab5eb"] ;
209 -> 213 ;
214 [label="gini = 0.271\nsamples = 128\nvalue = [35, 182]\nclass = 1", fillcolor="#5fb0ea"] ;
213 -> 214 ;
215 [label="gini = 0.49\nsamples = 23\nvalue = [15, 20]\nclass = 1", fillcolor="#cee6f8"] ;
213 -> 215 ;
216 [label="admission_age <= -1.148\ngini = 0.385\nsamples = 384\nvalue = [152, 433]\nclass = 1", fillcolor="#7fbfee"] ;
200 -> 216 ;
217 [label="ptt_min <= -0.578\ngini = 0.477\nsamples = 38\nvalue = [31, 20]\nclass = 0", fillcolor="#f6d2b9"] ;
216 -> 217 ;
218 [label="gini = 0.0\nsamples = 3\nvalue = [0, 4]\nclass = 1", fillcolor="#399de5"] ;
217 -> 218 ;
219 [label="temperature_mean <= 0.36\ngini = 0.449\nsamples = 35\nvalue = [31, 16]\nclass = 0", fillcolor="#f2c29f"] ;
217 -> 219 ;
220 [label="gini = 0.137\nsamples = 20\nvalue = [25, 2]\nclass = 0", fillcolor="#e78b49"] ;
219 -> 220 ;
221 [label="gini = 0.42\nsamples = 15\nvalue = [6, 14]\nclass = 1", fillcolor="#8ec7f0"] ;
219 -> 221 ;
222 [label="temperature_min <= 0.859\ngini = 0.35\nsamples = 346\nvalue = [121, 413]\nclass = 1", fillcolor="#73baed"] ;
216 -> 222 ;
223 [label="temperature_min <= -1.807\ngini = 0.328\nsamples = 330\nvalue = [105, 403]\nclass = 1", fillcolor="#6db7ec"] ;
222 -> 223 ;
224 [label="gini = 0.48\nsamples = 12\nvalue = [12, 8]\nclass = 0", fillcolor="#f6d5bd"] ;
223 -> 224 ;
225 [label="gini = 0.309\nsamples = 318\nvalue = [93, 395]\nclass = 1", fillcolor="#68b4eb"] ;
223 -> 225 ;
226 [label="mbp_mean <= -0.178\ngini = 0.473\nsamples = 16\nvalue = [16, 10]\nclass = 0", fillcolor="#f5d0b5"] ;
222 -> 226 ;
227 [label="gini = 0.0\nsamples = 4\nvalue = [0, 7]\nclass = 1", fillcolor="#399de5"] ;
226 -> 227 ;
228 [label="gini = 0.266\nsamples = 12\nvalue = [16, 3]\nclass = 0", fillcolor="#ea995e"] ;
226 -> 228 ;
}