digraph Tree {
node [shape=box, style="filled, rounded", color="black", fontname="helvetica"] ;
edge [fontname="helvetica"] ;
0 [label="gcs_verbal <= -0.308\ngini = 0.423\nsamples = 21064\nvalue = [10163, 23327]\nclass = 1", fillcolor="#8fc8f0"] ;
1 [label="ph_min <= -0.698\ngini = 0.32\nsamples = 7671\nvalue = [2452, 9817]\nclass = 1", fillcolor="#6ab5eb"] ;
0 -> 1 [labeldistance=2.5, labelangle=45, headlabel="True"] ;
2 [label="weight_admit <= 0.027\ngini = 0.235\nsamples = 2052\nvalue = [448, 2854]\nclass = 1", fillcolor="#58ace9"] ;
1 -> 2 ;
3 [label="ph_max <= -4.207\ngini = 0.289\nsamples = 1098\nvalue = [313, 1470]\nclass = 1", fillcolor="#63b2eb"] ;
2 -> 3 ;
4 [label="calcium_max.1 <= -1.659\ngini = 0.444\nsamples = 34\nvalue = [40, 20]\nclass = 0", fillcolor="#f2c09c"] ;
3 -> 4 ;
5 [label="gini = 0.0\nsamples = 9\nvalue = [19, 0]\nclass = 0", fillcolor="#e58139"] ;
4 -> 5 ;
6 [label="abs_monocytes_mean <= -0.458\ngini = 0.5\nsamples = 25\nvalue = [21, 20]\nclass = 0", fillcolor="#fef9f6"] ;
4 -> 6 ;
7 [label="gini = 0.0\nsamples = 5\nvalue = [0, 12]\nclass = 1", fillcolor="#399de5"] ;
6 -> 7 ;
8 [label="temperature_max <= -3.861\ngini = 0.4\nsamples = 20\nvalue = [21, 8]\nclass = 0", fillcolor="#efb184"] ;
6 -> 8 ;
9 [label="gini = 0.0\nsamples = 6\nvalue = [10, 0]\nclass = 0", fillcolor="#e58139"] ;
8 -> 9 ;
10 [label="gini = 0.488\nsamples = 14\nvalue = [11, 8]\nclass = 0", fillcolor="#f8ddc9"] ;
8 -> 10 ;
11 [label="bun_mean <= -0.59\ngini = 0.267\nsamples = 1064\nvalue = [273, 1450]\nclass = 1", fillcolor="#5eafea"] ;
3 -> 11 ;
12 [label="glucose_mean <= 4.672\ngini = 0.408\nsamples = 193\nvalue = [96, 240]\nclass = 1", fillcolor="#88c4ef"] ;
11 -> 12 ;
13 [label="spo2_mean <= 0.548\ngini = 0.397\nsamples = 191\nvalue = [90, 240]\nclass = 1", fillcolor="#83c2ef"] ;
12 -> 13 ;
14 [label="gini = 0.246\nsamples = 83\nvalue = [22, 131]\nclass = 1", fillcolor="#5aade9"] ;
13 -> 14 ;
15 [label="gini = 0.473\nsamples = 108\nvalue = [68, 109]\nclass = 1", fillcolor="#b5daf5"] ;
13 -> 15 ;
16 [label="gini = 0.0\nsamples = 2\nvalue = [6, 0]\nclass = 0", fillcolor="#e58139"] ;
12 -> 16 ;
17 [label="spo2_max <= -2.188\ngini = 0.223\nsamples = 871\nvalue = [177, 1210]\nclass = 1", fillcolor="#56abe9"] ;
11 -> 17 ;
18 [label="admission_age <= 0.77\ngini = 0.498\nsamples = 20\nvalue = [15, 17]\nclass = 1", fillcolor="#e8f3fc"] ;
17 -> 18 ;
19 [label="gini = 0.351\nsamples = 16\nvalue = [5, 17]\nclass = 1", fillcolor="#73baed"] ;
18 -> 19 ;
20 [label="gini = 0.0\nsamples = 4\nvalue = [10, 0]\nclass = 0", fillcolor="#e58139"] ;
18 -> 20 ;
21 [label="bun_mean <= 8.84\ngini = 0.211\nsamples = 851\nvalue = [162, 1193]\nclass = 1", fillcolor="#54aae9"] ;
17 -> 21 ;
22 [label="gini = 0.208\nsamples = 850\nvalue = [159, 1193]\nclass = 1", fillcolor="#53aae8"] ;
21 -> 22 ;
23 [label="gini = 0.0\nsamples = 1\nvalue = [3, 0]\nclass = 0", fillcolor="#e58139"] ;
21 -> 23 ;
24 [label="baseexcess_max <= -4.331\ngini = 0.162\nsamples = 954\nvalue = [135, 1384]\nclass = 1", fillcolor="#4ca7e8"] ;
2 -> 24 ;
25 [label="wbc_mean <= 0.754\ngini = 0.403\nsamples = 16\nvalue = [18, 7]\nclass = 0", fillcolor="#efb286"] ;
24 -> 25 ;
26 [label="weight_admit <= 1.076\ngini = 0.1\nsamples = 11\nvalue = [18, 1]\nclass = 0", fillcolor="#e68844"] ;
25 -> 26 ;
27 [label="gini = 0.0\nsamples = 10\nvalue = [18, 0]\nclass = 0", fillcolor="#e58139"] ;
26 -> 27 ;
28 [label="gini = 0.0\nsamples = 1\nvalue = [0, 1]\nclass = 1", fillcolor="#399de5"] ;
26 -> 28 ;
29 [label="gini = 0.0\nsamples = 5\nvalue = [0, 6]\nclass = 1", fillcolor="#399de5"] ;
25 -> 29 ;
30 [label="glucose_mean <= 0.133\ngini = 0.144\nsamples = 938\nvalue = [117, 1377]\nclass = 1", fillcolor="#4aa5e7"] ;
24 -> 30 ;
31 [label="weight_admit <= 0.71\ngini = 0.205\nsamples = 482\nvalue = [88, 673]\nclass = 1", fillcolor="#53aae8"] ;
30 -> 31 ;
32 [label="bun_mean <= -0.664\ngini = 0.278\nsamples = 245\nvalue = [63, 315]\nclass = 1", fillcolor="#61b1ea"] ;
31 -> 32 ;
33 [label="gini = 0.5\nsamples = 20\nvalue = [18, 17]\nclass = 0", fillcolor="#fef8f4"] ;
32 -> 33 ;
34 [label="gini = 0.228\nsamples = 225\nvalue = [45, 298]\nclass = 1", fillcolor="#57ace9"] ;
32 -> 34 ;
35 [label="sbp_max <= -1.258\ngini = 0.122\nsamples = 237\nvalue = [25, 358]\nclass = 1", fillcolor="#47a4e7"] ;
31 -> 35 ;
36 [label="gini = 0.463\nsamples = 13\nvalue = [8, 14]\nclass = 1", fillcolor="#aad5f4"] ;
35 -> 36 ;
37 [label="gini = 0.09\nsamples = 224\nvalue = [17, 344]\nclass = 1", fillcolor="#43a2e6"] ;
35 -> 37 ;
38 [label="abs_lymphocytes_mean <= -0.265\ngini = 0.076\nsamples = 456\nvalue = [29, 704]\nclass = 1", fillcolor="#41a1e6"] ;
30 -> 38 ;
39 [label="gini = 0.0\nsamples = 1\nvalue = [1, 0]\nclass = 0", fillcolor="#e58139"] ;
38 -> 39 ;
40 [label="hispanic/latino <= 0.5\ngini = 0.074\nsamples = 455\nvalue = [28, 704]\nclass = 1", fillcolor="#41a1e6"] ;
38 -> 40 ;
41 [label="gini = 0.065\nsamples = 443\nvalue = [24, 690]\nclass = 1", fillcolor="#40a0e6"] ;
40 -> 41 ;
42 [label="gini = 0.346\nsamples = 12\nvalue = [4, 14]\nclass = 1", fillcolor="#72b9ec"] ;
40 -> 42 ;
43 [label="po2_min <= 0.953\ngini = 0.347\nsamples = 5619\nvalue = [2004, 6963]\nclass = 1", fillcolor="#72b9ec"] ;
1 -> 43 ;
44 [label="ptt_max <= -0.27\ngini = 0.323\nsamples = 4663\nvalue = [1505, 5912]\nclass = 1", fillcolor="#6bb6ec"] ;
43 -> 44 ;
45 [label="bun_mean <= -0.615\ngini = 0.365\nsamples = 2908\nvalue = [1108, 3503]\nclass = 1", fillcolor="#78bced"] ;
44 -> 45 ;
46 [label="ph_max <= -0.626\ngini = 0.45\nsamples = 732\nvalue = [400, 768]\nclass = 1", fillcolor="#a0d0f3"] ;
45 -> 46 ;
47 [label="potassium_min.1 <= -0.997\ngini = 0.489\nsamples = 77\nvalue = [71, 53]\nclass = 0", fillcolor="#f8dfcd"] ;
46 -> 47 ;
48 [label="gini = 0.211\nsamples = 17\nvalue = [3, 22]\nclass = 1", fillcolor="#54aae9"] ;
47 -> 48 ;
49 [label="gini = 0.43\nsamples = 60\nvalue = [68, 31]\nclass = 0", fillcolor="#f1ba93"] ;
47 -> 49 ;
50 [label="abs_monocytes_mean <= 0.221\ngini = 0.432\nsamples = 655\nvalue = [329, 715]\nclass = 1", fillcolor="#94caf1"] ;
46 -> 50 ;
51 [label="gini = 0.451\nsamples = 556\nvalue = [305, 583]\nclass = 1", fillcolor="#a1d0f3"] ;
50 -> 51 ;
52 [label="gini = 0.26\nsamples = 99\nvalue = [24, 132]\nclass = 1", fillcolor="#5dafea"] ;
50 -> 52 ;
53 [label="mbp_min <= 1.111\ngini = 0.327\nsamples = 2176\nvalue = [708, 2735]\nclass = 1", fillcolor="#6cb6ec"] ;
45 -> 53 ;
54 [label="heart_rate_min <= -2.36\ngini = 0.311\nsamples = 2010\nvalue = [610, 2561]\nclass = 1", fillcolor="#68b4eb"] ;
53 -> 54 ;
55 [label="gini = 0.375\nsamples = 14\nvalue = [12, 4]\nclass = 0", fillcolor="#eeab7b"] ;
54 -> 55 ;
56 [label="gini = 0.307\nsamples = 1996\nvalue = [598, 2557]\nclass = 1", fillcolor="#67b4eb"] ;
54 -> 56 ;
57 [label="bun_mean <= -0.002\ngini = 0.461\nsamples = 166\nvalue = [98, 174]\nclass = 1", fillcolor="#a9d4f4"] ;
53 -> 57 ;
58 [label="gini = 0.488\nsamples = 114\nvalue = [78, 107]\nclass = 1", fillcolor="#c9e4f8"] ;
57 -> 58 ;
59 [label="gini = 0.354\nsamples = 52\nvalue = [20, 67]\nclass = 1", fillcolor="#74baed"] ;
57 -> 59 ;
60 [label="weight_admit <= -0.331\ngini = 0.243\nsamples = 1755\nvalue = [397, 2409]\nclass = 1", fillcolor="#5aade9"] ;
44 -> 60 ;
61 [label="heart_rate_max <= 0.887\ngini = 0.33\nsamples = 659\nvalue = [215, 817]\nclass = 1", fillcolor="#6db7ec"] ;
60 -> 61 ;
62 [label="glucose_min <= 0.462\ngini = 0.364\nsamples = 544\nvalue = [206, 656]\nclass = 1", fillcolor="#77bced"] ;
61 -> 62 ;
63 [label="gini = 0.384\nsamples = 467\nvalue = [193, 551]\nclass = 1", fillcolor="#7ebfee"] ;
62 -> 63 ;
64 [label="gini = 0.196\nsamples = 77\nvalue = [13, 105]\nclass = 1", fillcolor="#52a9e8"] ;
62 -> 64 ;
65 [label="glucose_max.2 <= 2.221\ngini = 0.1\nsamples = 115\nvalue = [9, 161]\nclass = 1", fillcolor="#44a2e6"] ;
61 -> 65 ;
66 [label="gini = 0.081\nsamples = 112\nvalue = [7, 159]\nclass = 1", fillcolor="#42a1e6"] ;
65 -> 66 ;
67 [label="gini = 0.5\nsamples = 3\nvalue = [2, 2]\nclass = 0", fillcolor="#ffffff"] ;
65 -> 67 ;
68 [label="admission_age <= 0.237\ngini = 0.184\nsamples = 1096\nvalue = [182, 1592]\nclass = 1", fillcolor="#50a8e8"] ;
60 -> 68 ;
69 [label="bun_mean <= -0.37\ngini = 0.243\nsamples = 587\nvalue = [136, 824]\nclass = 1", fillcolor="#5aade9"] ;
68 -> 69 ;
70 [label="gini = 0.35\nsamples = 290\nvalue = [104, 355]\nclass = 1", fillcolor="#73baed"] ;
69 -> 70 ;
71 [label="gini = 0.12\nsamples = 297\nvalue = [32, 469]\nclass = 1", fillcolor="#47a4e7"] ;
69 -> 71 ;
72 [label="po2_max <= -1.442\ngini = 0.107\nsamples = 509\nvalue = [46, 768]\nclass = 1", fillcolor="#45a3e7"] ;
68 -> 72 ;
73 [label="gini = 0.0\nsamples = 1\nvalue = [2, 0]\nclass = 0", fillcolor="#e58139"] ;
72 -> 73 ;
74 [label="gini = 0.103\nsamples = 508\nvalue = [44, 768]\nclass = 1", fillcolor="#44a3e6"] ;
72 -> 74 ;
75 [label="calcium_max.1 <= 1.025\ngini = 0.437\nsamples = 956\nvalue = [499, 1051]\nclass = 1", fillcolor="#97ccf1"] ;
43 -> 75 ;
76 [label="sbp_min <= 2.632\ngini = 0.443\nsamples = 896\nvalue = [486, 980]\nclass = 1", fillcolor="#9bcef2"] ;
75 -> 76 ;
77 [label="wbc_mean <= -0.74\ngini = 0.441\nsamples = 891\nvalue = [478, 980]\nclass = 1", fillcolor="#9acdf2"] ;
76 -> 77 ;
78 [label="totalco2_max <= 0.02\ngini = 0.47\nsamples = 29\nvalue = [33, 20]\nclass = 0", fillcolor="#f5cdb1"] ;
77 -> 78 ;
79 [label="gini = 0.198\nsamples = 13\nvalue = [24, 3]\nclass = 0", fillcolor="#e89152"] ;
78 -> 79 ;
80 [label="gini = 0.453\nsamples = 16\nvalue = [9, 17]\nclass = 1", fillcolor="#a2d1f3"] ;
78 -> 80 ;
81 [label="heart_rate_min <= -2.426\ngini = 0.433\nsamples = 862\nvalue = [445, 960]\nclass = 1", fillcolor="#95caf1"] ;
77 -> 81 ;
82 [label="gini = 0.0\nsamples = 6\nvalue = [15, 0]\nclass = 0", fillcolor="#e58139"] ;
81 -> 82 ;
83 [label="gini = 0.427\nsamples = 856\nvalue = [430, 960]\nclass = 1", fillcolor="#92c9f1"] ;
81 -> 83 ;
84 [label="gini = 0.0\nsamples = 5\nvalue = [8, 0]\nclass = 0", fillcolor="#e58139"] ;
76 -> 84 ;
85 [label="aniongap_max <= -1.16\ngini = 0.262\nsamples = 60\nvalue = [13, 71]\nclass = 1", fillcolor="#5dafea"] ;
75 -> 85 ;
86 [label="gini = 0.0\nsamples = 2\nvalue = [3, 0]\nclass = 0", fillcolor="#e58139"] ;
85 -> 86 ;
87 [label="hematocrit_max.1 <= -1.602\ngini = 0.216\nsamples = 58\nvalue = [10, 71]\nclass = 1", fillcolor="#55abe9"] ;
85 -> 87 ;
88 [label="gini = 0.0\nsamples = 2\nvalue = [3, 0]\nclass = 0", fillcolor="#e58139"] ;
87 -> 88 ;
89 [label="sodium_mean <= 3.95\ngini = 0.163\nsamples = 56\nvalue = [7, 71]\nclass = 1", fillcolor="#4da7e8"] ;
87 -> 89 ;
90 [label="gini = 0.102\nsamples = 54\nvalue = [4, 70]\nclass = 1", fillcolor="#44a3e6"] ;
89 -> 90 ;
91 [label="gini = 0.375\nsamples = 2\nvalue = [3, 1]\nclass = 0", fillcolor="#eeab7b"] ;
89 -> 91 ;
92 [label="ptt_max <= -0.309\ngini = 0.463\nsamples = 13393\nvalue = [7711, 13510]\nclass = 1", fillcolor="#aad5f4"] ;
0 -> 92 [labeldistance=2.5, labelangle=-45, headlabel="False"] ;
93 [label="hematocrit_min.1 <= -0.156\ngini = 0.486\nsamples = 8320\nvalue = [5509, 7678]\nclass = 1", fillcolor="#c7e3f8"] ;
92 -> 93 ;
94 [label="admission_age <= -1.222\ngini = 0.458\nsamples = 3209\nvalue = [1801, 3283]\nclass = 1", fillcolor="#a6d3f3"] ;
93 -> 94 ;
95 [label="mbp_max <= 0.473\ngini = 0.495\nsamples = 328\nvalue = [286, 235]\nclass = 0", fillcolor="#fae9dc"] ;
94 -> 95 ;
96 [label="glucose_max <= -0.505\ngini = 0.478\nsamples = 256\nvalue = [248, 162]\nclass = 0", fillcolor="#f6d3ba"] ;
95 -> 96 ;
97 [label="calcium_min.1 <= 1.356\ngini = 0.366\nsamples = 133\nvalue = [154, 49]\nclass = 0", fillcolor="#eda978"] ;
96 -> 97 ;
98 [label="gini = 0.346\nsamples = 131\nvalue = [154, 44]\nclass = 0", fillcolor="#eca572"] ;
97 -> 98 ;
99 [label="gini = 0.0\nsamples = 2\nvalue = [0, 5]\nclass = 1", fillcolor="#399de5"] ;
97 -> 99 ;
100 [label="bun_mean <= -0.247\ngini = 0.496\nsamples = 123\nvalue = [94, 113]\nclass = 1", fillcolor="#deeffb"] ;
96 -> 100 ;
101 [label="gini = 0.498\nsamples = 89\nvalue = [82, 73]\nclass = 0", fillcolor="#fcf1e9"] ;
100 -> 101 ;
102 [label="gini = 0.355\nsamples = 34\nvalue = [12, 40]\nclass = 1", fillcolor="#74baed"] ;
100 -> 102 ;
103 [label="abs_lymphocytes_mean <= -0.119\ngini = 0.45\nsamples = 72\nvalue = [38, 73]\nclass = 1", fillcolor="#a0d0f3"] ;
95 -> 103 ;
104 [label="spo2_max <= -0.718\ngini = 0.161\nsamples = 21\nvalue = [3, 31]\nclass = 1", fillcolor="#4ca6e8"] ;
103 -> 104 ;
105 [label="gini = 0.0\nsamples = 1\nvalue = [1, 0]\nclass = 0", fillcolor="#e58139"] ;
104 -> 105 ;
106 [label="gini = 0.114\nsamples = 20\nvalue = [2, 31]\nclass = 1", fillcolor="#46a3e7"] ;
104 -> 106 ;
107 [label="aniongap_min <= 0.703\ngini = 0.496\nsamples = 51\nvalue = [35, 42]\nclass = 1", fillcolor="#deeffb"] ;
103 -> 107 ;
108 [label="gini = 0.468\nsamples = 36\nvalue = [32, 19]\nclass = 0", fillcolor="#f4ccaf"] ;
107 -> 108 ;
109 [label="gini = 0.204\nsamples = 15\nvalue = [3, 23]\nclass = 1", fillcolor="#53aae8"] ;
107 -> 109 ;
110 [label="glucose_mean <= -0.672\ngini = 0.444\nsamples = 2881\nvalue = [1515, 3048]\nclass = 1", fillcolor="#9bcef2"] ;
94 -> 110 ;
111 [label="abs_basophils_mean <= -0.08\ngini = 0.492\nsamples = 613\nvalue = [422, 542]\nclass = 1", fillcolor="#d3e9f9"] ;
110 -> 111 ;
112 [label="heart_rate_max <= 0.397\ngini = 0.474\nsamples = 398\nvalue = [238, 378]\nclass = 1", fillcolor="#b6dbf5"] ;
111 -> 112 ;
113 [label="gini = 0.494\nsamples = 278\nvalue = [191, 239]\nclass = 1", fillcolor="#d7ebfa"] ;
112 -> 113 ;
114 [label="gini = 0.378\nsamples = 120\nvalue = [47, 139]\nclass = 1", fillcolor="#7cbeee"] ;
112 -> 114 ;
115 [label="sbp_min <= -0.025\ngini = 0.498\nsamples = 215\nvalue = [184, 164]\nclass = 0", fillcolor="#fcf1e9"] ;
111 -> 115 ;
116 [label="gini = 0.482\nsamples = 99\nvalue = [64, 94]\nclass = 1", fillcolor="#c0e0f7"] ;
115 -> 116 ;
117 [label="gini = 0.465\nsamples = 116\nvalue = [120, 70]\nclass = 0", fillcolor="#f4caac"] ;
115 -> 117 ;
118 [label="temperature_min <= 0.336\ngini = 0.423\nsamples = 2268\nvalue = [1093, 2506]\nclass = 1", fillcolor="#8fc8f0"] ;
110 -> 118 ;
119 [label="bun_mean <= -0.688\ngini = 0.393\nsamples = 1483\nvalue = [626, 1703]\nclass = 1", fillcolor="#82c1ef"] ;
118 -> 119 ;
120 [label="gini = 0.499\nsamples = 141\nvalue = [116, 105]\nclass = 0", fillcolor="#fdf3ec"] ;
119 -> 120 ;
121 [label="gini = 0.367\nsamples = 1342\nvalue = [510, 1598]\nclass = 1", fillcolor="#78bced"] ;
119 -> 121 ;
122 [label="platelets_mean <= -1.187\ngini = 0.465\nsamples = 785\nvalue = [467, 803]\nclass = 1", fillcolor="#acd6f4"] ;
118 -> 122 ;
123 [label="gini = 0.32\nsamples = 88\nvalue = [27, 108]\nclass = 1", fillcolor="#6ab6ec"] ;
122 -> 123 ;
124 [label="gini = 0.475\nsamples = 697\nvalue = [440, 695]\nclass = 1", fillcolor="#b6dbf5"] ;
122 -> 124 ;
125 [label="admission_age <= -1.395\ngini = 0.496\nsamples = 5111\nvalue = [3708, 4395]\nclass = 1", fillcolor="#e0f0fb"] ;
93 -> 125 ;
126 [label="mbp_max <= 0.355\ngini = 0.424\nsamples = 807\nvalue = [895, 394]\nclass = 0", fillcolor="#f0b890"] ;
125 -> 126 ;
127 [label="weight_admit <= -0.904\ngini = 0.387\nsamples = 648\nvalue = [766, 273]\nclass = 0", fillcolor="#eeae80"] ;
126 -> 127 ;
128 [label="inr_min <= 0.078\ngini = 0.175\nsamples = 105\nvalue = [149, 16]\nclass = 0", fillcolor="#e88f4e"] ;
127 -> 128 ;
129 [label="gini = 0.148\nsamples = 103\nvalue = [149, 13]\nclass = 0", fillcolor="#e78c4a"] ;
128 -> 129 ;
130 [label="gini = 0.0\nsamples = 2\nvalue = [0, 3]\nclass = 1", fillcolor="#399de5"] ;
128 -> 130 ;
131 [label="heart_rate_min <= -2.13\ngini = 0.415\nsamples = 543\nvalue = [617, 257]\nclass = 0", fillcolor="#f0b58b"] ;
127 -> 131 ;
132 [label="gini = 0.0\nsamples = 4\nvalue = [0, 9]\nclass = 1", fillcolor="#399de5"] ;
131 -> 132 ;
133 [label="gini = 0.409\nsamples = 539\nvalue = [617, 248]\nclass = 0", fillcolor="#efb489"] ;
131 -> 133 ;
134 [label="glucose_min <= 0.03\ngini = 0.499\nsamples = 159\nvalue = [129, 121]\nclass = 0", fillcolor="#fdf7f3"] ;
126 -> 134 ;
135 [label="abs_neutrophils_mean <= 0.849\ngini = 0.482\nsamples = 97\nvalue = [87, 59]\nclass = 0", fillcolor="#f7d6bf"] ;
134 -> 135 ;
136 [label="gini = 0.493\nsamples = 89\nvalue = [73, 58]\nclass = 0", fillcolor="#fae5d6"] ;
135 -> 136 ;
137 [label="gini = 0.124\nsamples = 8\nvalue = [14, 1]\nclass = 0", fillcolor="#e78a47"] ;
135 -> 137 ;
138 [label="inr_min <= -0.454\ngini = 0.482\nsamples = 62\nvalue = [42, 62]\nclass = 1", fillcolor="#bfdff7"] ;
134 -> 138 ;
139 [label="gini = 0.461\nsamples = 19\nvalue = [16, 9]\nclass = 0", fillcolor="#f4c8a8"] ;
138 -> 139 ;
140 [label="gini = 0.442\nsamples = 43\nvalue = [26, 53]\nclass = 1", fillcolor="#9acdf2"] ;
138 -> 140 ;
141 [label="dbp_min <= 0.676\ngini = 0.485\nsamples = 4304\nvalue = [2813, 4001]\nclass = 1", fillcolor="#c4e2f7"] ;
125 -> 141 ;
142 [label="heart_rate_min <= -0.062\ngini = 0.469\nsamples = 2842\nvalue = [1683, 2791]\nclass = 1", fillcolor="#b0d8f5"] ;
141 -> 142 ;
143 [label="weight_admit <= -0.13\ngini = 0.485\nsamples = 1690\nvalue = [1102, 1559]\nclass = 1", fillcolor="#c5e2f7"] ;
142 -> 143 ;
144 [label="gini = 0.5\nsamples = 843\nvalue = [672, 634]\nclass = 0", fillcolor="#fef8f4"] ;
143 -> 144 ;
145 [label="gini = 0.433\nsamples = 847\nvalue = [430, 925]\nclass = 1", fillcolor="#95cbf1"] ;
143 -> 145 ;
146 [label="bun_mean <= -0.394\ngini = 0.436\nsamples = 1152\nvalue = [581, 1232]\nclass = 1", fillcolor="#96cbf1"] ;
142 -> 146 ;
147 [label="gini = 0.487\nsamples = 481\nvalue = [319, 444]\nclass = 1", fillcolor="#c7e3f8"] ;
146 -> 147 ;
148 [label="gini = 0.375\nsamples = 671\nvalue = [262, 788]\nclass = 1", fillcolor="#7bbeee"] ;
146 -> 148 ;
149 [label="heart_rate_max <= 0.544\ngini = 0.499\nsamples = 1462\nvalue = [1130, 1210]\nclass = 1", fillcolor="#f2f9fd"] ;
141 -> 149 ;
150 [label="sbp_mean <= -0.711\ngini = 0.498\nsamples = 1079\nvalue = [909, 808]\nclass = 0", fillcolor="#fcf1e9"] ;
149 -> 150 ;
151 [label="gini = 0.427\nsamples = 55\nvalue = [29, 65]\nclass = 1", fillcolor="#91c9f1"] ;
150 -> 151 ;
152 [label="gini = 0.496\nsamples = 1024\nvalue = [880, 743]\nclass = 0", fillcolor="#fbebe0"] ;
150 -> 152 ;
153 [label="spo2_min <= 0.417\ngini = 0.458\nsamples = 383\nvalue = [221, 402]\nclass = 1", fillcolor="#a6d3f3"] ;
149 -> 153 ;
154 [label="gini = 0.437\nsamples = 333\nvalue = [177, 373]\nclass = 1", fillcolor="#97ccf1"] ;
153 -> 154 ;
155 [label="gini = 0.479\nsamples = 50\nvalue = [44, 29]\nclass = 0", fillcolor="#f6d4bc"] ;
153 -> 155 ;
156 [label="mbp_min <= -0.331\ngini = 0.398\nsamples = 5073\nvalue = [2202, 5832]\nclass = 1", fillcolor="#84c2ef"] ;
92 -> 156 ;
157 [label="po2_min <= -0.199\ngini = 0.317\nsamples = 1790\nvalue = [556, 2254]\nclass = 1", fillcolor="#6ab5eb"] ;
156 -> 157 ;
158 [label="aniongap_max <= -0.373\ngini = 0.233\nsamples = 750\nvalue = [158, 1018]\nclass = 1", fillcolor="#58ace9"] ;
157 -> 158 ;
159 [label="weight_admit <= -0.478\ngini = 0.352\nsamples = 167\nvalue = [61, 207]\nclass = 1", fillcolor="#73baed"] ;
158 -> 159 ;
160 [label="sodium_mean <= 0.627\ngini = 0.487\nsamples = 58\nvalue = [39, 54]\nclass = 1", fillcolor="#c8e4f8"] ;
159 -> 160 ;
161 [label="gini = 0.499\nsamples = 47\nvalue = [39, 35]\nclass = 0", fillcolor="#fcf2eb"] ;
160 -> 161 ;
162 [label="gini = 0.0\nsamples = 11\nvalue = [0, 19]\nclass = 1", fillcolor="#399de5"] ;
160 -> 162 ;
163 [label="admission_age <= -2.122\ngini = 0.22\nsamples = 109\nvalue = [22, 153]\nclass = 1", fillcolor="#55abe9"] ;
159 -> 163 ;
164 [label="gini = 0.408\nsamples = 4\nvalue = [5, 2]\nclass = 0", fillcolor="#efb388"] ;
163 -> 164 ;
165 [label="gini = 0.182\nsamples = 105\nvalue = [17, 151]\nclass = 1", fillcolor="#4fa8e8"] ;
163 -> 165 ;
166 [label="dbp_mean <= -2.918\ngini = 0.191\nsamples = 583\nvalue = [97, 811]\nclass = 1", fillcolor="#51a9e8"] ;
158 -> 166 ;
167 [label="gini = 0.0\nsamples = 3\nvalue = [4, 0]\nclass = 0", fillcolor="#e58139"] ;
166 -> 167 ;
168 [label="hematocrit_min.1 <= 1.998\ngini = 0.185\nsamples = 580\nvalue = [93, 811]\nclass = 1", fillcolor="#50a8e8"] ;
166 -> 168 ;
169 [label="gini = 0.171\nsamples = 570\nvalue = [84, 803]\nclass = 1", fillcolor="#4ea7e8"] ;
168 -> 169 ;
170 [label="gini = 0.498\nsamples = 10\nvalue = [9, 8]\nclass = 0", fillcolor="#fcf1e9"] ;
168 -> 170 ;
171 [label="weight_admit <= -0.498\ngini = 0.368\nsamples = 1040\nvalue = [398, 1236]\nclass = 1", fillcolor="#79bded"] ;
157 -> 171 ;
172 [label="inr_max <= 6.782\ngini = 0.438\nsamples = 400\nvalue = [204, 425]\nclass = 1", fillcolor="#98ccf1"] ;
171 -> 172 ;
173 [label="bun_mean <= -0.639\ngini = 0.432\nsamples = 395\nvalue = [195, 424]\nclass = 1", fillcolor="#94caf1"] ;
172 -> 173 ;
174 [label="gini = 0.498\nsamples = 72\nvalue = [55, 49]\nclass = 0", fillcolor="#fcf1e9"] ;
173 -> 174 ;
175 [label="gini = 0.396\nsamples = 323\nvalue = [140, 375]\nclass = 1", fillcolor="#83c2ef"] ;
173 -> 175 ;
176 [label="resp_rate_min <= -1.471\ngini = 0.18\nsamples = 5\nvalue = [9, 1]\nclass = 0", fillcolor="#e88f4f"] ;
172 -> 176 ;
177 [label="gini = 0.0\nsamples = 1\nvalue = [0, 1]\nclass = 1", fillcolor="#399de5"] ;
176 -> 177 ;
178 [label="gini = 0.0\nsamples = 4\nvalue = [9, 0]\nclass = 0", fillcolor="#e58139"] ;
176 -> 178 ;
179 [label="wbc_mean <= -0.066\ngini = 0.312\nsamples = 640\nvalue = [194, 811]\nclass = 1", fillcolor="#68b4eb"] ;
171 -> 179 ;
180 [label="chloride_mean <= -2.942\ngini = 0.37\nsamples = 369\nvalue = [142, 437]\nclass = 1", fillcolor="#79bded"] ;
179 -> 180 ;
181 [label="gini = 0.42\nsamples = 6\nvalue = [7, 3]\nclass = 0", fillcolor="#f0b78e"] ;
180 -> 181 ;
182 [label="gini = 0.362\nsamples = 363\nvalue = [135, 434]\nclass = 1", fillcolor="#77bbed"] ;
180 -> 182 ;
183 [label="spo2_min <= -3.748\ngini = 0.214\nsamples = 271\nvalue = [52, 374]\nclass = 1", fillcolor="#55abe9"] ;
179 -> 183 ;
184 [label="gini = 0.444\nsamples = 3\nvalue = [4, 2]\nclass = 0", fillcolor="#f2c09c"] ;
183 -> 184 ;
185 [label="gini = 0.202\nsamples = 268\nvalue = [48, 372]\nclass = 1", fillcolor="#53aae8"] ;
183 -> 185 ;
186 [label="chloride_mean <= -1.33\ngini = 0.432\nsamples = 3283\nvalue = [1646, 3578]\nclass = 1", fillcolor="#94caf1"] ;
156 -> 186 ;
187 [label="bun_mean <= 0.512\ngini = 0.278\nsamples = 347\nvalue = [92, 459]\nclass = 1", fillcolor="#61b1ea"] ;
186 -> 187 ;
188 [label="hematocrit_min.1 <= -0.799\ngini = 0.362\nsamples = 204\nvalue = [79, 254]\nclass = 1", fillcolor="#77bbed"] ;
187 -> 188 ;
189 [label="dbp_max <= -1.035\ngini = 0.123\nsamples = 33\nvalue = [4, 57]\nclass = 1", fillcolor="#47a4e7"] ;
188 -> 189 ;
190 [label="gini = 0.444\nsamples = 2\nvalue = [2, 1]\nclass = 0", fillcolor="#f2c09c"] ;
189 -> 190 ;
191 [label="gini = 0.067\nsamples = 31\nvalue = [2, 56]\nclass = 1", fillcolor="#40a0e6"] ;
189 -> 191 ;
192 [label="admission_age <= -0.863\ngini = 0.399\nsamples = 171\nvalue = [75, 197]\nclass = 1", fillcolor="#84c2ef"] ;
188 -> 192 ;
193 [label="gini = 0.467\nsamples = 21\nvalue = [22, 13]\nclass = 0", fillcolor="#f4cbae"] ;
192 -> 193 ;
194 [label="gini = 0.347\nsamples = 150\nvalue = [53, 184]\nclass = 1", fillcolor="#72b9ec"] ;
192 -> 194 ;
195 [label="admission_age <= 1.511\ngini = 0.112\nsamples = 143\nvalue = [13, 205]\nclass = 1", fillcolor="#46a3e7"] ;
187 -> 195 ;
196 [label="resp_rate_min <= -1.609\ngini = 0.089\nsamples = 140\nvalue = [10, 203]\nclass = 1", fillcolor="#43a2e6"] ;
195 -> 196 ;
197 [label="gini = 0.49\nsamples = 4\nvalue = [3, 4]\nclass = 1", fillcolor="#cee6f8"] ;
196 -> 197 ;
198 [label="gini = 0.066\nsamples = 136\nvalue = [7, 199]\nclass = 1", fillcolor="#40a0e6"] ;
196 -> 198 ;
199 [label="spo2_min <= -0.103\ngini = 0.48\nsamples = 3\nvalue = [3, 2]\nclass = 0", fillcolor="#f6d5bd"] ;
195 -> 199 ;
200 [label="gini = 0.0\nsamples = 1\nvalue = [0, 2]\nclass = 1", fillcolor="#399de5"] ;
199 -> 200 ;
201 [label="gini = 0.0\nsamples = 2\nvalue = [3, 0]\nclass = 0", fillcolor="#e58139"] ;
199 -> 201 ;
202 [label="glucose_max <= -0.104\ngini = 0.444\nsamples = 2936\nvalue = [1554, 3119]\nclass = 1", fillcolor="#9ccef2"] ;
186 -> 202 ;
203 [label="totalco2_max <= 0.244\ngini = 0.471\nsamples = 1902\nvalue = [1146, 1878]\nclass = 1", fillcolor="#b2d9f5"] ;
202 -> 203 ;
204 [label="admission_age <= -0.394\ngini = 0.483\nsamples = 1517\nvalue = [984, 1431]\nclass = 1", fillcolor="#c1e0f7"] ;
203 -> 204 ;
205 [label="gini = 0.5\nsamples = 509\nvalue = [414, 394]\nclass = 0", fillcolor="#fef9f5"] ;
204 -> 205 ;
206 [label="gini = 0.458\nsamples = 1008\nvalue = [570, 1037]\nclass = 1", fillcolor="#a6d3f3"] ;
204 -> 206 ;
207 [label="admission_age <= -0.408\ngini = 0.39\nsamples = 385\nvalue = [162, 447]\nclass = 1", fillcolor="#81c1ee"] ;
203 -> 207 ;
208 [label="gini = 0.465\nsamples = 108\nvalue = [62, 107]\nclass = 1", fillcolor="#acd6f4"] ;
207 -> 208 ;
209 [label="gini = 0.351\nsamples = 277\nvalue = [100, 340]\nclass = 1", fillcolor="#73baed"] ;
207 -> 209 ;
210 [label="weight_admit <= -0.02\ngini = 0.372\nsamples = 1034\nvalue = [408, 1241]\nclass = 1", fillcolor="#7abdee"] ;
202 -> 210 ;
211 [label="dbp_max <= -0.006\ngini = 0.436\nsamples = 512\nvalue = [261, 551]\nclass = 1", fillcolor="#97cbf1"] ;
210 -> 211 ;
212 [label="gini = 0.464\nsamples = 312\nvalue = [183, 316]\nclass = 1", fillcolor="#acd6f4"] ;
211 -> 212 ;
213 [label="gini = 0.374\nsamples = 200\nvalue = [78, 235]\nclass = 1", fillcolor="#7bbeee"] ;
211 -> 213 ;
214 [label="pco2_min <= -0.007\ngini = 0.29\nsamples = 522\nvalue = [147, 690]\nclass = 1", fillcolor="#63b2eb"] ;
210 -> 214 ;
215 [label="gini = 0.337\nsamples = 323\nvalue = [115, 422]\nclass = 1", fillcolor="#6fb8ec"] ;
214 -> 215 ;
216 [label="gini = 0.191\nsamples = 199\nvalue = [32, 268]\nclass = 1", fillcolor="#51a9e8"] ;
214 -> 216 ;
}