digraph Tree {
node [shape=box, style="filled, rounded", color="black", fontname="helvetica"] ;
edge [fontname="helvetica"] ;
0 [label="ph_min <= 0.058\ngini = 0.42\nsamples = 21041\nvalue = [10043, 23447]\nclass = 1", fillcolor="#8ec7f0"] ;
1 [label="inr_max <= -0.178\ngini = 0.336\nsamples = 7448\nvalue = [2549, 9374]\nclass = 1", fillcolor="#6fb8ec"] ;
0 -> 1 [labeldistance=2.5, labelangle=45, headlabel="True"] ;
2 [label="gcs_verbal <= 0.155\ngini = 0.391\nsamples = 3820\nvalue = [1642, 4526]\nclass = 1", fillcolor="#81c1ee"] ;
1 -> 2 ;
3 [label="bun_mean <= -0.419\ngini = 0.312\nsamples = 1964\nvalue = [618, 2577]\nclass = 1", fillcolor="#68b5eb"] ;
2 -> 3 ;
4 [label="weight_admit <= 0.438\ngini = 0.412\nsamples = 810\nvalue = [379, 925]\nclass = 1", fillcolor="#8ac5f0"] ;
3 -> 4 ;
5 [label="glucose_max <= -0.644\ngini = 0.455\nsamples = 556\nvalue = [320, 596]\nclass = 1", fillcolor="#a3d2f3"] ;
4 -> 5 ;
6 [label="abs_lymphocytes_mean <= -0.144\ngini = 0.5\nsamples = 106\nvalue = [89, 85]\nclass = 0", fillcolor="#fef9f6"] ;
5 -> 6 ;
7 [label="gini = 0.291\nsamples = 9\nvalue = [3, 14]\nclass = 1", fillcolor="#63b2eb"] ;
6 -> 7 ;
8 [label="gini = 0.495\nsamples = 97\nvalue = [86, 71]\nclass = 0", fillcolor="#fae9dc"] ;
6 -> 8 ;
9 [label="ph_max <= -0.938\ngini = 0.429\nsamples = 450\nvalue = [231, 511]\nclass = 1", fillcolor="#93c9f1"] ;
5 -> 9 ;
10 [label="gini = 0.499\nsamples = 72\nvalue = [58, 54]\nclass = 0", fillcolor="#fdf6f1"] ;
9 -> 10 ;
11 [label="gini = 0.398\nsamples = 378\nvalue = [173, 457]\nclass = 1", fillcolor="#84c2ef"] ;
9 -> 11 ;
12 [label="admission_age <= -2.121\ngini = 0.258\nsamples = 254\nvalue = [59, 329]\nclass = 1", fillcolor="#5dafea"] ;
4 -> 12 ;
13 [label="hematocrit_max.1 <= 1.628\ngini = 0.499\nsamples = 10\nvalue = [10, 9]\nclass = 0", fillcolor="#fcf2eb"] ;
12 -> 13 ;
14 [label="gini = 0.298\nsamples = 7\nvalue = [2, 9]\nclass = 1", fillcolor="#65b3eb"] ;
13 -> 14 ;
15 [label="gini = 0.0\nsamples = 3\nvalue = [8, 0]\nclass = 0", fillcolor="#e58139"] ;
13 -> 15 ;
16 [label="abs_lymphocytes_mean <= 0.367\ngini = 0.23\nsamples = 244\nvalue = [49, 320]\nclass = 1", fillcolor="#57ace9"] ;
12 -> 16 ;
17 [label="gini = 0.205\nsamples = 232\nvalue = [41, 312]\nclass = 1", fillcolor="#53aae8"] ;
16 -> 17 ;
18 [label="gini = 0.5\nsamples = 12\nvalue = [8, 8]\nclass = 0", fillcolor="#ffffff"] ;
16 -> 18 ;
19 [label="abs_monocytes_mean <= 0.936\ngini = 0.221\nsamples = 1154\nvalue = [239, 1652]\nclass = 1", fillcolor="#56abe9"] ;
3 -> 19 ;
20 [label="dbp_min <= 1.977\ngini = 0.207\nsamples = 1087\nvalue = [209, 1575]\nclass = 1", fillcolor="#53aae8"] ;
19 -> 20 ;
21 [label="platelets_mean <= 5.223\ngini = 0.199\nsamples = 1074\nvalue = [197, 1565]\nclass = 1", fillcolor="#52a9e8"] ;
20 -> 21 ;
22 [label="gini = 0.197\nsamples = 1072\nvalue = [195, 1565]\nclass = 1", fillcolor="#52a9e8"] ;
21 -> 22 ;
23 [label="gini = 0.0\nsamples = 2\nvalue = [2, 0]\nclass = 0", fillcolor="#e58139"] ;
21 -> 23 ;
24 [label="glucose_max.2 <= 1.498\ngini = 0.496\nsamples = 13\nvalue = [12, 10]\nclass = 0", fillcolor="#fbeade"] ;
20 -> 24 ;
25 [label="gini = 0.153\nsamples = 7\nvalue = [11, 1]\nclass = 0", fillcolor="#e78c4b"] ;
24 -> 25 ;
26 [label="gini = 0.18\nsamples = 6\nvalue = [1, 9]\nclass = 1", fillcolor="#4fa8e8"] ;
24 -> 26 ;
27 [label="sodium_mean <= 1.056\ngini = 0.404\nsamples = 67\nvalue = [30, 77]\nclass = 1", fillcolor="#86c3ef"] ;
19 -> 27 ;
28 [label="abs_monocytes_mean <= 0.956\ngini = 0.278\nsamples = 52\nvalue = [13, 65]\nclass = 1", fillcolor="#61b1ea"] ;
27 -> 28 ;
29 [label="gini = 0.0\nsamples = 2\nvalue = [5, 0]\nclass = 0", fillcolor="#e58139"] ;
28 -> 29 ;
30 [label="gini = 0.195\nsamples = 50\nvalue = [8, 65]\nclass = 1", fillcolor="#51a9e8"] ;
28 -> 30 ;
31 [label="dbp_max <= -0.07\ngini = 0.485\nsamples = 15\nvalue = [17, 12]\nclass = 0", fillcolor="#f7dac5"] ;
27 -> 31 ;
32 [label="gini = 0.0\nsamples = 6\nvalue = [13, 0]\nclass = 0", fillcolor="#e58139"] ;
31 -> 32 ;
33 [label="gini = 0.375\nsamples = 9\nvalue = [4, 12]\nclass = 1", fillcolor="#7bbeee"] ;
31 -> 33 ;
34 [label="mbp_min <= 0.034\ngini = 0.452\nsamples = 1856\nvalue = [1024, 1949]\nclass = 1", fillcolor="#a1d0f3"] ;
2 -> 34 ;
35 [label="ph_min <= -2.21\ngini = 0.383\nsamples = 899\nvalue = [376, 1080]\nclass = 1", fillcolor="#7ebfee"] ;
34 -> 35 ;
36 [label="chloride_mean <= -0.949\ngini = 0.495\nsamples = 53\nvalue = [48, 39]\nclass = 0", fillcolor="#fae7da"] ;
35 -> 36 ;
37 [label="gini = 0.0\nsamples = 12\nvalue = [0, 16]\nclass = 1", fillcolor="#399de5"] ;
36 -> 37 ;
38 [label="calcium_min.1 <= -1.98\ngini = 0.438\nsamples = 41\nvalue = [48, 23]\nclass = 0", fillcolor="#f1bd98"] ;
36 -> 38 ;
39 [label="gini = 0.0\nsamples = 3\nvalue = [0, 5]\nclass = 1", fillcolor="#399de5"] ;
38 -> 39 ;
40 [label="gini = 0.397\nsamples = 38\nvalue = [48, 18]\nclass = 0", fillcolor="#efb083"] ;
38 -> 40 ;
41 [label="glucose_max.2 <= -0.547\ngini = 0.364\nsamples = 846\nvalue = [328, 1041]\nclass = 1", fillcolor="#77bced"] ;
35 -> 41 ;
42 [label="glucose_max <= -0.821\ngini = 0.463\nsamples = 139\nvalue = [79, 138]\nclass = 1", fillcolor="#aad5f4"] ;
41 -> 42 ;
43 [label="gini = 0.495\nsamples = 41\nvalue = [37, 30]\nclass = 0", fillcolor="#fae7da"] ;
42 -> 43 ;
44 [label="gini = 0.403\nsamples = 98\nvalue = [42, 108]\nclass = 1", fillcolor="#86c3ef"] ;
42 -> 44 ;
45 [label="baseexcess_max <= -1.283\ngini = 0.339\nsamples = 707\nvalue = [249, 903]\nclass = 1", fillcolor="#70b8ec"] ;
41 -> 45 ;
46 [label="gini = 0.441\nsamples = 131\nvalue = [72, 147]\nclass = 1", fillcolor="#9acdf2"] ;
45 -> 46 ;
47 [label="gini = 0.307\nsamples = 576\nvalue = [177, 756]\nclass = 1", fillcolor="#67b4eb"] ;
45 -> 47 ;
48 [label="wbc_mean <= 0.268\ngini = 0.489\nsamples = 957\nvalue = [648, 869]\nclass = 1", fillcolor="#cde6f8"] ;
34 -> 48 ;
49 [label="abs_lymphocytes_mean <= 0.161\ngini = 0.498\nsamples = 723\nvalue = [525, 601]\nclass = 1", fillcolor="#e6f3fc"] ;
48 -> 49 ;
50 [label="po2_max <= 1.969\ngini = 0.493\nsamples = 662\nvalue = [455, 573]\nclass = 1", fillcolor="#d6ebfa"] ;
49 -> 50 ;
51 [label="gini = 0.49\nsamples = 638\nvalue = [426, 568]\nclass = 1", fillcolor="#cee6f8"] ;
50 -> 51 ;
52 [label="gini = 0.251\nsamples = 24\nvalue = [29, 5]\nclass = 0", fillcolor="#e9975b"] ;
50 -> 52 ;
53 [label="resp_rate_min <= -1.195\ngini = 0.408\nsamples = 61\nvalue = [70, 28]\nclass = 0", fillcolor="#efb388"] ;
49 -> 53 ;
54 [label="gini = 0.346\nsamples = 5\nvalue = [2, 7]\nclass = 1", fillcolor="#72b9ec"] ;
53 -> 54 ;
55 [label="gini = 0.361\nsamples = 56\nvalue = [68, 21]\nclass = 0", fillcolor="#eda876"] ;
53 -> 55 ;
56 [label="bun_mean <= -0.492\ngini = 0.431\nsamples = 234\nvalue = [123, 268]\nclass = 1", fillcolor="#94caf1"] ;
48 -> 56 ;
57 [label="ptt_max <= -0.588\ngini = 0.5\nsamples = 76\nvalue = [59, 58]\nclass = 0", fillcolor="#fffdfc"] ;
56 -> 57 ;
58 [label="gini = 0.219\nsamples = 11\nvalue = [2, 14]\nclass = 1", fillcolor="#55abe9"] ;
57 -> 58 ;
59 [label="gini = 0.492\nsamples = 65\nvalue = [57, 44]\nclass = 0", fillcolor="#f9e2d2"] ;
57 -> 59 ;
60 [label="admission_age <= -1.639\ngini = 0.358\nsamples = 158\nvalue = [64, 210]\nclass = 1", fillcolor="#75bbed"] ;
56 -> 60 ;
61 [label="gini = 0.33\nsamples = 15\nvalue = [19, 5]\nclass = 0", fillcolor="#eca26d"] ;
60 -> 61 ;
62 [label="gini = 0.295\nsamples = 143\nvalue = [45, 205]\nclass = 1", fillcolor="#64b3eb"] ;
60 -> 62 ;
63 [label="aniongap_max <= -0.373\ngini = 0.266\nsamples = 3628\nvalue = [907, 4848]\nclass = 1", fillcolor="#5eafea"] ;
1 -> 63 ;
64 [label="mbp_min <= 0.107\ngini = 0.347\nsamples = 1366\nvalue = [489, 1696]\nclass = 1", fillcolor="#72b9ec"] ;
63 -> 64 ;
65 [label="temperature_max <= -1.667\ngini = 0.294\nsamples = 907\nvalue = [260, 1192]\nclass = 1", fillcolor="#64b2eb"] ;
64 -> 65 ;
66 [label="ptt_min <= 0.765\ngini = 0.444\nsamples = 8\nvalue = [8, 4]\nclass = 0", fillcolor="#f2c09c"] ;
65 -> 66 ;
67 [label="calcium_max.1 <= 0.477\ngini = 0.32\nsamples = 4\nvalue = [1, 4]\nclass = 1", fillcolor="#6ab6ec"] ;
66 -> 67 ;
68 [label="gini = 0.0\nsamples = 3\nvalue = [0, 4]\nclass = 1", fillcolor="#399de5"] ;
67 -> 68 ;
69 [label="gini = 0.0\nsamples = 1\nvalue = [1, 0]\nclass = 0", fillcolor="#e58139"] ;
67 -> 69 ;
70 [label="gini = 0.0\nsamples = 4\nvalue = [7, 0]\nclass = 0", fillcolor="#e58139"] ;
66 -> 70 ;
71 [label="abs_lymphocytes_mean <= 0.341\ngini = 0.289\nsamples = 899\nvalue = [252, 1188]\nclass = 1", fillcolor="#63b2eb"] ;
65 -> 71 ;
72 [label="abs_monocytes_mean <= -0.168\ngini = 0.276\nsamples = 853\nvalue = [226, 1138]\nclass = 1", fillcolor="#60b0ea"] ;
71 -> 72 ;
73 [label="gini = 0.358\nsamples = 292\nvalue = [110, 361]\nclass = 1", fillcolor="#75bbed"] ;
72 -> 73 ;
74 [label="gini = 0.226\nsamples = 561\nvalue = [116, 777]\nclass = 1", fillcolor="#57ace9"] ;
72 -> 74 ;
75 [label="potassium_min.1 <= -0.47\ngini = 0.45\nsamples = 46\nvalue = [26, 50]\nclass = 1", fillcolor="#a0d0f3"] ;
71 -> 75 ;
76 [label="gini = 0.165\nsamples = 7\nvalue = [10, 1]\nclass = 0", fillcolor="#e88e4d"] ;
75 -> 76 ;
77 [label="gini = 0.371\nsamples = 39\nvalue = [16, 49]\nclass = 1", fillcolor="#7abded"] ;
75 -> 77 ;
78 [label="heart_rate_max <= 0.936\ngini = 0.43\nsamples = 459\nvalue = [229, 504]\nclass = 1", fillcolor="#93caf1"] ;
64 -> 78 ;
79 [label="weight_admit <= 0.308\ngini = 0.447\nsamples = 401\nvalue = [214, 421]\nclass = 1", fillcolor="#9ecff2"] ;
78 -> 79 ;
80 [label="hematocrit_min.1 <= -0.604\ngini = 0.483\nsamples = 237\nvalue = [149, 216]\nclass = 1", fillcolor="#c2e1f7"] ;
79 -> 80 ;
81 [label="gini = 0.415\nsamples = 121\nvalue = [55, 132]\nclass = 1", fillcolor="#8bc6f0"] ;
80 -> 81 ;
82 [label="gini = 0.498\nsamples = 116\nvalue = [94, 84]\nclass = 0", fillcolor="#fcf2ea"] ;
80 -> 82 ;
83 [label="pco2_min <= 4.825\ngini = 0.366\nsamples = 164\nvalue = [65, 205]\nclass = 1", fillcolor="#78bced"] ;
79 -> 83 ;
84 [label="gini = 0.357\nsamples = 163\nvalue = [62, 205]\nclass = 1", fillcolor="#75bbed"] ;
83 -> 84 ;
85 [label="gini = 0.0\nsamples = 1\nvalue = [3, 0]\nclass = 0", fillcolor="#e58139"] ;
83 -> 85 ;
86 [label="po2_max <= 0.92\ngini = 0.259\nsamples = 58\nvalue = [15, 83]\nclass = 1", fillcolor="#5dafea"] ;
78 -> 86 ;
87 [label="aniongap_min <= -1.52\ngini = 0.061\nsamples = 35\nvalue = [2, 61]\nclass = 1", fillcolor="#3fa0e6"] ;
86 -> 87 ;
88 [label="gini = 0.444\nsamples = 3\nvalue = [1, 2]\nclass = 1", fillcolor="#9ccef2"] ;
87 -> 88 ;
89 [label="gini = 0.033\nsamples = 32\nvalue = [1, 59]\nclass = 1", fillcolor="#3c9fe5"] ;
87 -> 89 ;
90 [label="sbp_max <= -0.204\ngini = 0.467\nsamples = 23\nvalue = [13, 22]\nclass = 1", fillcolor="#aed7f4"] ;
86 -> 90 ;
91 [label="gini = 0.469\nsamples = 11\nvalue = [10, 6]\nclass = 0", fillcolor="#f5cdb0"] ;
90 -> 91 ;
92 [label="gini = 0.266\nsamples = 12\nvalue = [3, 16]\nclass = 1", fillcolor="#5eafea"] ;
90 -> 92 ;
93 [label="baseexcess_max <= -2.344\ngini = 0.207\nsamples = 2262\nvalue = [418, 3152]\nclass = 1", fillcolor="#53aae8"] ;
63 -> 93 ;
94 [label="po2_min <= 0.686\ngini = 0.409\nsamples = 232\nvalue = [103, 256]\nclass = 1", fillcolor="#89c4ef"] ;
93 -> 94 ;
95 [label="bun_mean <= 0.279\ngini = 0.371\nsamples = 210\nvalue = [80, 245]\nclass = 1", fillcolor="#7abded"] ;
94 -> 95 ;
96 [label="inr_min <= 4.244\ngini = 0.481\nsamples = 72\nvalue = [48, 71]\nclass = 1", fillcolor="#bfdff7"] ;
95 -> 96 ;
97 [label="gini = 0.447\nsamples = 66\nvalue = [35, 69]\nclass = 1", fillcolor="#9dcff2"] ;
96 -> 97 ;
98 [label="gini = 0.231\nsamples = 6\nvalue = [13, 2]\nclass = 0", fillcolor="#e99457"] ;
96 -> 98 ;
99 [label="aniongap_min <= 0.425\ngini = 0.262\nsamples = 138\nvalue = [32, 174]\nclass = 1", fillcolor="#5dafea"] ;
95 -> 99 ;
100 [label="gini = 0.477\nsamples = 19\nvalue = [11, 17]\nclass = 1", fillcolor="#b9dcf6"] ;
99 -> 100 ;
101 [label="gini = 0.208\nsamples = 119\nvalue = [21, 157]\nclass = 1", fillcolor="#53aae8"] ;
99 -> 101 ;
102 [label="temperature_max <= -1.036\ngini = 0.438\nsamples = 22\nvalue = [23, 11]\nclass = 0", fillcolor="#f1bd98"] ;
94 -> 102 ;
103 [label="sodium_mean <= 0.091\ngini = 0.245\nsamples = 11\nvalue = [18, 3]\nclass = 0", fillcolor="#e9965a"] ;
102 -> 103 ;
104 [label="gini = 0.444\nsamples = 5\nvalue = [6, 3]\nclass = 0", fillcolor="#f2c09c"] ;
103 -> 104 ;
105 [label="gini = 0.0\nsamples = 6\nvalue = [12, 0]\nclass = 0", fillcolor="#e58139"] ;
103 -> 105 ;
106 [label="inr_max <= 0.106\ngini = 0.473\nsamples = 11\nvalue = [5, 8]\nclass = 1", fillcolor="#b5daf5"] ;
102 -> 106 ;
107 [label="gini = 0.408\nsamples = 6\nvalue = [5, 2]\nclass = 0", fillcolor="#efb388"] ;
106 -> 107 ;
108 [label="gini = 0.0\nsamples = 5\nvalue = [0, 6]\nclass = 1", fillcolor="#399de5"] ;
106 -> 108 ;
109 [label="dbp_min <= 0.85\ngini = 0.177\nsamples = 2030\nvalue = [315, 2896]\nclass = 1", fillcolor="#4fa8e8"] ;
93 -> 109 ;
110 [label="potassium_max.1 <= -1.109\ngini = 0.162\nsamples = 1866\nvalue = [263, 2697]\nclass = 1", fillcolor="#4ca7e8"] ;
109 -> 110 ;
111 [label="bun_mean <= 0.622\ngini = 0.43\nsamples = 38\nvalue = [15, 33]\nclass = 1", fillcolor="#93caf1"] ;
110 -> 111 ;
112 [label="gini = 0.307\nsamples = 30\nvalue = [7, 30]\nclass = 1", fillcolor="#67b4eb"] ;
111 -> 112 ;
113 [label="gini = 0.397\nsamples = 8\nvalue = [8, 3]\nclass = 0", fillcolor="#efb083"] ;
111 -> 113 ;
114 [label="dbp_max <= -2.241\ngini = 0.156\nsamples = 1828\nvalue = [248, 2664]\nclass = 1", fillcolor="#4ba6e7"] ;
110 -> 114 ;
115 [label="gini = 0.0\nsamples = 1\nvalue = [2, 0]\nclass = 0", fillcolor="#e58139"] ;
114 -> 115 ;
116 [label="gini = 0.155\nsamples = 1827\nvalue = [246, 2664]\nclass = 1", fillcolor="#4ba6e7"] ;
114 -> 116 ;
117 [label="mbp_max <= -0.546\ngini = 0.329\nsamples = 164\nvalue = [52, 199]\nclass = 1", fillcolor="#6db7ec"] ;
109 -> 117 ;
118 [label="sbp_min <= -0.603\ngini = 0.473\nsamples = 18\nvalue = [16, 10]\nclass = 0", fillcolor="#f5d0b5"] ;
117 -> 118 ;
119 [label="gini = 0.0\nsamples = 5\nvalue = [0, 7]\nclass = 1", fillcolor="#399de5"] ;
118 -> 119 ;
120 [label="gini = 0.266\nsamples = 13\nvalue = [16, 3]\nclass = 0", fillcolor="#ea995e"] ;
118 -> 120 ;
121 [label="bun_mean <= -0.517\ngini = 0.269\nsamples = 146\nvalue = [36, 189]\nclass = 1", fillcolor="#5fb0ea"] ;
117 -> 121 ;
122 [label="gini = 0.493\nsamples = 30\nvalue = [18, 23]\nclass = 1", fillcolor="#d4eaf9"] ;
121 -> 122 ;
123 [label="gini = 0.177\nsamples = 116\nvalue = [18, 166]\nclass = 1", fillcolor="#4ea8e8"] ;
121 -> 123 ;
124 [label="admission_age <= -0.904\ngini = 0.453\nsamples = 13593\nvalue = [7494, 14073]\nclass = 1", fillcolor="#a2d1f3"] ;
0 -> 124 [labeldistance=2.5, labelangle=-45, headlabel="False"] ;
125 [label="admission_age <= -1.581\ngini = 0.499\nsamples = 2373\nvalue = [1988, 1833]\nclass = 0", fillcolor="#fdf5f0"] ;
124 -> 125 ;
126 [label="hematocrit_min.1 <= -0.141\ngini = 0.483\nsamples = 1196\nvalue = [1126, 775]\nclass = 0", fillcolor="#f7d8c1"] ;
125 -> 126 ;
127 [label="gcs_verbal <= 0.618\ngini = 0.497\nsamples = 341\nvalue = [262, 307]\nclass = 1", fillcolor="#e2f1fb"] ;
126 -> 127 ;
128 [label="sbp_min <= -0.791\ngini = 0.38\nsamples = 108\nvalue = [46, 134]\nclass = 1", fillcolor="#7dbfee"] ;
127 -> 128 ;
129 [label="dbp_min <= -1.406\ngini = 0.32\nsamples = 8\nvalue = [12, 3]\nclass = 0", fillcolor="#eca06a"] ;
128 -> 129 ;
130 [label="gini = 0.0\nsamples = 1\nvalue = [0, 2]\nclass = 1", fillcolor="#399de5"] ;
129 -> 130 ;
131 [label="gini = 0.142\nsamples = 7\nvalue = [12, 1]\nclass = 0", fillcolor="#e78c49"] ;
129 -> 131 ;
132 [label="temperature_max <= 1.672\ngini = 0.327\nsamples = 100\nvalue = [34, 131]\nclass = 1", fillcolor="#6cb6ec"] ;
128 -> 132 ;
133 [label="gini = 0.384\nsamples = 78\nvalue = [34, 97]\nclass = 1", fillcolor="#7ebfee"] ;
132 -> 133 ;
134 [label="gini = 0.0\nsamples = 22\nvalue = [0, 34]\nclass = 1", fillcolor="#399de5"] ;
132 -> 134 ;
135 [label="resp_rate_max <= -0.364\ngini = 0.494\nsamples = 233\nvalue = [216, 173]\nclass = 0", fillcolor="#fae6d8"] ;
127 -> 135 ;
136 [label="bicarbonate_mean <= -0.647\ngini = 0.421\nsamples = 84\nvalue = [102, 44]\nclass = 0", fillcolor="#f0b78e"] ;
135 -> 136 ;
137 [label="gini = 0.351\nsamples = 14\nvalue = [5, 17]\nclass = 1", fillcolor="#73baed"] ;
136 -> 137 ;
138 [label="gini = 0.341\nsamples = 70\nvalue = [97, 27]\nclass = 0", fillcolor="#eca470"] ;
136 -> 138 ;
139 [label="heart_rate_min <= 0.857\ngini = 0.498\nsamples = 149\nvalue = [114, 129]\nclass = 1", fillcolor="#e8f4fc"] ;
135 -> 139 ;
140 [label="gini = 0.487\nsamples = 75\nvalue = [71, 51]\nclass = 0", fillcolor="#f8dcc7"] ;
139 -> 140 ;
141 [label="gini = 0.458\nsamples = 74\nvalue = [43, 78]\nclass = 1", fillcolor="#a6d3f3"] ;
139 -> 141 ;
142 [label="mbp_max <= 0.473\ngini = 0.456\nsamples = 855\nvalue = [864, 468]\nclass = 0", fillcolor="#f3c5a4"] ;
126 -> 142 ;
143 [label="weight_admit <= 2.132\ngini = 0.433\nsamples = 705\nvalue = [755, 350]\nclass = 0", fillcolor="#f1bb95"] ;
142 -> 143 ;
144 [label="temperature_max <= 0.068\ngini = 0.422\nsamples = 684\nvalue = [750, 326]\nclass = 0", fillcolor="#f0b88f"] ;
143 -> 144 ;
145 [label="gini = 0.371\nsamples = 419\nvalue = [499, 163]\nclass = 0", fillcolor="#edaa7a"] ;
144 -> 145 ;
146 [label="gini = 0.477\nsamples = 265\nvalue = [251, 163]\nclass = 0", fillcolor="#f6d3ba"] ;
144 -> 146 ;
147 [label="temperature_min <= -1.061\ngini = 0.285\nsamples = 21\nvalue = [5, 24]\nclass = 1", fillcolor="#62b1ea"] ;
143 -> 147 ;
148 [label="gini = 0.444\nsamples = 2\nvalue = [2, 1]\nclass = 0", fillcolor="#f2c09c"] ;
147 -> 148 ;
149 [label="gini = 0.204\nsamples = 19\nvalue = [3, 23]\nclass = 1", fillcolor="#53aae8"] ;
147 -> 149 ;
150 [label="temperature_mean <= 1.166\ngini = 0.499\nsamples = 150\nvalue = [109, 118]\nclass = 1", fillcolor="#f0f8fd"] ;
142 -> 150 ;
151 [label="abs_monocytes_mean <= -0.486\ngini = 0.497\nsamples = 127\nvalue = [103, 88]\nclass = 0", fillcolor="#fbede2"] ;
150 -> 151 ;
152 [label="gini = 0.0\nsamples = 4\nvalue = [0, 7]\nclass = 1", fillcolor="#399de5"] ;
151 -> 152 ;
153 [label="gini = 0.493\nsamples = 123\nvalue = [103, 81]\nclass = 0", fillcolor="#f9e4d5"] ;
151 -> 153 ;
154 [label="temperature_mean <= 1.677\ngini = 0.278\nsamples = 23\nvalue = [6, 30]\nclass = 1", fillcolor="#61b1ea"] ;
150 -> 154 ;
155 [label="gini = 0.0\nsamples = 14\nvalue = [0, 22]\nclass = 1", fillcolor="#399de5"] ;
154 -> 155 ;
156 [label="gini = 0.49\nsamples = 9\nvalue = [6, 8]\nclass = 1", fillcolor="#cee6f8"] ;
154 -> 156 ;
157 [label="bun_mean <= -0.174\ngini = 0.495\nsamples = 1177\nvalue = [862, 1058]\nclass = 1", fillcolor="#daedfa"] ;
125 -> 157 ;
158 [label="wbc_mean <= -0.549\ngini = 0.5\nsamples = 981\nvalue = [786, 806]\nclass = 1", fillcolor="#fafdfe"] ;
157 -> 158 ;
159 [label="ptt_max <= -0.482\ngini = 0.467\nsamples = 209\nvalue = [223, 132]\nclass = 0", fillcolor="#f4ccae"] ;
158 -> 159 ;
160 [label="temperature_mean <= 1.442\ngini = 0.323\nsamples = 45\nvalue = [59, 15]\nclass = 0", fillcolor="#eca16b"] ;
159 -> 160 ;
161 [label="gini = 0.248\nsamples = 42\nvalue = [59, 10]\nclass = 0", fillcolor="#e9965b"] ;
160 -> 161 ;
162 [label="gini = 0.0\nsamples = 3\nvalue = [0, 5]\nclass = 1", fillcolor="#399de5"] ;
160 -> 162 ;
163 [label="dbp_mean <= 0.11\ngini = 0.486\nsamples = 164\nvalue = [164, 117]\nclass = 0", fillcolor="#f8dbc6"] ;
159 -> 163 ;
164 [label="gini = 0.48\nsamples = 52\nvalue = [32, 48]\nclass = 1", fillcolor="#bddef6"] ;
163 -> 164 ;
165 [label="gini = 0.451\nsamples = 112\nvalue = [132, 69]\nclass = 0", fillcolor="#f3c3a0"] ;
163 -> 165 ;
166 [label="totalco2_min <= 0.122\ngini = 0.496\nsamples = 772\nvalue = [563, 674]\nclass = 1", fillcolor="#deeffb"] ;
158 -> 166 ;
167 [label="bicarbonate_mean <= -0.528\ngini = 0.498\nsamples = 492\nvalue = [417, 367]\nclass = 0", fillcolor="#fcf0e7"] ;
166 -> 167 ;
168 [label="gini = 0.479\nsamples = 114\nvalue = [70, 106]\nclass = 1", fillcolor="#bcdef6"] ;
167 -> 168 ;
169 [label="gini = 0.49\nsamples = 378\nvalue = [347, 261]\nclass = 0", fillcolor="#f9e0ce"] ;
167 -> 169 ;
170 [label="ptt_max <= -0.521\ngini = 0.437\nsamples = 280\nvalue = [146, 307]\nclass = 1", fillcolor="#97ccf1"] ;
166 -> 170 ;
171 [label="gini = 0.5\nsamples = 76\nvalue = [57, 60]\nclass = 1", fillcolor="#f5fafe"] ;
170 -> 171 ;
172 [label="gini = 0.389\nsamples = 204\nvalue = [89, 247]\nclass = 1", fillcolor="#80c0ee"] ;
170 -> 172 ;
173 [label="inr_min <= 0.078\ngini = 0.356\nsamples = 196\nvalue = [76, 252]\nclass = 1", fillcolor="#75bbed"] ;
157 -> 173 ;
174 [label="female <= 0.5\ngini = 0.421\nsamples = 136\nvalue = [66, 153]\nclass = 1", fillcolor="#8ec7f0"] ;
173 -> 174 ;
175 [label="weight_admit <= 0.939\ngini = 0.486\nsamples = 80\nvalue = [57, 80]\nclass = 1", fillcolor="#c6e3f8"] ;
174 -> 175 ;
176 [label="gini = 0.499\nsamples = 56\nvalue = [52, 47]\nclass = 0", fillcolor="#fcf3ec"] ;
175 -> 176 ;
177 [label="gini = 0.229\nsamples = 24\nvalue = [5, 33]\nclass = 1", fillcolor="#57ace9"] ;
175 -> 177 ;
178 [label="calcium_max.1 <= 3.27\ngini = 0.195\nsamples = 56\nvalue = [9, 73]\nclass = 1", fillcolor="#51a9e8"] ;
174 -> 178 ;
179 [label="gini = 0.162\nsamples = 54\nvalue = [7, 72]\nclass = 1", fillcolor="#4ca7e8"] ;
178 -> 179 ;
180 [label="gini = 0.444\nsamples = 2\nvalue = [2, 1]\nclass = 0", fillcolor="#f2c09c"] ;
178 -> 180 ;
181 [label="totalco2_min <= 1.581\ngini = 0.167\nsamples = 60\nvalue = [10, 99]\nclass = 1", fillcolor="#4da7e8"] ;
173 -> 181 ;
182 [label="potassium_min.1 <= -1.962\ngini = 0.094\nsamples = 55\nvalue = [5, 96]\nclass = 1", fillcolor="#43a2e6"] ;
181 -> 182 ;
183 [label="gini = 0.0\nsamples = 1\nvalue = [2, 0]\nclass = 0", fillcolor="#e58139"] ;
182 -> 183 ;
184 [label="gini = 0.059\nsamples = 54\nvalue = [3, 96]\nclass = 1", fillcolor="#3fa0e6"] ;
182 -> 184 ;
185 [label="resp_rate_max <= -0.675\ngini = 0.469\nsamples = 5\nvalue = [5, 3]\nclass = 0", fillcolor="#f5cdb0"] ;
181 -> 185 ;
186 [label="gini = 0.0\nsamples = 2\nvalue = [4, 0]\nclass = 0", fillcolor="#e58139"] ;
185 -> 186 ;
187 [label="gini = 0.375\nsamples = 3\nvalue = [1, 3]\nclass = 1", fillcolor="#7bbeee"] ;
185 -> 187 ;
188 [label="inr_max <= -0.396\ngini = 0.428\nsamples = 11220\nvalue = [5506, 12240]\nclass = 1", fillcolor="#92c9f1"] ;
124 -> 188 ;
189 [label="gcs_motor <= 0.26\ngini = 0.477\nsamples = 3301\nvalue = [2061, 3188]\nclass = 1", fillcolor="#b9dcf6"] ;
188 -> 189 ;
190 [label="pco2_min <= -0.134\ngini = 0.418\nsamples = 653\nvalue = [303, 717]\nclass = 1", fillcolor="#8dc6f0"] ;
189 -> 190 ;
191 [label="sbp_mean <= -1.18\ngini = 0.335\nsamples = 232\nvalue = [79, 292]\nclass = 1", fillcolor="#6fb8ec"] ;
190 -> 191 ;
192 [label="totalco2_min <= -0.711\ngini = 0.43\nsamples = 12\nvalue = [11, 5]\nclass = 0", fillcolor="#f1ba93"] ;
191 -> 192 ;
193 [label="gini = 0.0\nsamples = 2\nvalue = [0, 2]\nclass = 1", fillcolor="#399de5"] ;
192 -> 193 ;
194 [label="gini = 0.337\nsamples = 10\nvalue = [11, 3]\nclass = 0", fillcolor="#eca36f"] ;
192 -> 194 ;
195 [label="totalco2_max <= -0.653\ngini = 0.31\nsamples = 220\nvalue = [68, 287]\nclass = 1", fillcolor="#68b4eb"] ;
191 -> 195 ;
196 [label="gini = 0.444\nsamples = 68\nvalue = [33, 66]\nclass = 1", fillcolor="#9ccef2"] ;
195 -> 196 ;
197 [label="gini = 0.236\nsamples = 152\nvalue = [35, 221]\nclass = 1", fillcolor="#58ade9"] ;
195 -> 197 ;
198 [label="spo2_mean <= -1.387\ngini = 0.452\nsamples = 421\nvalue = [224, 425]\nclass = 1", fillcolor="#a1d1f3"] ;
190 -> 198 ;
199 [label="baseexcess_min <= 2.0\ngini = 0.36\nsamples = 19\nvalue = [26, 8]\nclass = 0", fillcolor="#eda876"] ;
198 -> 199 ;
200 [label="gini = 0.231\nsamples = 17\nvalue = [26, 4]\nclass = 0", fillcolor="#e99457"] ;
199 -> 200 ;
201 [label="gini = 0.0\nsamples = 2\nvalue = [0, 4]\nclass = 1", fillcolor="#399de5"] ;
199 -> 201 ;
202 [label="wbc_mean <= -0.459\ngini = 0.437\nsamples = 402\nvalue = [198, 417]\nclass = 1", fillcolor="#97ccf1"] ;
198 -> 202 ;
203 [label="gini = 0.485\nsamples = 89\nvalue = [57, 81]\nclass = 1", fillcolor="#c4e2f7"] ;
202 -> 203 ;
204 [label="gini = 0.416\nsamples = 313\nvalue = [141, 336]\nclass = 1", fillcolor="#8cc6f0"] ;
202 -> 204 ;
205 [label="dbp_min <= 0.004\ngini = 0.486\nsamples = 2648\nvalue = [1758, 2471]\nclass = 1", fillcolor="#c6e3f7"] ;
189 -> 205 ;
206 [label="totalco2_min <= 0.331\ngini = 0.451\nsamples = 1160\nvalue = [652, 1245]\nclass = 1", fillcolor="#a1d0f3"] ;
205 -> 206 ;
207 [label="platelets_mean <= 1.036\ngini = 0.47\nsamples = 898\nvalue = [559, 923]\nclass = 1", fillcolor="#b1d8f5"] ;
206 -> 207 ;
208 [label="gini = 0.479\nsamples = 780\nvalue = [516, 781]\nclass = 1", fillcolor="#bcdef6"] ;
207 -> 208 ;
209 [label="gini = 0.357\nsamples = 118\nvalue = [43, 142]\nclass = 1", fillcolor="#75bbed"] ;
207 -> 209 ;
210 [label="bun_mean <= -0.296\ngini = 0.348\nsamples = 262\nvalue = [93, 322]\nclass = 1", fillcolor="#72b9ed"] ;
206 -> 210 ;
211 [label="gini = 0.476\nsamples = 124\nvalue = [72, 112]\nclass = 1", fillcolor="#b8dcf6"] ;
210 -> 211 ;
212 [label="gini = 0.165\nsamples = 138\nvalue = [21, 210]\nclass = 1", fillcolor="#4da7e8"] ;
210 -> 212 ;
213 [label="po2_max <= -0.356\ngini = 0.499\nsamples = 1488\nvalue = [1106, 1226]\nclass = 1", fillcolor="#ecf5fc"] ;
205 -> 213 ;
214 [label="resp_rate_mean <= -0.254\ngini = 0.438\nsamples = 367\nvalue = [185, 387]\nclass = 1", fillcolor="#98ccf1"] ;
213 -> 214 ;
215 [label="gini = 0.496\nsamples = 157\nvalue = [110, 132]\nclass = 1", fillcolor="#deeffb"] ;
214 -> 215 ;
216 [label="gini = 0.351\nsamples = 210\nvalue = [75, 255]\nclass = 1", fillcolor="#73baed"] ;
214 -> 216 ;
217 [label="po2_max <= 0.254\ngini = 0.499\nsamples = 1121\nvalue = [921, 839]\nclass = 0", fillcolor="#fdf4ed"] ;
213 -> 217 ;
218 [label="gini = 0.497\nsamples = 1011\nvalue = [866, 737]\nclass = 0", fillcolor="#fbece2"] ;
217 -> 218 ;
219 [label="gini = 0.455\nsamples = 110\nvalue = [55, 102]\nclass = 1", fillcolor="#a4d2f3"] ;
217 -> 219 ;
220 [label="inr_max <= -0.121\ngini = 0.399\nsamples = 7919\nvalue = [3445, 9052]\nclass = 1", fillcolor="#84c2ef"] ;
188 -> 220 ;
221 [label="weight_admit <= -0.128\ngini = 0.425\nsamples = 4881\nvalue = [2342, 5314]\nclass = 1", fillcolor="#90c8f0"] ;
220 -> 221 ;
222 [label="sbp_min <= -0.141\ngini = 0.467\nsamples = 2448\nvalue = [1428, 2421]\nclass = 1", fillcolor="#aed7f4"] ;
221 -> 222 ;
223 [label="potassium_max.1 <= -0.512\ngini = 0.433\nsamples = 1082\nvalue = [543, 1171]\nclass = 1", fillcolor="#95caf1"] ;
222 -> 223 ;
224 [label="gini = 0.475\nsamples = 386\nvalue = [237, 375]\nclass = 1", fillcolor="#b6dbf5"] ;
223 -> 224 ;
225 [label="gini = 0.401\nsamples = 696\nvalue = [306, 796]\nclass = 1", fillcolor="#85c3ef"] ;
223 -> 225 ;
226 [label="gcs_motor <= 0.26\ngini = 0.485\nsamples = 1366\nvalue = [885, 1250]\nclass = 1", fillcolor="#c5e2f7"] ;
222 -> 226 ;
227 [label="gini = 0.419\nsamples = 308\nvalue = [145, 340]\nclass = 1", fillcolor="#8dc7f0"] ;
226 -> 227 ;
228 [label="gini = 0.495\nsamples = 1058\nvalue = [740, 910]\nclass = 1", fillcolor="#daedfa"] ;
226 -> 228 ;
229 [label="baseexcess_min <= 0.276\ngini = 0.365\nsamples = 2433\nvalue = [914, 2893]\nclass = 1", fillcolor="#78bced"] ;
221 -> 229 ;
230 [label="po2_min <= -0.7\ngini = 0.411\nsamples = 1326\nvalue = [598, 1472]\nclass = 1", fillcolor="#89c5f0"] ;
229 -> 230 ;
231 [label="gini = 0.162\nsamples = 89\nvalue = [13, 133]\nclass = 1", fillcolor="#4ca7e8"] ;
230 -> 231 ;
232 [label="gini = 0.423\nsamples = 1237\nvalue = [585, 1339]\nclass = 1", fillcolor="#90c8f0"] ;
230 -> 232 ;
233 [label="wbc_mean <= 4.486\ngini = 0.298\nsamples = 1107\nvalue = [316, 1421]\nclass = 1", fillcolor="#65b3eb"] ;
229 -> 233 ;
234 [label="gini = 0.295\nsamples = 1105\nvalue = [312, 1421]\nclass = 1", fillcolor="#64b3eb"] ;
233 -> 234 ;
235 [label="gini = 0.0\nsamples = 2\nvalue = [4, 0]\nclass = 0", fillcolor="#e58139"] ;
233 -> 235 ;
236 [label="pco2_max <= -0.138\ngini = 0.352\nsamples = 3038\nvalue = [1103, 3738]\nclass = 1", fillcolor="#73baed"] ;
220 -> 236 ;
237 [label="dbp_mean <= -1.104\ngini = 0.306\nsamples = 1408\nvalue = [422, 1820]\nclass = 1", fillcolor="#67b4eb"] ;
236 -> 237 ;
238 [label="heart_rate_max <= 3.068\ngini = 0.172\nsamples = 204\nvalue = [31, 295]\nclass = 1", fillcolor="#4ea7e8"] ;
237 -> 238 ;
239 [label="gini = 0.15\nsamples = 202\nvalue = [26, 292]\nclass = 1", fillcolor="#4ba6e7"] ;
238 -> 239 ;
240 [label="gini = 0.469\nsamples = 2\nvalue = [5, 3]\nclass = 0", fillcolor="#f5cdb0"] ;
238 -> 240 ;
241 [label="bun_mean <= -0.37\ngini = 0.325\nsamples = 1204\nvalue = [391, 1525]\nclass = 1", fillcolor="#6cb6ec"] ;
237 -> 241 ;
242 [label="gini = 0.408\nsamples = 445\nvalue = [202, 506]\nclass = 1", fillcolor="#88c4ef"] ;
241 -> 242 ;
243 [label="gini = 0.264\nsamples = 759\nvalue = [189, 1019]\nclass = 1", fillcolor="#5eafea"] ;
241 -> 243 ;
244 [label="mbp_min <= 0.07\ngini = 0.387\nsamples = 1630\nvalue = [681, 1918]\nclass = 1", fillcolor="#7fc0ee"] ;
236 -> 244 ;
245 [label="baseexcess_max <= 0.042\ngini = 0.339\nsamples = 935\nvalue = [323, 1168]\nclass = 1", fillcolor="#70b8ec"] ;
244 -> 245 ;
246 [label="gini = 0.38\nsamples = 639\nvalue = [259, 757]\nclass = 1", fillcolor="#7dbfee"] ;
245 -> 246 ;
247 [label="gini = 0.233\nsamples = 296\nvalue = [64, 411]\nclass = 1", fillcolor="#58ace9"] ;
245 -> 247 ;
248 [label="pco2_max <= 0.033\ngini = 0.437\nsamples = 695\nvalue = [358, 750]\nclass = 1", fillcolor="#98ccf1"] ;
244 -> 248 ;
249 [label="gini = 0.46\nsamples = 543\nvalue = [306, 549]\nclass = 1", fillcolor="#a7d4f3"] ;
248 -> 249 ;
250 [label="gini = 0.327\nsamples = 152\nvalue = [52, 201]\nclass = 1", fillcolor="#6cb6ec"] ;
248 -> 250 ;
}