digraph Tree {
node [shape=box, style="filled, rounded", color="black", fontname="helvetica"] ;
edge [fontname="helvetica"] ;
0 [label="potassium_max.1 <= -0.034\ngini = 0.423\nsamples = 21197\nvalue = [10164, 23326]\nclass = 1", fillcolor="#8fc8f0"] ;
1 [label="weight_admit <= -0.124\ngini = 0.454\nsamples = 12374\nvalue = [6831, 12740]\nclass = 1", fillcolor="#a3d2f3"] ;
0 -> 1 [labeldistance=2.5, labelangle=45, headlabel="True"] ;
2 [label="ptt_max <= -0.239\ngini = 0.487\nsamples = 6301\nvalue = [4172, 5762]\nclass = 1", fillcolor="#c8e4f8"] ;
1 -> 2 ;
3 [label="temperature_max <= 0.123\ngini = 0.498\nsamples = 4371\nvalue = [3235, 3724]\nclass = 1", fillcolor="#e5f2fc"] ;
2 -> 3 ;
4 [label="sbp_min <= 0.033\ngini = 0.5\nsamples = 2811\nvalue = [2221, 2176]\nclass = 0", fillcolor="#fefcfb"] ;
3 -> 4 ;
5 [label="sbp_max <= 0.719\ngini = 0.487\nsamples = 1297\nvalue = [856, 1191]\nclass = 1", fillcolor="#c7e3f8"] ;
4 -> 5 ;
6 [label="sodium_mean <= 1.592\ngini = 0.493\nsamples = 1146\nvalue = [796, 1013]\nclass = 1", fillcolor="#d5eaf9"] ;
5 -> 6 ;
7 [label="gini = 0.495\nsamples = 1103\nvalue = [785, 951]\nclass = 1", fillcolor="#dceefa"] ;
6 -> 7 ;
8 [label="gini = 0.256\nsamples = 43\nvalue = [11, 62]\nclass = 1", fillcolor="#5caeea"] ;
6 -> 8 ;
9 [label="ptt_min <= -0.189\ngini = 0.377\nsamples = 151\nvalue = [60, 178]\nclass = 1", fillcolor="#7cbeee"] ;
5 -> 9 ;
10 [label="gini = 0.288\nsamples = 110\nvalue = [30, 142]\nclass = 1", fillcolor="#63b2ea"] ;
9 -> 10 ;
11 [label="gini = 0.496\nsamples = 41\nvalue = [30, 36]\nclass = 1", fillcolor="#deeffb"] ;
9 -> 11 ;
12 [label="sbp_max <= -0.248\ngini = 0.487\nsamples = 1514\nvalue = [1365, 985]\nclass = 0", fillcolor="#f8dcc8"] ;
4 -> 12 ;
13 [label="chloride_mean <= -0.312\ngini = 0.405\nsamples = 469\nvalue = [534, 210]\nclass = 0", fillcolor="#efb387"] ;
12 -> 13 ;
14 [label="gini = 0.487\nsamples = 147\nvalue = [141, 102]\nclass = 0", fillcolor="#f8dcc8"] ;
13 -> 14 ;
15 [label="gini = 0.338\nsamples = 322\nvalue = [393, 108]\nclass = 0", fillcolor="#eca46f"] ;
13 -> 15 ;
16 [label="spo2_min <= 0.12\ngini = 0.499\nsamples = 1045\nvalue = [831, 775]\nclass = 0", fillcolor="#fdf7f2"] ;
12 -> 16 ;
17 [label="gini = 0.487\nsamples = 404\nvalue = [262, 365]\nclass = 1", fillcolor="#c7e3f8"] ;
16 -> 17 ;
18 [label="gini = 0.487\nsamples = 641\nvalue = [569, 410]\nclass = 0", fillcolor="#f8dcc8"] ;
16 -> 18 ;
19 [label="ph_max <= 0.152\ngini = 0.478\nsamples = 1560\nvalue = [1014, 1548]\nclass = 1", fillcolor="#bbddf6"] ;
3 -> 19 ;
20 [label="glucose_max.2 <= -0.643\ngini = 0.493\nsamples = 945\nvalue = [679, 867]\nclass = 1", fillcolor="#d4eaf9"] ;
19 -> 20 ;
21 [label="weight_admit <= -0.712\ngini = 0.481\nsamples = 141\nvalue = [126, 85]\nclass = 0", fillcolor="#f7d6bf"] ;
20 -> 21 ;
22 [label="gini = 0.4\nsamples = 68\nvalue = [76, 29]\nclass = 0", fillcolor="#efb185"] ;
21 -> 22 ;
23 [label="gini = 0.498\nsamples = 73\nvalue = [50, 56]\nclass = 1", fillcolor="#eaf4fc"] ;
21 -> 23 ;
24 [label="pco2_max <= 0.545\ngini = 0.485\nsamples = 804\nvalue = [553, 782]\nclass = 1", fillcolor="#c5e2f7"] ;
20 -> 24 ;
25 [label="gini = 0.493\nsamples = 718\nvalue = [525, 668]\nclass = 1", fillcolor="#d5eaf9"] ;
24 -> 25 ;
26 [label="gini = 0.317\nsamples = 86\nvalue = [28, 114]\nclass = 1", fillcolor="#6ab5eb"] ;
24 -> 26 ;
27 [label="glucose_mean <= -0.642\ngini = 0.442\nsamples = 615\nvalue = [335, 681]\nclass = 1", fillcolor="#9acdf2"] ;
19 -> 27 ;
28 [label="temperature_max <= 0.301\ngini = 0.496\nsamples = 142\nvalue = [118, 140]\nclass = 1", fillcolor="#e0f0fb"] ;
27 -> 28 ;
29 [label="gini = 0.367\nsamples = 15\nvalue = [25, 8]\nclass = 0", fillcolor="#eda978"] ;
28 -> 29 ;
30 [label="gini = 0.485\nsamples = 127\nvalue = [93, 132]\nclass = 1", fillcolor="#c4e2f7"] ;
28 -> 30 ;
31 [label="gcs_verbal <= 0.618\ngini = 0.409\nsamples = 473\nvalue = [217, 541]\nclass = 1", fillcolor="#88c4ef"] ;
27 -> 31 ;
32 [label="gini = 0.354\nsamples = 341\nvalue = [124, 416]\nclass = 1", fillcolor="#74baed"] ;
31 -> 32 ;
33 [label="gini = 0.489\nsamples = 132\nvalue = [93, 125]\nclass = 1", fillcolor="#cce6f8"] ;
31 -> 33 ;
34 [label="dbp_mean <= -0.98\ngini = 0.432\nsamples = 1930\nvalue = [937, 2038]\nclass = 1", fillcolor="#94caf1"] ;
2 -> 34 ;
35 [label="pco2_min <= -0.515\ngini = 0.335\nsamples = 358\nvalue = [123, 454]\nclass = 1", fillcolor="#6fb8ec"] ;
34 -> 35 ;
36 [label="ph_min <= 1.462\ngini = 0.154\nsamples = 124\nvalue = [17, 185]\nclass = 1", fillcolor="#4ba6e7"] ;
35 -> 36 ;
37 [label="sbp_min <= -3.867\ngini = 0.116\nsamples = 119\nvalue = [12, 183]\nclass = 1", fillcolor="#46a3e7"] ;
36 -> 37 ;
38 [label="gini = 0.0\nsamples = 3\nvalue = [3, 0]\nclass = 0", fillcolor="#e58139"] ;
37 -> 38 ;
39 [label="gini = 0.089\nsamples = 116\nvalue = [9, 183]\nclass = 1", fillcolor="#43a2e6"] ;
37 -> 39 ;
40 [label="heart_rate_min <= -0.653\ngini = 0.408\nsamples = 5\nvalue = [5, 2]\nclass = 0", fillcolor="#efb388"] ;
36 -> 40 ;
41 [label="gini = 0.0\nsamples = 3\nvalue = [5, 0]\nclass = 0", fillcolor="#e58139"] ;
40 -> 41 ;
42 [label="gini = 0.0\nsamples = 2\nvalue = [0, 2]\nclass = 1", fillcolor="#399de5"] ;
40 -> 42 ;
43 [label="po2_max <= 2.158\ngini = 0.406\nsamples = 234\nvalue = [106, 269]\nclass = 1", fillcolor="#87c4ef"] ;
35 -> 43 ;
44 [label="resp_rate_min <= -2.16\ngini = 0.392\nsamples = 229\nvalue = [98, 268]\nclass = 1", fillcolor="#81c1ef"] ;
43 -> 44 ;
45 [label="gini = 0.0\nsamples = 4\nvalue = [7, 0]\nclass = 0", fillcolor="#e58139"] ;
44 -> 45 ;
46 [label="gini = 0.378\nsamples = 225\nvalue = [91, 268]\nclass = 1", fillcolor="#7cbeee"] ;
44 -> 46 ;
47 [label="calcium_min.1 <= -0.827\ngini = 0.198\nsamples = 5\nvalue = [8, 1]\nclass = 0", fillcolor="#e89152"] ;
43 -> 47 ;
48 [label="gini = 0.5\nsamples = 2\nvalue = [1, 1]\nclass = 0", fillcolor="#ffffff"] ;
47 -> 48 ;
49 [label="gini = 0.0\nsamples = 3\nvalue = [7, 0]\nclass = 0", fillcolor="#e58139"] ;
47 -> 49 ;
50 [label="bun_mean <= -0.615\ngini = 0.448\nsamples = 1572\nvalue = [814, 1584]\nclass = 1", fillcolor="#9fcff2"] ;
34 -> 50 ;
51 [label="baseexcess_max <= 0.307\ngini = 0.499\nsamples = 468\nvalue = [343, 373]\nclass = 1", fillcolor="#eff7fd"] ;
50 -> 51 ;
52 [label="pco2_max <= -1.333\ngini = 0.499\nsamples = 333\nvalue = [270, 247]\nclass = 0", fillcolor="#fdf4ee"] ;
51 -> 52 ;
53 [label="gini = 0.198\nsamples = 17\nvalue = [3, 24]\nclass = 1", fillcolor="#52a9e8"] ;
52 -> 53 ;
54 [label="gini = 0.496\nsamples = 316\nvalue = [267, 223]\nclass = 0", fillcolor="#fbeade"] ;
52 -> 54 ;
55 [label="resp_rate_mean <= -0.906\ngini = 0.465\nsamples = 135\nvalue = [73, 126]\nclass = 1", fillcolor="#acd6f4"] ;
51 -> 55 ;
56 [label="gini = 0.45\nsamples = 26\nvalue = [27, 14]\nclass = 0", fillcolor="#f2c2a0"] ;
55 -> 56 ;
57 [label="gini = 0.413\nsamples = 109\nvalue = [46, 112]\nclass = 1", fillcolor="#8ac5f0"] ;
55 -> 57 ;
58 [label="heart_rate_mean <= -0.601\ngini = 0.403\nsamples = 1104\nvalue = [471, 1211]\nclass = 1", fillcolor="#86c3ef"] ;
50 -> 58 ;
59 [label="potassium_min.1 <= -0.646\ngini = 0.469\nsamples = 286\nvalue = [162, 269]\nclass = 1", fillcolor="#b0d8f5"] ;
58 -> 59 ;
60 [label="gini = 0.363\nsamples = 88\nvalue = [30, 96]\nclass = 1", fillcolor="#77bced"] ;
59 -> 60 ;
61 [label="gini = 0.491\nsamples = 198\nvalue = [132, 173]\nclass = 1", fillcolor="#d0e8f9"] ;
59 -> 61 ;
62 [label="ph_max <= -4.207\ngini = 0.372\nsamples = 818\nvalue = [309, 942]\nclass = 1", fillcolor="#7abdee"] ;
58 -> 62 ;
63 [label="gini = 0.0\nsamples = 4\nvalue = [8, 0]\nclass = 0", fillcolor="#e58139"] ;
62 -> 63 ;
64 [label="gini = 0.367\nsamples = 814\nvalue = [301, 942]\nclass = 1", fillcolor="#78bced"] ;
62 -> 64 ;
65 [label="admission_age <= -1.559\ngini = 0.4\nsamples = 6073\nvalue = [2659, 6978]\nclass = 1", fillcolor="#84c2ef"] ;
1 -> 65 ;
66 [label="gcs_verbal <= -0.772\ngini = 0.5\nsamples = 595\nvalue = [460, 460]\nclass = 0", fillcolor="#ffffff"] ;
65 -> 66 ;
67 [label="ptt_max <= -0.44\ngini = 0.438\nsamples = 164\nvalue = [81, 169]\nclass = 1", fillcolor="#98ccf1"] ;
66 -> 67 ;
68 [label="dbp_mean <= 0.286\ngini = 0.333\nsamples = 77\nvalue = [27, 101]\nclass = 1", fillcolor="#6eb7ec"] ;
67 -> 68 ;
69 [label="inr_max <= 0.106\ngini = 0.135\nsamples = 36\nvalue = [4, 51]\nclass = 1", fillcolor="#49a5e7"] ;
68 -> 69 ;
70 [label="gini = 0.073\nsamples = 35\nvalue = [2, 51]\nclass = 1", fillcolor="#41a1e6"] ;
69 -> 70 ;
71 [label="gini = 0.0\nsamples = 1\nvalue = [2, 0]\nclass = 0", fillcolor="#e58139"] ;
69 -> 71 ;
72 [label="other <= 0.5\ngini = 0.432\nsamples = 41\nvalue = [23, 50]\nclass = 1", fillcolor="#94caf1"] ;
68 -> 72 ;
73 [label="gini = 0.371\nsamples = 36\nvalue = [16, 49]\nclass = 1", fillcolor="#7abded"] ;
72 -> 73 ;
74 [label="gini = 0.219\nsamples = 5\nvalue = [7, 1]\nclass = 0", fillcolor="#e99355"] ;
72 -> 74 ;
75 [label="mbp_min <= 0.381\ngini = 0.493\nsamples = 87\nvalue = [54, 68]\nclass = 1", fillcolor="#d6ebfa"] ;
67 -> 75 ;
76 [label="calcium_max.1 <= 0.258\ngini = 0.428\nsamples = 52\nvalue = [23, 51]\nclass = 1", fillcolor="#92c9f1"] ;
75 -> 76 ;
77 [label="gini = 0.499\nsamples = 33\nvalue = [21, 23]\nclass = 1", fillcolor="#eef6fd"] ;
76 -> 77 ;
78 [label="gini = 0.124\nsamples = 19\nvalue = [2, 28]\nclass = 1", fillcolor="#47a4e7"] ;
76 -> 78 ;
79 [label="mbp_mean <= -0.236\ngini = 0.457\nsamples = 35\nvalue = [31, 17]\nclass = 0", fillcolor="#f3c6a6"] ;
75 -> 79 ;
80 [label="gini = 0.0\nsamples = 7\nvalue = [10, 0]\nclass = 0", fillcolor="#e58139"] ;
79 -> 80 ;
81 [label="gini = 0.494\nsamples = 28\nvalue = [21, 17]\nclass = 0", fillcolor="#fae7d9"] ;
79 -> 81 ;
82 [label="ptt_max <= 0.019\ngini = 0.491\nsamples = 431\nvalue = [379, 291]\nclass = 0", fillcolor="#f9e2d1"] ;
66 -> 82 ;
83 [label="hematocrit_max.1 <= -1.328\ngini = 0.479\nsamples = 386\nvalue = [364, 239]\nclass = 0", fillcolor="#f6d4bb"] ;
82 -> 83 ;
84 [label="heart_rate_min <= 0.562\ngini = 0.422\nsamples = 32\nvalue = [16, 37]\nclass = 1", fillcolor="#8fc7f0"] ;
83 -> 84 ;
85 [label="gini = 0.48\nsamples = 11\nvalue = [9, 6]\nclass = 0", fillcolor="#f6d5bd"] ;
84 -> 85 ;
86 [label="gini = 0.301\nsamples = 21\nvalue = [7, 31]\nclass = 1", fillcolor="#66b3eb"] ;
84 -> 86 ;
87 [label="dbp_min <= -0.886\ngini = 0.465\nsamples = 354\nvalue = [348, 202]\nclass = 0", fillcolor="#f4caac"] ;
83 -> 87 ;
88 [label="gini = 0.401\nsamples = 23\nvalue = [10, 26]\nclass = 1", fillcolor="#85c3ef"] ;
87 -> 88 ;
89 [label="gini = 0.45\nsamples = 331\nvalue = [338, 176]\nclass = 0", fillcolor="#f3c3a0"] ;
87 -> 89 ;
90 [label="heart_rate_max <= 1.475\ngini = 0.348\nsamples = 45\nvalue = [15, 52]\nclass = 1", fillcolor="#72b9ec"] ;
82 -> 90 ;
91 [label="calcium_min.1 <= 0.75\ngini = 0.256\nsamples = 36\nvalue = [8, 45]\nclass = 1", fillcolor="#5caeea"] ;
90 -> 91 ;
92 [label="gini = 0.159\nsamples = 31\nvalue = [4, 42]\nclass = 1", fillcolor="#4ca6e7"] ;
91 -> 92 ;
93 [label="gini = 0.49\nsamples = 5\nvalue = [4, 3]\nclass = 0", fillcolor="#f8e0ce"] ;
91 -> 93 ;
94 [label="calcium_max.1 <= -0.837\ngini = 0.5\nsamples = 9\nvalue = [7, 7]\nclass = 0", fillcolor="#ffffff"] ;
90 -> 94 ;
95 [label="gini = 0.0\nsamples = 4\nvalue = [7, 0]\nclass = 0", fillcolor="#e58139"] ;
94 -> 95 ;
96 [label="gini = 0.0\nsamples = 5\nvalue = [0, 7]\nclass = 1", fillcolor="#399de5"] ;
94 -> 96 ;
97 [label="baseexcess_max <= 0.042\ngini = 0.377\nsamples = 5478\nvalue = [2199, 6518]\nclass = 1", fillcolor="#7cbeee"] ;
65 -> 97 ;
98 [label="sbp_min <= -0.025\ngini = 0.413\nsamples = 3371\nvalue = [1565, 3810]\nclass = 1", fillcolor="#8ac5f0"] ;
97 -> 98 ;
99 [label="gcs_verbal <= 0.618\ngini = 0.339\nsamples = 1431\nvalue = [485, 1758]\nclass = 1", fillcolor="#70b8ec"] ;
98 -> 99 ;
100 [label="dbp_min <= 1.11\ngini = 0.233\nsamples = 675\nvalue = [140, 898]\nclass = 1", fillcolor="#58ace9"] ;
99 -> 100 ;
101 [label="gini = 0.222\nsamples = 661\nvalue = [130, 891]\nclass = 1", fillcolor="#56abe9"] ;
100 -> 101 ;
102 [label="gini = 0.484\nsamples = 14\nvalue = [10, 7]\nclass = 0", fillcolor="#f7d9c4"] ;
100 -> 102 ;
103 [label="sodium_mean <= -0.873\ngini = 0.409\nsamples = 756\nvalue = [345, 860]\nclass = 1", fillcolor="#88c4ef"] ;
99 -> 103 ;
104 [label="gini = 0.243\nsamples = 125\nvalue = [28, 170]\nclass = 1", fillcolor="#5aade9"] ;
103 -> 104 ;
105 [label="gini = 0.431\nsamples = 631\nvalue = [317, 690]\nclass = 1", fillcolor="#94caf1"] ;
103 -> 105 ;
106 [label="totalco2_min <= -0.086\ngini = 0.452\nsamples = 1940\nvalue = [1080, 2052]\nclass = 1", fillcolor="#a1d1f3"] ;
98 -> 106 ;
107 [label="sbp_min <= 3.354\ngini = 0.358\nsamples = 376\nvalue = [142, 466]\nclass = 1", fillcolor="#75bbed"] ;
106 -> 107 ;
108 [label="gini = 0.352\nsamples = 373\nvalue = [137, 465]\nclass = 1", fillcolor="#73baed"] ;
107 -> 108 ;
109 [label="gini = 0.278\nsamples = 3\nvalue = [5, 1]\nclass = 0", fillcolor="#ea9a61"] ;
107 -> 109 ;
110 [label="heart_rate_max <= 0.593\ngini = 0.467\nsamples = 1564\nvalue = [938, 1586]\nclass = 1", fillcolor="#aed7f4"] ;
106 -> 110 ;
111 [label="gini = 0.482\nsamples = 1293\nvalue = [845, 1242]\nclass = 1", fillcolor="#c0e0f7"] ;
110 -> 111 ;
112 [label="gini = 0.335\nsamples = 271\nvalue = [93, 344]\nclass = 1", fillcolor="#6fb7ec"] ;
110 -> 112 ;
113 [label="dbp_mean <= 0.113\ngini = 0.307\nsamples = 2107\nvalue = [634, 2708]\nclass = 1", fillcolor="#67b4eb"] ;
97 -> 113 ;
114 [label="sbp_min <= 0.047\ngini = 0.251\nsamples = 1329\nvalue = [308, 1782]\nclass = 1", fillcolor="#5baee9"] ;
113 -> 114 ;
115 [label="pco2_min <= 0.247\ngini = 0.215\nsamples = 892\nvalue = [173, 1242]\nclass = 1", fillcolor="#55abe9"] ;
114 -> 115 ;
116 [label="gini = 0.262\nsamples = 578\nvalue = [141, 770]\nclass = 1", fillcolor="#5dafea"] ;
115 -> 116 ;
117 [label="gini = 0.119\nsamples = 314\nvalue = [32, 472]\nclass = 1", fillcolor="#46a4e7"] ;
115 -> 117 ;
118 [label="glucose_min <= 3.829\ngini = 0.32\nsamples = 437\nvalue = [135, 540]\nclass = 1", fillcolor="#6ab6ec"] ;
114 -> 118 ;
119 [label="gini = 0.314\nsamples = 434\nvalue = [131, 540]\nclass = 1", fillcolor="#69b5eb"] ;
118 -> 119 ;
120 [label="gini = 0.0\nsamples = 3\nvalue = [4, 0]\nclass = 0", fillcolor="#e58139"] ;
118 -> 120 ;
121 [label="bun_mean <= -0.149\ngini = 0.385\nsamples = 778\nvalue = [326, 926]\nclass = 1", fillcolor="#7fc0ee"] ;
113 -> 121 ;
122 [label="glucose_max.2 <= -0.633\ngini = 0.424\nsamples = 589\nvalue = [285, 649]\nclass = 1", fillcolor="#90c8f0"] ;
121 -> 122 ;
123 [label="gini = 0.5\nsamples = 73\nvalue = [57, 60]\nclass = 1", fillcolor="#f5fafe"] ;
122 -> 123 ;
124 [label="gini = 0.402\nsamples = 516\nvalue = [228, 589]\nclass = 1", fillcolor="#86c3ef"] ;
122 -> 124 ;
125 [label="abs_eosinophils_mean <= 1.343\ngini = 0.225\nsamples = 189\nvalue = [41, 277]\nclass = 1", fillcolor="#56ace9"] ;
121 -> 125 ;
126 [label="gini = 0.204\nsamples = 185\nvalue = [36, 276]\nclass = 1", fillcolor="#53aae8"] ;
125 -> 126 ;
127 [label="gini = 0.278\nsamples = 4\nvalue = [5, 1]\nclass = 0", fillcolor="#ea9a61"] ;
125 -> 127 ;
128 [label="ph_min <= 0.058\ngini = 0.364\nsamples = 8823\nvalue = [3333, 10586]\nclass = 1", fillcolor="#77bced"] ;
0 -> 128 [labeldistance=2.5, labelangle=-45, headlabel="False"] ;
129 [label="sbp_min <= -0.415\ngini = 0.302\nsamples = 4312\nvalue = [1262, 5545]\nclass = 1", fillcolor="#66b3eb"] ;
128 -> 129 ;
130 [label="totalco2_max <= -2.222\ngini = 0.226\nsamples = 2037\nvalue = [418, 2798]\nclass = 1", fillcolor="#57ace9"] ;
129 -> 130 ;
131 [label="temperature_max <= -2.27\ngini = 0.46\nsamples = 94\nvalue = [52, 93]\nclass = 1", fillcolor="#a8d4f4"] ;
130 -> 131 ;
132 [label="bicarbonate_mean <= -3.737\ngini = 0.255\nsamples = 11\nvalue = [17, 3]\nclass = 0", fillcolor="#ea975c"] ;
131 -> 132 ;
133 [label="gini = 0.0\nsamples = 2\nvalue = [0, 2]\nclass = 1", fillcolor="#399de5"] ;
132 -> 133 ;
134 [label="gcs_verbal <= 0.618\ngini = 0.105\nsamples = 9\nvalue = [17, 1]\nclass = 0", fillcolor="#e78845"] ;
132 -> 134 ;
135 [label="gini = 0.0\nsamples = 8\nvalue = [17, 0]\nclass = 0", fillcolor="#e58139"] ;
134 -> 135 ;
136 [label="gini = 0.0\nsamples = 1\nvalue = [0, 1]\nclass = 1", fillcolor="#399de5"] ;
134 -> 136 ;
137 [label="abs_basophils_mean <= 0.609\ngini = 0.403\nsamples = 83\nvalue = [35, 90]\nclass = 1", fillcolor="#86c3ef"] ;
131 -> 137 ;
138 [label="black <= 0.5\ngini = 0.337\nsamples = 73\nvalue = [23, 84]\nclass = 1", fillcolor="#6fb8ec"] ;
137 -> 138 ;
139 [label="gini = 0.268\nsamples = 65\nvalue = [15, 79]\nclass = 1", fillcolor="#5fb0ea"] ;
138 -> 139 ;
140 [label="gini = 0.473\nsamples = 8\nvalue = [8, 5]\nclass = 0", fillcolor="#f5d0b5"] ;
138 -> 140 ;
141 [label="ptt_min <= 0.494\ngini = 0.444\nsamples = 10\nvalue = [12, 6]\nclass = 0", fillcolor="#f2c09c"] ;
137 -> 141 ;
142 [label="gini = 0.0\nsamples = 7\nvalue = [12, 0]\nclass = 0", fillcolor="#e58139"] ;
141 -> 142 ;
143 [label="gini = 0.0\nsamples = 3\nvalue = [0, 6]\nclass = 1", fillcolor="#399de5"] ;
141 -> 143 ;
144 [label="admission_age <= -1.812\ngini = 0.21\nsamples = 1943\nvalue = [366, 2705]\nclass = 1", fillcolor="#54aae9"] ;
130 -> 144 ;
145 [label="calcium_min.1 <= 0.871\ngini = 0.437\nsamples = 73\nvalue = [39, 82]\nclass = 1", fillcolor="#97ccf1"] ;
144 -> 145 ;
146 [label="bun_mean <= -0.419\ngini = 0.391\nsamples = 69\nvalue = [29, 80]\nclass = 1", fillcolor="#81c1ee"] ;
145 -> 146 ;
147 [label="gini = 0.489\nsamples = 36\nvalue = [23, 31]\nclass = 1", fillcolor="#cce6f8"] ;
146 -> 147 ;
148 [label="gini = 0.194\nsamples = 33\nvalue = [6, 49]\nclass = 1", fillcolor="#51a9e8"] ;
146 -> 148 ;
149 [label="heart_rate_mean <= 0.268\ngini = 0.278\nsamples = 4\nvalue = [10, 2]\nclass = 0", fillcolor="#ea9a61"] ;
145 -> 149 ;
150 [label="gini = 0.0\nsamples = 1\nvalue = [0, 2]\nclass = 1", fillcolor="#399de5"] ;
149 -> 150 ;
151 [label="gini = 0.0\nsamples = 3\nvalue = [10, 0]\nclass = 0", fillcolor="#e58139"] ;
149 -> 151 ;
152 [label="inr_max <= 0.012\ngini = 0.197\nsamples = 1870\nvalue = [327, 2623]\nclass = 1", fillcolor="#52a9e8"] ;
144 -> 152 ;
153 [label="spo2_max <= -10.271\ngini = 0.246\nsamples = 1141\nvalue = [255, 1523]\nclass = 1", fillcolor="#5aade9"] ;
152 -> 153 ;
154 [label="gini = 0.0\nsamples = 3\nvalue = [4, 0]\nclass = 0", fillcolor="#e58139"] ;
153 -> 154 ;
155 [label="gini = 0.243\nsamples = 1138\nvalue = [251, 1523]\nclass = 1", fillcolor="#5aade9"] ;
153 -> 155 ;
156 [label="glucose_max.2 <= -0.614\ngini = 0.115\nsamples = 729\nvalue = [72, 1100]\nclass = 1", fillcolor="#46a3e7"] ;
152 -> 156 ;
157 [label="gini = 0.301\nsamples = 68\nvalue = [19, 84]\nclass = 1", fillcolor="#66b3eb"] ;
156 -> 157 ;
158 [label="gini = 0.094\nsamples = 661\nvalue = [53, 1016]\nclass = 1", fillcolor="#43a2e6"] ;
156 -> 158 ;
159 [label="gcs_verbal <= 0.155\ngini = 0.36\nsamples = 2275\nvalue = [844, 2747]\nclass = 1", fillcolor="#76bbed"] ;
129 -> 159 ;
160 [label="aniongap_max <= 0.61\ngini = 0.277\nsamples = 1121\nvalue = [292, 1466]\nclass = 1", fillcolor="#60b1ea"] ;
159 -> 160 ;
161 [label="abs_neutrophils_mean <= 0.357\ngini = 0.311\nsamples = 835\nvalue = [250, 1047]\nclass = 1", fillcolor="#68b4eb"] ;
160 -> 161 ;
162 [label="ptt_min <= 0.263\ngini = 0.348\nsamples = 615\nvalue = [213, 735]\nclass = 1", fillcolor="#72b9ed"] ;
161 -> 162 ;
163 [label="gini = 0.373\nsamples = 530\nvalue = [203, 615]\nclass = 1", fillcolor="#7abdee"] ;
162 -> 163 ;
164 [label="gini = 0.142\nsamples = 85\nvalue = [10, 120]\nclass = 1", fillcolor="#49a5e7"] ;
162 -> 164 ;
165 [label="glucose_mean <= -1.123\ngini = 0.19\nsamples = 220\nvalue = [37, 312]\nclass = 1", fillcolor="#50a9e8"] ;
161 -> 165 ;
166 [label="gini = 0.0\nsamples = 2\nvalue = [3, 0]\nclass = 0", fillcolor="#e58139"] ;
165 -> 166 ;
167 [label="gini = 0.177\nsamples = 218\nvalue = [34, 312]\nclass = 1", fillcolor="#4fa8e8"] ;
165 -> 167 ;
168 [label="inr_max <= -0.462\ngini = 0.166\nsamples = 286\nvalue = [42, 419]\nclass = 1", fillcolor="#4da7e8"] ;
160 -> 168 ;
169 [label="resp_rate_mean <= 1.399\ngini = 0.461\nsamples = 17\nvalue = [9, 16]\nclass = 1", fillcolor="#a8d4f4"] ;
168 -> 169 ;
170 [label="gini = 0.48\nsamples = 13\nvalue = [9, 6]\nclass = 0", fillcolor="#f6d5bd"] ;
169 -> 170 ;
171 [label="gini = 0.0\nsamples = 4\nvalue = [0, 10]\nclass = 1", fillcolor="#399de5"] ;
169 -> 171 ;
172 [label="dbp_min <= -2.274\ngini = 0.14\nsamples = 269\nvalue = [33, 403]\nclass = 1", fillcolor="#49a5e7"] ;
168 -> 172 ;
173 [label="gini = 0.48\nsamples = 2\nvalue = [3, 2]\nclass = 0", fillcolor="#f6d5bd"] ;
172 -> 173 ;
174 [label="gini = 0.13\nsamples = 267\nvalue = [30, 401]\nclass = 1", fillcolor="#48a4e7"] ;
172 -> 174 ;
175 [label="admission_age <= -1.288\ngini = 0.421\nsamples = 1154\nvalue = [552, 1281]\nclass = 1", fillcolor="#8ec7f0"] ;
159 -> 175 ;
176 [label="hematocrit_min.1 <= 0.913\ngini = 0.489\nsamples = 147\nvalue = [133, 98]\nclass = 0", fillcolor="#f8decb"] ;
175 -> 176 ;
177 [label="mbp_mean <= 0.082\ngini = 0.5\nsamples = 110\nvalue = [91, 86]\nclass = 0", fillcolor="#fef8f4"] ;
176 -> 177 ;
178 [label="gini = 0.413\nsamples = 49\nvalue = [56, 23]\nclass = 0", fillcolor="#f0b58a"] ;
177 -> 178 ;
179 [label="gini = 0.459\nsamples = 61\nvalue = [35, 63]\nclass = 1", fillcolor="#a7d3f3"] ;
177 -> 179 ;
180 [label="dbp_mean <= 1.34\ngini = 0.346\nsamples = 37\nvalue = [42, 12]\nclass = 0", fillcolor="#eca572"] ;
176 -> 180 ;
181 [label="gini = 0.273\nsamples = 32\nvalue = [41, 8]\nclass = 0", fillcolor="#ea9a60"] ;
180 -> 181 ;
182 [label="gini = 0.32\nsamples = 5\nvalue = [1, 4]\nclass = 1", fillcolor="#6ab6ec"] ;
180 -> 182 ;
183 [label="weight_admit <= 0.624\ngini = 0.386\nsamples = 1007\nvalue = [419, 1183]\nclass = 1", fillcolor="#7fc0ee"] ;
175 -> 183 ;
184 [label="resp_rate_mean <= 1.054\ngini = 0.421\nsamples = 732\nvalue = [354, 821]\nclass = 1", fillcolor="#8ec7f0"] ;
183 -> 184 ;
185 [label="gini = 0.44\nsamples = 633\nvalue = [331, 680]\nclass = 1", fillcolor="#99cdf2"] ;
184 -> 185 ;
186 [label="gini = 0.241\nsamples = 99\nvalue = [23, 141]\nclass = 1", fillcolor="#59ade9"] ;
184 -> 186 ;
187 [label="glucose_min <= 4.87\ngini = 0.258\nsamples = 275\nvalue = [65, 362]\nclass = 1", fillcolor="#5dafea"] ;
183 -> 187 ;
188 [label="gini = 0.25\nsamples = 273\nvalue = [62, 362]\nclass = 1", fillcolor="#5baee9"] ;
187 -> 188 ;
189 [label="gini = 0.0\nsamples = 2\nvalue = [3, 0]\nclass = 0", fillcolor="#e58139"] ;
187 -> 189 ;
190 [label="admission_age <= -1.21\ngini = 0.413\nsamples = 4511\nvalue = [2071, 5041]\nclass = 1", fillcolor="#8ac5f0"] ;
128 -> 190 ;
191 [label="bun_mean <= 0.12\ngini = 0.5\nsamples = 410\nvalue = [327, 325]\nclass = 0", fillcolor="#fffefe"] ;
190 -> 191 ;
192 [label="weight_admit <= 0.068\ngini = 0.487\nsamples = 333\nvalue = [305, 219]\nclass = 0", fillcolor="#f8dbc7"] ;
191 -> 192 ;
193 [label="gcs_verbal <= -0.772\ngini = 0.431\nsamples = 197\nvalue = [212, 97]\nclass = 0", fillcolor="#f1bb94"] ;
192 -> 193 ;
194 [label="ptt_min <= -0.424\ngini = 0.489\nsamples = 54\nvalue = [34, 46]\nclass = 1", fillcolor="#cbe5f8"] ;
193 -> 194 ;
195 [label="gini = 0.32\nsamples = 21\nvalue = [6, 24]\nclass = 1", fillcolor="#6ab6ec"] ;
194 -> 195 ;
196 [label="gini = 0.493\nsamples = 33\nvalue = [28, 22]\nclass = 0", fillcolor="#f9e4d5"] ;
194 -> 196 ;
197 [label="baseexcess_max <= 1.102\ngini = 0.346\nsamples = 143\nvalue = [178, 51]\nclass = 0", fillcolor="#eca572"] ;
193 -> 197 ;
198 [label="gini = 0.335\nsamples = 141\nvalue = [178, 48]\nclass = 0", fillcolor="#eca36e"] ;
197 -> 198 ;
199 [label="gini = 0.0\nsamples = 2\nvalue = [0, 3]\nclass = 1", fillcolor="#399de5"] ;
197 -> 199 ;
200 [label="sbp_mean <= -0.242\ngini = 0.491\nsamples = 136\nvalue = [93, 122]\nclass = 1", fillcolor="#d0e8f9"] ;
192 -> 200 ;
201 [label="pco2_min <= 1.646\ngini = 0.193\nsamples = 28\nvalue = [4, 33]\nclass = 1", fillcolor="#51a9e8"] ;
200 -> 201 ;
202 [label="gini = 0.153\nsamples = 27\nvalue = [3, 33]\nclass = 1", fillcolor="#4ba6e7"] ;
201 -> 202 ;
203 [label="gini = 0.0\nsamples = 1\nvalue = [1, 0]\nclass = 0", fillcolor="#e58139"] ;
201 -> 203 ;
204 [label="wbc_mean <= -0.81\ngini = 0.5\nsamples = 108\nvalue = [89, 89]\nclass = 0", fillcolor="#ffffff"] ;
200 -> 204 ;
205 [label="gini = 0.0\nsamples = 6\nvalue = [0, 12]\nclass = 1", fillcolor="#399de5"] ;
204 -> 205 ;
206 [label="gini = 0.497\nsamples = 102\nvalue = [89, 77]\nclass = 0", fillcolor="#fbeee4"] ;
204 -> 206 ;
207 [label="spo2_min <= 0.268\ngini = 0.285\nsamples = 77\nvalue = [22, 106]\nclass = 1", fillcolor="#62b1ea"] ;
191 -> 207 ;
208 [label="wbc_mean <= -0.511\ngini = 0.126\nsamples = 42\nvalue = [5, 69]\nclass = 1", fillcolor="#47a4e7"] ;
207 -> 208 ;
209 [label="calcium_min.1 <= -1.009\ngini = 0.355\nsamples = 8\nvalue = [3, 10]\nclass = 1", fillcolor="#74baed"] ;
208 -> 209 ;
210 [label="gini = 0.5\nsamples = 5\nvalue = [3, 3]\nclass = 0", fillcolor="#ffffff"] ;
209 -> 210 ;
211 [label="gini = 0.0\nsamples = 3\nvalue = [0, 7]\nclass = 1", fillcolor="#399de5"] ;
209 -> 211 ;
212 [label="admission_age <= -1.298\ngini = 0.063\nsamples = 34\nvalue = [2, 59]\nclass = 1", fillcolor="#40a0e6"] ;
208 -> 212 ;
213 [label="gini = 0.0\nsamples = 31\nvalue = [0, 58]\nclass = 1", fillcolor="#399de5"] ;
212 -> 213 ;
214 [label="gini = 0.444\nsamples = 3\nvalue = [2, 1]\nclass = 0", fillcolor="#f2c09c"] ;
212 -> 214 ;
215 [label="inr_min <= -0.631\ngini = 0.431\nsamples = 35\nvalue = [17, 37]\nclass = 1", fillcolor="#94caf1"] ;
207 -> 215 ;
216 [label="glucose_max <= 2.821\ngini = 0.32\nsamples = 2\nvalue = [4, 1]\nclass = 0", fillcolor="#eca06a"] ;
215 -> 216 ;
217 [label="gini = 0.0\nsamples = 1\nvalue = [0, 1]\nclass = 1", fillcolor="#399de5"] ;
216 -> 217 ;
218 [label="gini = 0.0\nsamples = 1\nvalue = [4, 0]\nclass = 0", fillcolor="#e58139"] ;
216 -> 218 ;
219 [label="mbp_min <= 0.965\ngini = 0.39\nsamples = 33\nvalue = [13, 36]\nclass = 1", fillcolor="#80c0ee"] ;
215 -> 219 ;
220 [label="gini = 0.475\nsamples = 21\nvalue = [12, 19]\nclass = 1", fillcolor="#b6dbf5"] ;
219 -> 220 ;
221 [label="gini = 0.105\nsamples = 12\nvalue = [1, 17]\nclass = 1", fillcolor="#45a3e7"] ;
219 -> 221 ;
222 [label="sbp_min <= 0.206\ngini = 0.394\nsamples = 4101\nvalue = [1744, 4716]\nclass = 1", fillcolor="#82c1ef"] ;
190 -> 222 ;
223 [label="pco2_max <= -0.138\ngini = 0.351\nsamples = 2453\nvalue = [866, 2955]\nclass = 1", fillcolor="#73baed"] ;
222 -> 223 ;
224 [label="weight_admit <= -0.887\ngini = 0.282\nsamples = 1055\nvalue = [279, 1364]\nclass = 1", fillcolor="#61b1ea"] ;
223 -> 224 ;
225 [label="bun_mean <= -0.443\ngini = 0.431\nsamples = 187\nvalue = [92, 201]\nclass = 1", fillcolor="#94caf1"] ;
224 -> 225 ;
226 [label="gini = 0.497\nsamples = 54\nvalue = [42, 36]\nclass = 0", fillcolor="#fbede3"] ;
225 -> 226 ;
227 [label="gini = 0.357\nsamples = 133\nvalue = [50, 165]\nclass = 1", fillcolor="#75bbed"] ;
225 -> 227 ;
228 [label="weight_admit <= 0.546\ngini = 0.239\nsamples = 868\nvalue = [187, 1163]\nclass = 1", fillcolor="#59ade9"] ;
224 -> 228 ;
229 [label="gini = 0.267\nsamples = 673\nvalue = [166, 882]\nclass = 1", fillcolor="#5eafea"] ;
228 -> 229 ;
230 [label="gini = 0.129\nsamples = 195\nvalue = [21, 281]\nclass = 1", fillcolor="#48a4e7"] ;
228 -> 230 ;
231 [label="wbc_mean <= -0.031\ngini = 0.394\nsamples = 1398\nvalue = [587, 1591]\nclass = 1", fillcolor="#82c1ef"] ;
223 -> 231 ;
232 [label="pco2_max <= -0.052\ngini = 0.429\nsamples = 846\nvalue = [404, 894]\nclass = 1", fillcolor="#92c9f1"] ;
231 -> 232 ;
233 [label="gini = 0.457\nsamples = 618\nvalue = [339, 622]\nclass = 1", fillcolor="#a5d2f3"] ;
232 -> 233 ;
234 [label="gini = 0.311\nsamples = 228\nvalue = [65, 272]\nclass = 1", fillcolor="#68b4eb"] ;
232 -> 234 ;
235 [label="glucose_mean <= -0.784\ngini = 0.329\nsamples = 552\nvalue = [183, 697]\nclass = 1", fillcolor="#6db7ec"] ;
231 -> 235 ;
236 [label="gini = 0.495\nsamples = 64\nvalue = [46, 56]\nclass = 1", fillcolor="#dceefa"] ;
235 -> 236 ;
237 [label="gini = 0.29\nsamples = 488\nvalue = [137, 641]\nclass = 1", fillcolor="#63b2eb"] ;
235 -> 237 ;
238 [label="pco2_max <= -0.138\ngini = 0.444\nsamples = 1648\nvalue = [878, 1761]\nclass = 1", fillcolor="#9ccef2"] ;
222 -> 238 ;
239 [label="gcs_verbal <= -0.308\ngini = 0.37\nsamples = 577\nvalue = [223, 688]\nclass = 1", fillcolor="#79bded"] ;
238 -> 239 ;
240 [label="dbp_min <= 1.37\ngini = 0.238\nsamples = 182\nvalue = [41, 256]\nclass = 1", fillcolor="#59ade9"] ;
239 -> 240 ;
241 [label="gini = 0.179\nsamples = 155\nvalue = [25, 227]\nclass = 1", fillcolor="#4fa8e8"] ;
240 -> 241 ;
242 [label="gini = 0.458\nsamples = 27\nvalue = [16, 29]\nclass = 1", fillcolor="#a6d3f3"] ;
240 -> 242 ;
243 [label="resp_rate_max <= 0.257\ngini = 0.417\nsamples = 395\nvalue = [182, 432]\nclass = 1", fillcolor="#8cc6f0"] ;
239 -> 243 ;
244 [label="gini = 0.45\nsamples = 238\nvalue = [126, 243]\nclass = 1", fillcolor="#a0d0f2"] ;
243 -> 244 ;
245 [label="gini = 0.353\nsamples = 157\nvalue = [56, 189]\nclass = 1", fillcolor="#74baed"] ;
243 -> 245 ;
246 [label="weight_admit <= -0.439\ngini = 0.471\nsamples = 1071\nvalue = [655, 1073]\nclass = 1", fillcolor="#b2d9f5"] ;
238 -> 246 ;
247 [label="heart_rate_min <= -0.193\ngini = 0.497\nsamples = 377\nvalue = [285, 334]\nclass = 1", fillcolor="#e2f1fb"] ;
246 -> 247 ;
248 [label="gini = 0.498\nsamples = 187\nvalue = [163, 142]\nclass = 0", fillcolor="#fcefe5"] ;
247 -> 248 ;
249 [label="gini = 0.475\nsamples = 190\nvalue = [122, 192]\nclass = 1", fillcolor="#b7dbf6"] ;
247 -> 249 ;
250 [label="ph_max <= 0.308\ngini = 0.445\nsamples = 694\nvalue = [370, 739]\nclass = 1", fillcolor="#9ccef2"] ;
246 -> 250 ;
251 [label="gini = 0.459\nsamples = 634\nvalue = [359, 647]\nclass = 1", fillcolor="#a7d3f3"] ;
250 -> 251 ;
252 [label="gini = 0.191\nsamples = 60\nvalue = [11, 92]\nclass = 1", fillcolor="#51a9e8"] ;
250 -> 252 ;
}