digraph Tree {
node [shape=box, style="filled, rounded", color="black", fontname="helvetica"] ;
edge [fontname="helvetica"] ;
0 [label="baseexcess_min <= 0.073\ngini = 0.421\nsamples = 21230\nvalue = [10101, 23389]\nclass = 1", fillcolor="#8fc7f0"] ;
1 [label="ptt_max <= -0.267\ngini = 0.344\nsamples = 7409\nvalue = [2590, 9162]\nclass = 1", fillcolor="#71b9ec"] ;
0 -> 1 [labeldistance=2.5, labelangle=45, headlabel="True"] ;
2 [label="admission_age <= -1.577\ngini = 0.403\nsamples = 3900\nvalue = [1724, 4438]\nclass = 1", fillcolor="#86c3ef"] ;
1 -> 2 ;
3 [label="gcs_verbal <= -1.235\ngini = 0.5\nsamples = 450\nvalue = [363, 360]\nclass = 0", fillcolor="#fffefd"] ;
2 -> 3 ;
4 [label="mbp_max <= -0.625\ngini = 0.425\nsamples = 165\nvalue = [88, 199]\nclass = 1", fillcolor="#91c8f0"] ;
3 -> 4 ;
5 [label="bun_mean <= -0.676\ngini = 0.48\nsamples = 21\nvalue = [18, 12]\nclass = 0", fillcolor="#f6d5bd"] ;
4 -> 5 ;
6 [label="glucose_min <= -0.984\ngini = 0.142\nsamples = 7\nvalue = [12, 1]\nclass = 0", fillcolor="#e78c49"] ;
5 -> 6 ;
7 [label="gini = 0.0\nsamples = 1\nvalue = [0, 1]\nclass = 1", fillcolor="#399de5"] ;
6 -> 7 ;
8 [label="gini = 0.0\nsamples = 6\nvalue = [12, 0]\nclass = 0", fillcolor="#e58139"] ;
6 -> 8 ;
9 [label="heart_rate_mean <= -0.223\ngini = 0.457\nsamples = 14\nvalue = [6, 11]\nclass = 1", fillcolor="#a5d2f3"] ;
5 -> 9 ;
10 [label="gini = 0.0\nsamples = 5\nvalue = [0, 8]\nclass = 1", fillcolor="#399de5"] ;
9 -> 10 ;
11 [label="gini = 0.444\nsamples = 9\nvalue = [6, 3]\nclass = 0", fillcolor="#f2c09c"] ;
9 -> 11 ;
12 [label="dbp_mean <= 1.191\ngini = 0.396\nsamples = 144\nvalue = [70, 187]\nclass = 1", fillcolor="#83c2ef"] ;
4 -> 12 ;
13 [label="sbp_max <= -0.512\ngini = 0.339\nsamples = 120\nvalue = [46, 167]\nclass = 1", fillcolor="#70b8ec"] ;
12 -> 13 ;
14 [label="gini = 0.485\nsamples = 31\nvalue = [24, 34]\nclass = 1", fillcolor="#c5e2f7"] ;
13 -> 14 ;
15 [label="gini = 0.244\nsamples = 89\nvalue = [22, 133]\nclass = 1", fillcolor="#5aade9"] ;
13 -> 15 ;
16 [label="spo2_min <= 0.12\ngini = 0.496\nsamples = 24\nvalue = [24, 20]\nclass = 0", fillcolor="#fbeade"] ;
12 -> 16 ;
17 [label="gini = 0.198\nsamples = 5\nvalue = [1, 8]\nclass = 1", fillcolor="#52a9e8"] ;
16 -> 17 ;
18 [label="gini = 0.451\nsamples = 19\nvalue = [23, 12]\nclass = 0", fillcolor="#f3c3a0"] ;
16 -> 18 ;
19 [label="pco2_max <= 0.716\ngini = 0.466\nsamples = 285\nvalue = [275, 161]\nclass = 0", fillcolor="#f4cbad"] ;
3 -> 19 ;
20 [label="mbp_max <= 0.081\ngini = 0.436\nsamples = 255\nvalue = [264, 125]\nclass = 0", fillcolor="#f1bd97"] ;
19 -> 20 ;
21 [label="admission_age <= -2.42\ngini = 0.348\nsamples = 175\nvalue = [207, 60]\nclass = 0", fillcolor="#eda672"] ;
20 -> 21 ;
22 [label="gini = 0.172\nsamples = 59\nvalue = [86, 9]\nclass = 0", fillcolor="#e88e4e"] ;
21 -> 22 ;
23 [label="gini = 0.417\nsamples = 116\nvalue = [121, 51]\nclass = 0", fillcolor="#f0b68c"] ;
21 -> 23 ;
24 [label="spo2_min <= 0.566\ngini = 0.498\nsamples = 80\nvalue = [57, 65]\nclass = 1", fillcolor="#e7f3fc"] ;
20 -> 24 ;
25 [label="gini = 0.435\nsamples = 48\nvalue = [23, 49]\nclass = 1", fillcolor="#96cbf1"] ;
24 -> 25 ;
26 [label="gini = 0.435\nsamples = 32\nvalue = [34, 16]\nclass = 0", fillcolor="#f1bc96"] ;
24 -> 26 ;
27 [label="abs_basophils_mean <= 0.599\ngini = 0.359\nsamples = 30\nvalue = [11, 36]\nclass = 1", fillcolor="#76bbed"] ;
19 -> 27 ;
28 [label="potassium_max.1 <= -0.751\ngini = 0.214\nsamples = 27\nvalue = [5, 36]\nclass = 1", fillcolor="#54abe9"] ;
27 -> 28 ;
29 [label="gini = 0.0\nsamples = 1\nvalue = [2, 0]\nclass = 0", fillcolor="#e58139"] ;
28 -> 29 ;
30 [label="gini = 0.142\nsamples = 26\nvalue = [3, 36]\nclass = 1", fillcolor="#49a5e7"] ;
28 -> 30 ;
31 [label="gini = 0.0\nsamples = 3\nvalue = [6, 0]\nclass = 0", fillcolor="#e58139"] ;
27 -> 31 ;
32 [label="mbp_min <= -0.003\ngini = 0.375\nsamples = 3450\nvalue = [1361, 4078]\nclass = 1", fillcolor="#7bbeee"] ;
2 -> 32 ;
33 [label="heart_rate_mean <= 2.701\ngini = 0.32\nsamples = 1893\nvalue = [594, 2380]\nclass = 1", fillcolor="#6ab5eb"] ;
32 -> 33 ;
34 [label="ph_min <= 0.058\ngini = 0.315\nsamples = 1874\nvalue = [574, 2361]\nclass = 1", fillcolor="#69b5eb"] ;
33 -> 34 ;
35 [label="pco2_max <= -1.419\ngini = 0.288\nsamples = 1398\nvalue = [381, 1802]\nclass = 1", fillcolor="#63b2ea"] ;
34 -> 35 ;
36 [label="gini = 0.5\nsamples = 26\nvalue = [20, 19]\nclass = 0", fillcolor="#fef9f5"] ;
35 -> 36 ;
37 [label="gini = 0.28\nsamples = 1372\nvalue = [361, 1783]\nclass = 1", fillcolor="#61b1ea"] ;
35 -> 37 ;
38 [label="ptt_max <= -0.721\ngini = 0.382\nsamples = 476\nvalue = [193, 559]\nclass = 1", fillcolor="#7dbfee"] ;
34 -> 38 ;
39 [label="gini = 0.0\nsamples = 3\nvalue = [4, 0]\nclass = 0", fillcolor="#e58139"] ;
38 -> 39 ;
40 [label="gini = 0.378\nsamples = 473\nvalue = [189, 559]\nclass = 1", fillcolor="#7cbeee"] ;
38 -> 40 ;
41 [label="wbc_mean <= -0.586\ngini = 0.5\nsamples = 19\nvalue = [20, 19]\nclass = 0", fillcolor="#fef9f5"] ;
33 -> 41 ;
42 [label="gini = 0.0\nsamples = 4\nvalue = [0, 10]\nclass = 1", fillcolor="#399de5"] ;
41 -> 42 ;
43 [label="resp_rate_max <= 1.344\ngini = 0.428\nsamples = 15\nvalue = [20, 9]\nclass = 0", fillcolor="#f1ba92"] ;
41 -> 43 ;
44 [label="gini = 0.165\nsamples = 11\nvalue = [20, 2]\nclass = 0", fillcolor="#e88e4d"] ;
43 -> 44 ;
45 [label="gini = 0.0\nsamples = 4\nvalue = [0, 7]\nclass = 1", fillcolor="#399de5"] ;
43 -> 45 ;
46 [label="po2_max <= -1.37\ngini = 0.429\nsamples = 1557\nvalue = [767, 1698]\nclass = 1", fillcolor="#92c9f1"] ;
32 -> 46 ;
47 [label="calcium_min.1 <= 0.265\ngini = 0.49\nsamples = 45\nvalue = [41, 31]\nclass = 0", fillcolor="#f9e0cf"] ;
46 -> 47 ;
48 [label="sbp_mean <= -0.399\ngini = 0.496\nsamples = 36\nvalue = [25, 30]\nclass = 1", fillcolor="#deeffb"] ;
47 -> 48 ;
49 [label="gini = 0.219\nsamples = 15\nvalue = [3, 21]\nclass = 1", fillcolor="#55abe9"] ;
48 -> 49 ;
50 [label="gini = 0.412\nsamples = 21\nvalue = [22, 9]\nclass = 0", fillcolor="#f0b58a"] ;
48 -> 50 ;
51 [label="baseexcess_max <= -1.548\ngini = 0.111\nsamples = 9\nvalue = [16, 1]\nclass = 0", fillcolor="#e78945"] ;
47 -> 51 ;
52 [label="gini = 0.0\nsamples = 1\nvalue = [0, 1]\nclass = 1", fillcolor="#399de5"] ;
51 -> 52 ;
53 [label="gini = 0.0\nsamples = 8\nvalue = [16, 0]\nclass = 0", fillcolor="#e58139"] ;
51 -> 53 ;
54 [label="gcs_verbal <= -1.235\ngini = 0.423\nsamples = 1512\nvalue = [726, 1667]\nclass = 1", fillcolor="#8fc8f0"] ;
46 -> 54 ;
55 [label="temperature_max <= -0.392\ngini = 0.329\nsamples = 538\nvalue = [172, 658]\nclass = 1", fillcolor="#6db7ec"] ;
54 -> 55 ;
56 [label="gini = 0.444\nsamples = 118\nvalue = [61, 122]\nclass = 1", fillcolor="#9ccef2"] ;
55 -> 56 ;
57 [label="gini = 0.284\nsamples = 420\nvalue = [111, 536]\nclass = 1", fillcolor="#62b1ea"] ;
55 -> 57 ;
58 [label="spo2_mean <= 0.474\ngini = 0.458\nsamples = 974\nvalue = [554, 1009]\nclass = 1", fillcolor="#a6d3f3"] ;
54 -> 58 ;
59 [label="gini = 0.42\nsamples = 684\nvalue = [336, 782]\nclass = 1", fillcolor="#8ec7f0"] ;
58 -> 59 ;
60 [label="gini = 0.5\nsamples = 290\nvalue = [218, 227]\nclass = 1", fillcolor="#f7fbfe"] ;
58 -> 60 ;
61 [label="spo2_max <= -6.597\ngini = 0.262\nsamples = 3509\nvalue = [866, 4724]\nclass = 1", fillcolor="#5dafea"] ;
1 -> 61 ;
62 [label="sbp_min <= -1.903\ngini = 0.32\nsamples = 19\nvalue = [24, 6]\nclass = 0", fillcolor="#eca06a"] ;
61 -> 62 ;
63 [label="ph_max <= -0.782\ngini = 0.091\nsamples = 13\nvalue = [20, 1]\nclass = 0", fillcolor="#e68743"] ;
62 -> 63 ;
64 [label="gini = 0.0\nsamples = 12\nvalue = [20, 0]\nclass = 0", fillcolor="#e58139"] ;
63 -> 64 ;
65 [label="gini = 0.0\nsamples = 1\nvalue = [0, 1]\nclass = 1", fillcolor="#399de5"] ;
63 -> 65 ;
66 [label="glucose_max <= 0.552\ngini = 0.494\nsamples = 6\nvalue = [4, 5]\nclass = 1", fillcolor="#d7ebfa"] ;
62 -> 66 ;
67 [label="gini = 0.0\nsamples = 4\nvalue = [0, 5]\nclass = 1", fillcolor="#399de5"] ;
66 -> 67 ;
68 [label="gini = 0.0\nsamples = 2\nvalue = [4, 0]\nclass = 0", fillcolor="#e58139"] ;
66 -> 68 ;
69 [label="aniongap_min <= 0.147\ngini = 0.257\nsamples = 3490\nvalue = [842, 4718]\nclass = 1", fillcolor="#5caeea"] ;
61 -> 69 ;
70 [label="potassium_max.1 <= 0.563\ngini = 0.299\nsamples = 1979\nvalue = [578, 2586]\nclass = 1", fillcolor="#65b3eb"] ;
69 -> 70 ;
71 [label="gcs_verbal <= 0.618\ngini = 0.336\nsamples = 1474\nvalue = [507, 1865]\nclass = 1", fillcolor="#6fb8ec"] ;
70 -> 71 ;
72 [label="ptt_max <= 0.058\ngini = 0.284\nsamples = 1022\nvalue = [285, 1377]\nclass = 1", fillcolor="#62b1ea"] ;
71 -> 72 ;
73 [label="gini = 0.354\nsamples = 479\nvalue = [183, 614]\nclass = 1", fillcolor="#74baed"] ;
72 -> 73 ;
74 [label="gini = 0.208\nsamples = 543\nvalue = [102, 763]\nclass = 1", fillcolor="#53aae8"] ;
72 -> 74 ;
75 [label="temperature_max <= -1.331\ngini = 0.43\nsamples = 452\nvalue = [222, 488]\nclass = 1", fillcolor="#93caf1"] ;
71 -> 75 ;
76 [label="gini = 0.117\nsamples = 18\nvalue = [2, 30]\nclass = 1", fillcolor="#46a4e7"] ;
75 -> 76 ;
77 [label="gini = 0.438\nsamples = 434\nvalue = [220, 458]\nclass = 1", fillcolor="#98ccf1"] ;
75 -> 77 ;
78 [label="sbp_mean <= -0.576\ngini = 0.163\nsamples = 505\nvalue = [71, 721]\nclass = 1", fillcolor="#4ca7e8"] ;
70 -> 78 ;
79 [label="admission_age <= -2.306\ngini = 0.065\nsamples = 215\nvalue = [11, 317]\nclass = 1", fillcolor="#40a0e6"] ;
78 -> 79 ;
80 [label="gini = 0.444\nsamples = 3\nvalue = [2, 1]\nclass = 0", fillcolor="#f2c09c"] ;
79 -> 80 ;
81 [label="gini = 0.054\nsamples = 212\nvalue = [9, 316]\nclass = 1", fillcolor="#3fa0e6"] ;
79 -> 81 ;
82 [label="po2_min <= 1.136\ngini = 0.225\nsamples = 290\nvalue = [60, 404]\nclass = 1", fillcolor="#56ace9"] ;
78 -> 82 ;
83 [label="gini = 0.194\nsamples = 275\nvalue = [48, 393]\nclass = 1", fillcolor="#51a9e8"] ;
82 -> 83 ;
84 [label="gini = 0.499\nsamples = 15\nvalue = [12, 11]\nclass = 0", fillcolor="#fdf5ef"] ;
82 -> 84 ;
85 [label="po2_min <= 2.313\ngini = 0.196\nsamples = 1511\nvalue = [264, 2132]\nclass = 1", fillcolor="#52a9e8"] ;
69 -> 85 ;
86 [label="ph_min <= -4.479\ngini = 0.187\nsamples = 1495\nvalue = [248, 2123]\nclass = 1", fillcolor="#50a8e8"] ;
85 -> 86 ;
87 [label="glucose_min <= 3.369\ngini = 0.409\nsamples = 63\nvalue = [27, 67]\nclass = 1", fillcolor="#89c4ef"] ;
86 -> 87 ;
88 [label="gini = 0.31\nsamples = 50\nvalue = [14, 59]\nclass = 1", fillcolor="#68b4eb"] ;
87 -> 88 ;
89 [label="gini = 0.472\nsamples = 13\nvalue = [13, 8]\nclass = 0", fillcolor="#f5cfb3"] ;
87 -> 89 ;
90 [label="temperature_min <= -9.419\ngini = 0.175\nsamples = 1432\nvalue = [221, 2056]\nclass = 1", fillcolor="#4ea8e8"] ;
86 -> 90 ;
91 [label="gini = 0.0\nsamples = 1\nvalue = [2, 0]\nclass = 0", fillcolor="#e58139"] ;
90 -> 91 ;
92 [label="gini = 0.174\nsamples = 1431\nvalue = [219, 2056]\nclass = 1", fillcolor="#4ea7e8"] ;
90 -> 92 ;
93 [label="spo2_min <= -0.178\ngini = 0.461\nsamples = 16\nvalue = [16, 9]\nclass = 0", fillcolor="#f4c8a8"] ;
85 -> 93 ;
94 [label="gini = 0.0\nsamples = 5\nvalue = [10, 0]\nclass = 0", fillcolor="#e58139"] ;
93 -> 94 ;
95 [label="glucose_min.2 <= 2.174\ngini = 0.48\nsamples = 11\nvalue = [6, 9]\nclass = 1", fillcolor="#bddef6"] ;
93 -> 95 ;
96 [label="gini = 0.0\nsamples = 7\nvalue = [0, 9]\nclass = 1", fillcolor="#399de5"] ;
95 -> 96 ;
97 [label="gini = 0.0\nsamples = 4\nvalue = [6, 0]\nclass = 0", fillcolor="#e58139"] ;
95 -> 97 ;
98 [label="bun_mean <= -0.37\ngini = 0.452\nsamples = 13821\nvalue = [7511, 14227]\nclass = 1", fillcolor="#a2d1f3"] ;
0 -> 98 [labeldistance=2.5, labelangle=-45, headlabel="False"] ;
99 [label="temperature_max <= 0.04\ngini = 0.489\nsamples = 6857\nvalue = [4593, 6165]\nclass = 1", fillcolor="#cde6f8"] ;
98 -> 99 ;
100 [label="ph_max <= 0.152\ngini = 0.498\nsamples = 4140\nvalue = [3037, 3390]\nclass = 1", fillcolor="#eaf5fc"] ;
99 -> 100 ;
101 [label="weight_admit <= -0.388\ngini = 0.5\nsamples = 2876\nvalue = [2310, 2171]\nclass = 0", fillcolor="#fdf7f3"] ;
100 -> 101 ;
102 [label="admission_age <= -0.843\ngini = 0.471\nsamples = 1136\nvalue = [1107, 677]\nclass = 0", fillcolor="#f5ceb2"] ;
101 -> 102 ;
103 [label="ptt_max <= 0.104\ngini = 0.336\nsamples = 326\nvalue = [376, 102]\nclass = 0", fillcolor="#eca36f"] ;
102 -> 103 ;
104 [label="gini = 0.31\nsamples = 294\nvalue = [350, 83]\nclass = 0", fillcolor="#eb9f68"] ;
103 -> 104 ;
105 [label="gini = 0.488\nsamples = 32\nvalue = [26, 19]\nclass = 0", fillcolor="#f8ddca"] ;
103 -> 105 ;
106 [label="wbc_mean <= 0.437\ngini = 0.493\nsamples = 810\nvalue = [731, 575]\nclass = 0", fillcolor="#f9e4d5"] ;
102 -> 106 ;
107 [label="gini = 0.488\nsamples = 763\nvalue = [709, 522]\nclass = 0", fillcolor="#f8decb"] ;
106 -> 107 ;
108 [label="gini = 0.415\nsamples = 47\nvalue = [22, 53]\nclass = 1", fillcolor="#8bc6f0"] ;
106 -> 108 ;
109 [label="admission_age <= -0.085\ngini = 0.494\nsamples = 1740\nvalue = [1203, 1494]\nclass = 1", fillcolor="#d8ecfa"] ;
101 -> 109 ;
110 [label="weight_admit <= 1.756\ngini = 0.499\nsamples = 1077\nvalue = [888, 817]\nclass = 0", fillcolor="#fdf5ef"] ;
109 -> 110 ;
111 [label="gini = 0.495\nsamples = 961\nvalue = [835, 689]\nclass = 0", fillcolor="#fae9dc"] ;
110 -> 111 ;
112 [label="gini = 0.414\nsamples = 116\nvalue = [53, 128]\nclass = 1", fillcolor="#8bc6f0"] ;
110 -> 112 ;
113 [label="mbp_min <= 0.162\ngini = 0.433\nsamples = 663\nvalue = [315, 677]\nclass = 1", fillcolor="#95cbf1"] ;
109 -> 113 ;
114 [label="gini = 0.348\nsamples = 304\nvalue = [100, 346]\nclass = 1", fillcolor="#72b9ed"] ;
113 -> 114 ;
115 [label="gini = 0.477\nsamples = 359\nvalue = [215, 331]\nclass = 1", fillcolor="#baddf6"] ;
113 -> 115 ;
116 [label="admission_age <= -0.414\ngini = 0.468\nsamples = 1264\nvalue = [727, 1219]\nclass = 1", fillcolor="#afd7f5"] ;
100 -> 116 ;
117 [label="spo2_min <= 0.12\ngini = 0.5\nsamples = 412\nvalue = [321, 307]\nclass = 0", fillcolor="#fefaf6"] ;
116 -> 117 ;
118 [label="potassium_max.1 <= -0.273\ngini = 0.457\nsamples = 131\nvalue = [65, 119]\nclass = 1", fillcolor="#a5d3f3"] ;
117 -> 118 ;
119 [label="gini = 0.489\nsamples = 84\nvalue = [53, 71]\nclass = 1", fillcolor="#cde6f8"] ;
118 -> 119 ;
120 [label="gini = 0.32\nsamples = 47\nvalue = [12, 48]\nclass = 1", fillcolor="#6ab6ec"] ;
118 -> 120 ;
121 [label="gcs_min <= -1.83\ngini = 0.488\nsamples = 281\nvalue = [256, 188]\nclass = 0", fillcolor="#f8deca"] ;
117 -> 121 ;
122 [label="gini = 0.416\nsamples = 22\nvalue = [13, 31]\nclass = 1", fillcolor="#8cc6f0"] ;
121 -> 122 ;
123 [label="gini = 0.477\nsamples = 259\nvalue = [243, 157]\nclass = 0", fillcolor="#f6d2b9"] ;
121 -> 123 ;
124 [label="dbp_min <= 0.763\ngini = 0.426\nsamples = 852\nvalue = [406, 912]\nclass = 1", fillcolor="#91c9f1"] ;
116 -> 124 ;
125 [label="weight_admit <= -0.003\ngini = 0.408\nsamples = 765\nvalue = [339, 849]\nclass = 1", fillcolor="#88c4ef"] ;
124 -> 125 ;
126 [label="gini = 0.454\nsamples = 492\nvalue = [267, 501]\nclass = 1", fillcolor="#a3d1f3"] ;
125 -> 126 ;
127 [label="gini = 0.284\nsamples = 273\nvalue = [72, 348]\nclass = 1", fillcolor="#62b1ea"] ;
125 -> 127 ;
128 [label="spo2_mean <= -1.144\ngini = 0.5\nsamples = 87\nvalue = [67, 63]\nclass = 0", fillcolor="#fdf7f3"] ;
124 -> 128 ;
129 [label="gini = 0.278\nsamples = 15\nvalue = [3, 15]\nclass = 1", fillcolor="#61b1ea"] ;
128 -> 129 ;
130 [label="gini = 0.49\nsamples = 72\nvalue = [64, 48]\nclass = 0", fillcolor="#f8e0ce"] ;
128 -> 130 ;
131 [label="po2_min <= -0.182\ngini = 0.46\nsamples = 2717\nvalue = [1556, 2775]\nclass = 1", fillcolor="#a8d4f4"] ;
99 -> 131 ;
132 [label="gcs_eyes <= 0.412\ngini = 0.48\nsamples = 1514\nvalue = [975, 1460]\nclass = 1", fillcolor="#bddef6"] ;
131 -> 132 ;
133 [label="temperature_min <= 0.255\ngini = 0.427\nsamples = 711\nvalue = [350, 781]\nclass = 1", fillcolor="#92c9f1"] ;
132 -> 133 ;
134 [label="sbp_max <= -1.127\ngini = 0.335\nsamples = 221\nvalue = [78, 288]\nclass = 1", fillcolor="#6fb8ec"] ;
133 -> 134 ;
135 [label="gini = 0.484\nsamples = 22\nvalue = [20, 14]\nclass = 0", fillcolor="#f7d9c4"] ;
134 -> 135 ;
136 [label="gini = 0.288\nsamples = 199\nvalue = [58, 274]\nclass = 1", fillcolor="#63b2eb"] ;
134 -> 136 ;
137 [label="platelets_mean <= 1.6\ngini = 0.458\nsamples = 490\nvalue = [272, 493]\nclass = 1", fillcolor="#a6d3f3"] ;
133 -> 137 ;
138 [label="gini = 0.466\nsamples = 459\nvalue = [267, 454]\nclass = 1", fillcolor="#add7f4"] ;
137 -> 138 ;
139 [label="gini = 0.201\nsamples = 31\nvalue = [5, 39]\nclass = 1", fillcolor="#52aae8"] ;
137 -> 139 ;
140 [label="weight_admit <= 0.814\ngini = 0.499\nsamples = 803\nvalue = [625, 679]\nclass = 1", fillcolor="#eff7fd"] ;
132 -> 140 ;
141 [label="baseexcess_max <= 0.042\ngini = 0.498\nsamples = 674\nvalue = [586, 511]\nclass = 0", fillcolor="#fcefe6"] ;
140 -> 141 ;
142 [label="gini = 0.487\nsamples = 525\nvalue = [497, 357]\nclass = 0", fillcolor="#f8dcc7"] ;
141 -> 142 ;
143 [label="gini = 0.464\nsamples = 149\nvalue = [89, 154]\nclass = 1", fillcolor="#abd6f4"] ;
141 -> 143 ;
144 [label="glucose_max.2 <= -0.402\ngini = 0.306\nsamples = 129\nvalue = [39, 168]\nclass = 1", fillcolor="#67b4eb"] ;
140 -> 144 ;
145 [label="gini = 0.458\nsamples = 46\nvalue = [27, 49]\nclass = 1", fillcolor="#a6d3f3"] ;
144 -> 145 ;
146 [label="gini = 0.166\nsamples = 83\nvalue = [12, 119]\nclass = 1", fillcolor="#4da7e8"] ;
144 -> 146 ;
147 [label="glucose_max.2 <= -0.18\ngini = 0.425\nsamples = 1203\nvalue = [581, 1315]\nclass = 1", fillcolor="#90c8f0"] ;
131 -> 147 ;
148 [label="pco2_max <= -0.736\ngini = 0.451\nsamples = 801\nvalue = [431, 822]\nclass = 1", fillcolor="#a1d0f3"] ;
147 -> 148 ;
149 [label="gcs_eyes <= -1.334\ngini = 0.498\nsamples = 173\nvalue = [131, 147]\nclass = 1", fillcolor="#e9f4fc"] ;
148 -> 149 ;
150 [label="gini = 0.403\nsamples = 39\nvalue = [19, 49]\nclass = 1", fillcolor="#86c3ef"] ;
149 -> 150 ;
151 [label="gini = 0.498\nsamples = 134\nvalue = [112, 98]\nclass = 0", fillcolor="#fcefe6"] ;
149 -> 151 ;
152 [label="weight_admit <= 0.767\ngini = 0.426\nsamples = 628\nvalue = [300, 675]\nclass = 1", fillcolor="#91c9f1"] ;
148 -> 152 ;
153 [label="gini = 0.46\nsamples = 517\nvalue = [286, 511]\nclass = 1", fillcolor="#a8d4f4"] ;
152 -> 153 ;
154 [label="gini = 0.145\nsamples = 111\nvalue = [14, 164]\nclass = 1", fillcolor="#4aa5e7"] ;
152 -> 154 ;
155 [label="platelets_mean <= 0.756\ngini = 0.358\nsamples = 402\nvalue = [150, 493]\nclass = 1", fillcolor="#75bbed"] ;
147 -> 155 ;
156 [label="po2_min <= 0.318\ngini = 0.384\nsamples = 322\nvalue = [134, 384]\nclass = 1", fillcolor="#7ebfee"] ;
155 -> 156 ;
157 [label="gini = 0.244\nsamples = 113\nvalue = [25, 151]\nclass = 1", fillcolor="#5aade9"] ;
156 -> 157 ;
158 [label="gini = 0.434\nsamples = 209\nvalue = [109, 233]\nclass = 1", fillcolor="#96cbf1"] ;
156 -> 158 ;
159 [label="dbp_mean <= 0.665\ngini = 0.223\nsamples = 80\nvalue = [16, 109]\nclass = 1", fillcolor="#56abe9"] ;
155 -> 159 ;
160 [label="gini = 0.101\nsamples = 54\nvalue = [5, 89]\nclass = 1", fillcolor="#44a3e6"] ;
159 -> 160 ;
161 [label="gini = 0.458\nsamples = 26\nvalue = [11, 20]\nclass = 1", fillcolor="#a6d3f3"] ;
159 -> 161 ;
162 [label="inr_min <= -0.276\ngini = 0.39\nsamples = 6964\nvalue = [2918, 8062]\nclass = 1", fillcolor="#81c0ee"] ;
98 -> 162 ;
163 [label="totalco2_min <= 0.122\ngini = 0.433\nsamples = 2731\nvalue = [1383, 2976]\nclass = 1", fillcolor="#95cbf1"] ;
162 -> 163 ;
164 [label="heart_rate_mean <= -0.292\ngini = 0.473\nsamples = 1545\nvalue = [948, 1518]\nclass = 1", fillcolor="#b5daf5"] ;
163 -> 164 ;
165 [label="abs_neutrophils_mean <= -1.253\ngini = 0.492\nsamples = 879\nvalue = [626, 807]\nclass = 1", fillcolor="#d3e9f9"] ;
164 -> 165 ;
166 [label="temperature_min <= 0.859\ngini = 0.249\nsamples = 28\nvalue = [47, 8]\nclass = 0", fillcolor="#e9965b"] ;
165 -> 166 ;
167 [label="gini = 0.174\nsamples = 27\nvalue = [47, 5]\nclass = 0", fillcolor="#e88e4e"] ;
166 -> 167 ;
168 [label="gini = 0.0\nsamples = 1\nvalue = [0, 3]\nclass = 1", fillcolor="#399de5"] ;
166 -> 168 ;
169 [label="heart_rate_min <= -1.375\ngini = 0.487\nsamples = 851\nvalue = [579, 799]\nclass = 1", fillcolor="#c8e4f8"] ;
165 -> 169 ;
170 [label="gini = 0.366\nsamples = 111\nvalue = [42, 132]\nclass = 1", fillcolor="#78bced"] ;
169 -> 170 ;
171 [label="gini = 0.494\nsamples = 740\nvalue = [537, 667]\nclass = 1", fillcolor="#d8ecfa"] ;
169 -> 171 ;
172 [label="resp_rate_max <= -0.054\ngini = 0.429\nsamples = 666\nvalue = [322, 711]\nclass = 1", fillcolor="#93c9f1"] ;
164 -> 172 ;
173 [label="temperature_max <= -0.392\ngini = 0.47\nsamples = 353\nvalue = [208, 344]\nclass = 1", fillcolor="#b1d8f5"] ;
172 -> 173 ;
174 [label="gini = 0.5\nsamples = 157\nvalue = [116, 120]\nclass = 1", fillcolor="#f8fcfe"] ;
173 -> 174 ;
175 [label="gini = 0.413\nsamples = 196\nvalue = [92, 224]\nclass = 1", fillcolor="#8ac5f0"] ;
173 -> 175 ;
176 [label="temperature_mean <= -1.723\ngini = 0.362\nsamples = 313\nvalue = [114, 367]\nclass = 1", fillcolor="#77bbed"] ;
172 -> 176 ;
177 [label="gini = 0.32\nsamples = 3\nvalue = [4, 1]\nclass = 0", fillcolor="#eca06a"] ;
176 -> 177 ;
178 [label="gini = 0.355\nsamples = 310\nvalue = [110, 366]\nclass = 1", fillcolor="#75baed"] ;
176 -> 178 ;
179 [label="weight_admit <= -0.379\ngini = 0.354\nsamples = 1186\nvalue = [435, 1458]\nclass = 1", fillcolor="#74baed"] ;
163 -> 179 ;
180 [label="aniongap_min <= 0.147\ngini = 0.428\nsamples = 430\nvalue = [216, 479]\nclass = 1", fillcolor="#92c9f1"] ;
179 -> 180 ;
181 [label="ptt_max <= -0.32\ngini = 0.471\nsamples = 261\nvalue = [157, 256]\nclass = 1", fillcolor="#b2d9f5"] ;
180 -> 181 ;
182 [label="gini = 0.494\nsamples = 185\nvalue = [133, 165]\nclass = 1", fillcolor="#d9ecfa"] ;
181 -> 182 ;
183 [label="gini = 0.33\nsamples = 76\nvalue = [24, 91]\nclass = 1", fillcolor="#6db7ec"] ;
181 -> 183 ;
184 [label="abs_monocytes_mean <= 1.267\ngini = 0.331\nsamples = 169\nvalue = [59, 223]\nclass = 1", fillcolor="#6db7ec"] ;
180 -> 184 ;
185 [label="gini = 0.314\nsamples = 167\nvalue = [54, 223]\nclass = 1", fillcolor="#69b5eb"] ;
184 -> 185 ;
186 [label="gini = 0.0\nsamples = 2\nvalue = [5, 0]\nclass = 0", fillcolor="#e58139"] ;
184 -> 186 ;
187 [label="totalco2_max <= 0.468\ngini = 0.299\nsamples = 756\nvalue = [219, 979]\nclass = 1", fillcolor="#65b3eb"] ;
179 -> 187 ;
188 [label="ptt_min <= -0.388\ngini = 0.387\nsamples = 333\nvalue = [135, 380]\nclass = 1", fillcolor="#7fc0ee"] ;
187 -> 188 ;
189 [label="gini = 0.458\nsamples = 159\nvalue = [87, 158]\nclass = 1", fillcolor="#a6d3f3"] ;
188 -> 189 ;
190 [label="gini = 0.292\nsamples = 174\nvalue = [48, 222]\nclass = 1", fillcolor="#64b2eb"] ;
188 -> 190 ;
191 [label="mbp_min <= 0.892\ngini = 0.216\nsamples = 423\nvalue = [84, 599]\nclass = 1", fillcolor="#55abe9"] ;
187 -> 191 ;
192 [label="gini = 0.182\nsamples = 364\nvalue = [60, 532]\nclass = 1", fillcolor="#4fa8e8"] ;
191 -> 192 ;
193 [label="gini = 0.388\nsamples = 59\nvalue = [24, 67]\nclass = 1", fillcolor="#80c0ee"] ;
191 -> 193 ;
194 [label="dbp_min <= 1.262\ngini = 0.356\nsamples = 4233\nvalue = [1535, 5086]\nclass = 1", fillcolor="#75bbed"] ;
162 -> 194 ;
195 [label="po2_min <= -0.199\ngini = 0.341\nsamples = 3887\nvalue = [1321, 4749]\nclass = 1", fillcolor="#70b8ec"] ;
194 -> 195 ;
196 [label="spo2_max <= -4.392\ngini = 0.247\nsamples = 1327\nvalue = [295, 1750]\nclass = 1", fillcolor="#5aaee9"] ;
195 -> 196 ;
197 [label="glucose_min.2 <= 0.397\ngini = 0.401\nsamples = 10\nvalue = [13, 5]\nclass = 0", fillcolor="#efb185"] ;
196 -> 197 ;
198 [label="gini = 0.0\nsamples = 4\nvalue = [9, 0]\nclass = 0", fillcolor="#e58139"] ;
197 -> 198 ;
199 [label="gini = 0.494\nsamples = 6\nvalue = [4, 5]\nclass = 1", fillcolor="#d7ebfa"] ;
197 -> 199 ;
200 [label="sbp_min <= -0.372\ngini = 0.24\nsamples = 1317\nvalue = [282, 1745]\nclass = 1", fillcolor="#59ade9"] ;
196 -> 200 ;
201 [label="gini = 0.117\nsamples = 546\nvalue = [52, 782]\nclass = 1", fillcolor="#46a4e7"] ;
200 -> 201 ;
202 [label="gini = 0.311\nsamples = 771\nvalue = [230, 963]\nclass = 1", fillcolor="#68b4eb"] ;
200 -> 202 ;
203 [label="mbp_min <= 0.18\ngini = 0.38\nsamples = 2560\nvalue = [1026, 2999]\nclass = 1", fillcolor="#7dbfee"] ;
195 -> 203 ;
204 [label="baseexcess_min <= 0.276\ngini = 0.353\nsamples = 1742\nvalue = [623, 2103]\nclass = 1", fillcolor="#74baed"] ;
203 -> 204 ;
205 [label="gini = 0.403\nsamples = 1128\nvalue = [492, 1270]\nclass = 1", fillcolor="#86c3ef"] ;
204 -> 205 ;
206 [label="gini = 0.235\nsamples = 614\nvalue = [131, 833]\nclass = 1", fillcolor="#58ace9"] ;
204 -> 206 ;
207 [label="heart_rate_mean <= 0.223\ngini = 0.428\nsamples = 818\nvalue = [403, 896]\nclass = 1", fillcolor="#92c9f1"] ;
203 -> 207 ;
208 [label="gini = 0.46\nsamples = 515\nvalue = [297, 532]\nclass = 1", fillcolor="#a8d4f4"] ;
207 -> 208 ;
209 [label="gini = 0.349\nsamples = 303\nvalue = [106, 364]\nclass = 1", fillcolor="#73baed"] ;
207 -> 209 ;
210 [label="spo2_min <= -0.029\ngini = 0.475\nsamples = 346\nvalue = [214, 337]\nclass = 1", fillcolor="#b7dbf6"] ;
194 -> 210 ;
211 [label="baseexcess_min <= 2.507\ngini = 0.365\nsamples = 136\nvalue = [51, 161]\nclass = 1", fillcolor="#78bced"] ;
210 -> 211 ;
212 [label="glucose_mean <= 0.226\ngini = 0.337\nsamples = 133\nvalue = [44, 161]\nclass = 1", fillcolor="#6fb8ec"] ;
211 -> 212 ;
213 [label="gini = 0.412\nsamples = 93\nvalue = [40, 98]\nclass = 1", fillcolor="#8ac5f0"] ;
212 -> 213 ;
214 [label="gini = 0.112\nsamples = 40\nvalue = [4, 63]\nclass = 1", fillcolor="#46a3e7"] ;
212 -> 214 ;
215 [label="gini = 0.0\nsamples = 3\nvalue = [7, 0]\nclass = 0", fillcolor="#e58139"] ;
211 -> 215 ;
216 [label="totalco2_min <= 0.539\ngini = 0.499\nsamples = 210\nvalue = [163, 176]\nclass = 1", fillcolor="#f0f8fd"] ;
210 -> 216 ;
217 [label="dbp_max <= -0.476\ngini = 0.496\nsamples = 160\nvalue = [140, 118]\nclass = 0", fillcolor="#fbebe0"] ;
216 -> 217 ;
218 [label="gini = 0.0\nsamples = 10\nvalue = [16, 0]\nclass = 0", fillcolor="#e58139"] ;
217 -> 218 ;
219 [label="gini = 0.5\nsamples = 150\nvalue = [124, 118]\nclass = 0", fillcolor="#fef9f5"] ;
217 -> 219 ;
220 [label="pco2_min <= 1.074\ngini = 0.407\nsamples = 50\nvalue = [23, 58]\nclass = 1", fillcolor="#88c4ef"] ;
216 -> 220 ;
221 [label="gini = 0.27\nsamples = 34\nvalue = [9, 47]\nclass = 1", fillcolor="#5fb0ea"] ;
220 -> 221 ;
222 [label="gini = 0.493\nsamples = 16\nvalue = [14, 11]\nclass = 0", fillcolor="#f9e4d5"] ;
220 -> 222 ;
}