digraph Tree {
node [shape=box, style="filled, rounded", color="black", fontname="helvetica"] ;
edge [fontname="helvetica"] ;
0 [label="inr_max <= -0.197\ngini = 0.418\nsamples = 21142\nvalue = [9976, 23514]\nclass = 1", fillcolor="#8dc7f0"] ;
1 [label="resp_rate_max <= -0.093\ngini = 0.458\nsamples = 13026\nvalue = [7302, 13276]\nclass = 1", fillcolor="#a6d3f3"] ;
0 -> 1 [labeldistance=2.5, labelangle=45, headlabel="True"] ;
2 [label="dbp_min <= 0.004\ngini = 0.478\nsamples = 7451\nvalue = [4693, 7164]\nclass = 1", fillcolor="#bbddf6"] ;
1 -> 2 ;
3 [label="po2_max <= -0.121\ngini = 0.433\nsamples = 3431\nvalue = [1731, 3728]\nclass = 1", fillcolor="#95cbf1"] ;
2 -> 3 ;
4 [label="totalco2_min <= 0.122\ngini = 0.462\nsamples = 2175\nvalue = [1245, 2198]\nclass = 1", fillcolor="#a9d5f4"] ;
3 -> 4 ;
5 [label="gcs_verbal <= -0.772\ngini = 0.483\nsamples = 1497\nvalue = [970, 1411]\nclass = 1", fillcolor="#c1e0f7"] ;
4 -> 5 ;
6 [label="bun_mean <= -0.1\ngini = 0.362\nsamples = 209\nvalue = [77, 247]\nclass = 1", fillcolor="#77bced"] ;
5 -> 6 ;
7 [label="gini = 0.444\nsamples = 115\nvalue = [60, 120]\nclass = 1", fillcolor="#9ccef2"] ;
6 -> 7 ;
8 [label="gini = 0.208\nsamples = 94\nvalue = [17, 127]\nclass = 1", fillcolor="#54aae8"] ;
6 -> 8 ;
9 [label="abs_monocytes_mean <= -0.133\ngini = 0.491\nsamples = 1288\nvalue = [893, 1164]\nclass = 1", fillcolor="#d1e8f9"] ;
5 -> 9 ;
10 [label="gini = 0.5\nsamples = 628\nvalue = [499, 521]\nclass = 1", fillcolor="#f7fbfe"] ;
9 -> 10 ;
11 [label="gini = 0.471\nsamples = 660\nvalue = [394, 643]\nclass = 1", fillcolor="#b2d9f5"] ;
9 -> 11 ;
12 [label="po2_min <= 0.469\ngini = 0.384\nsamples = 678\nvalue = [275, 787]\nclass = 1", fillcolor="#7ebfee"] ;
4 -> 12 ;
13 [label="glucose_mean <= -1.018\ngini = 0.352\nsamples = 562\nvalue = [203, 686]\nclass = 1", fillcolor="#74baed"] ;
12 -> 13 ;
14 [label="gini = 0.498\nsamples = 47\nvalue = [34, 38]\nclass = 1", fillcolor="#eaf5fc"] ;
13 -> 14 ;
15 [label="gini = 0.328\nsamples = 515\nvalue = [169, 648]\nclass = 1", fillcolor="#6db7ec"] ;
13 -> 15 ;
16 [label="sbp_max <= 0.104\ngini = 0.486\nsamples = 116\nvalue = [72, 101]\nclass = 1", fillcolor="#c6e3f8"] ;
12 -> 16 ;
17 [label="gini = 0.474\nsamples = 51\nvalue = [46, 29]\nclass = 0", fillcolor="#f5d0b6"] ;
16 -> 17 ;
18 [label="gini = 0.39\nsamples = 65\nvalue = [26, 72]\nclass = 1", fillcolor="#80c0ee"] ;
16 -> 18 ;
19 [label="weight_admit <= -0.34\ngini = 0.366\nsamples = 1256\nvalue = [486, 1530]\nclass = 1", fillcolor="#78bced"] ;
3 -> 19 ;
20 [label="ptt_max <= -0.542\ngini = 0.451\nsamples = 507\nvalue = [281, 536]\nclass = 1", fillcolor="#a1d0f3"] ;
19 -> 20 ;
21 [label="bun_mean <= -0.406\ngini = 0.5\nsamples = 89\nvalue = [76, 73]\nclass = 0", fillcolor="#fefaf7"] ;
20 -> 21 ;
22 [label="gini = 0.41\nsamples = 50\nvalue = [57, 23]\nclass = 0", fillcolor="#efb489"] ;
21 -> 22 ;
23 [label="gini = 0.399\nsamples = 39\nvalue = [19, 50]\nclass = 1", fillcolor="#84c2ef"] ;
21 -> 23 ;
24 [label="sbp_mean <= -1.834\ngini = 0.425\nsamples = 418\nvalue = [205, 463]\nclass = 1", fillcolor="#91c8f1"] ;
20 -> 24 ;
25 [label="gini = 0.0\nsamples = 3\nvalue = [8, 0]\nclass = 0", fillcolor="#e58139"] ;
24 -> 25 ;
26 [label="gini = 0.419\nsamples = 415\nvalue = [197, 463]\nclass = 1", fillcolor="#8dc7f0"] ;
24 -> 26 ;
27 [label="glucose_mean <= -0.205\ngini = 0.283\nsamples = 749\nvalue = [205, 994]\nclass = 1", fillcolor="#62b1ea"] ;
19 -> 27 ;
28 [label="glucose_min <= 0.327\ngini = 0.337\nsamples = 351\nvalue = [124, 453]\nclass = 1", fillcolor="#6fb8ec"] ;
27 -> 28 ;
29 [label="gini = 0.328\nsamples = 346\nvalue = [118, 453]\nclass = 1", fillcolor="#6db7ec"] ;
28 -> 29 ;
30 [label="gini = 0.0\nsamples = 5\nvalue = [6, 0]\nclass = 0", fillcolor="#e58139"] ;
28 -> 30 ;
31 [label="asian <= 0.5\ngini = 0.227\nsamples = 398\nvalue = [81, 541]\nclass = 1", fillcolor="#57ace9"] ;
27 -> 31 ;
32 [label="gini = 0.214\nsamples = 394\nvalue = [75, 541]\nclass = 1", fillcolor="#54abe9"] ;
31 -> 32 ;
33 [label="gini = 0.0\nsamples = 4\nvalue = [6, 0]\nclass = 0", fillcolor="#e58139"] ;
31 -> 33 ;
34 [label="gcs_motor <= 0.26\ngini = 0.497\nsamples = 4020\nvalue = [2962, 3436]\nclass = 1", fillcolor="#e4f1fb"] ;
2 -> 34 ;
35 [label="totalco2_max <= 0.916\ngini = 0.428\nsamples = 935\nvalue = [457, 1018]\nclass = 1", fillcolor="#92c9f1"] ;
34 -> 35 ;
36 [label="bun_mean <= -0.296\ngini = 0.442\nsamples = 816\nvalue = [427, 868]\nclass = 1", fillcolor="#9acdf2"] ;
35 -> 36 ;
37 [label="spo2_mean <= 0.834\ngini = 0.468\nsamples = 548\nvalue = [323, 542]\nclass = 1", fillcolor="#afd7f4"] ;
36 -> 37 ;
38 [label="gini = 0.488\nsamples = 342\nvalue = [229, 313]\nclass = 1", fillcolor="#cae5f8"] ;
37 -> 38 ;
39 [label="gini = 0.413\nsamples = 206\nvalue = [94, 229]\nclass = 1", fillcolor="#8ac5f0"] ;
37 -> 39 ;
40 [label="abs_eosinophils_mean <= -0.171\ngini = 0.367\nsamples = 268\nvalue = [104, 326]\nclass = 1", fillcolor="#78bced"] ;
36 -> 40 ;
41 [label="gini = 0.22\nsamples = 94\nvalue = [18, 125]\nclass = 1", fillcolor="#56abe9"] ;
40 -> 41 ;
42 [label="gini = 0.42\nsamples = 174\nvalue = [86, 201]\nclass = 1", fillcolor="#8ec7f0"] ;
40 -> 42 ;
43 [label="potassium_min.1 <= -2.576\ngini = 0.278\nsamples = 119\nvalue = [30, 150]\nclass = 1", fillcolor="#61b1ea"] ;
35 -> 43 ;
44 [label="gini = 0.0\nsamples = 2\nvalue = [4, 0]\nclass = 0", fillcolor="#e58139"] ;
43 -> 44 ;
45 [label="spo2_min <= 1.161\ngini = 0.252\nsamples = 117\nvalue = [26, 150]\nclass = 1", fillcolor="#5baeea"] ;
43 -> 45 ;
46 [label="gini = 0.21\nsamples = 112\nvalue = [20, 148]\nclass = 1", fillcolor="#54aae9"] ;
45 -> 46 ;
47 [label="gini = 0.375\nsamples = 5\nvalue = [6, 2]\nclass = 0", fillcolor="#eeab7b"] ;
45 -> 47 ;
48 [label="sbp_max <= 0.455\ngini = 0.5\nsamples = 3085\nvalue = [2505, 2418]\nclass = 0", fillcolor="#fefbf8"] ;
34 -> 48 ;
49 [label="admission_age <= -1.317\ngini = 0.493\nsamples = 2062\nvalue = [1838, 1440]\nclass = 0", fillcolor="#f9e4d4"] ;
48 -> 49 ;
50 [label="heart_rate_mean <= 1.98\ngini = 0.391\nsamples = 440\nvalue = [514, 187]\nclass = 0", fillcolor="#eeaf81"] ;
49 -> 50 ;
51 [label="gini = 0.38\nsamples = 431\nvalue = [510, 175]\nclass = 0", fillcolor="#eeac7d"] ;
50 -> 51 ;
52 [label="gini = 0.375\nsamples = 9\nvalue = [4, 12]\nclass = 1", fillcolor="#7bbeee"] ;
50 -> 52 ;
53 [label="pco2_min <= -0.007\ngini = 0.5\nsamples = 1622\nvalue = [1324, 1253]\nclass = 0", fillcolor="#fef8f4"] ;
49 -> 53 ;
54 [label="gini = 0.496\nsamples = 1145\nvalue = [988, 832]\nclass = 0", fillcolor="#fbebe0"] ;
53 -> 54 ;
55 [label="gini = 0.494\nsamples = 477\nvalue = [336, 421]\nclass = 1", fillcolor="#d7ebfa"] ;
53 -> 55 ;
56 [label="dbp_max <= -0.679\ngini = 0.482\nsamples = 1023\nvalue = [667, 978]\nclass = 1", fillcolor="#c0e0f7"] ;
48 -> 56 ;
57 [label="po2_max <= 1.06\ngini = 0.394\nsamples = 24\nvalue = [27, 10]\nclass = 0", fillcolor="#efb082"] ;
56 -> 57 ;
58 [label="gini = 0.298\nsamples = 22\nvalue = [27, 6]\nclass = 0", fillcolor="#eb9d65"] ;
57 -> 58 ;
59 [label="gini = 0.0\nsamples = 2\nvalue = [0, 4]\nclass = 1", fillcolor="#399de5"] ;
57 -> 59 ;
60 [label="admission_age <= -0.205\ngini = 0.479\nsamples = 999\nvalue = [640, 968]\nclass = 1", fillcolor="#bcdef6"] ;
56 -> 60 ;
61 [label="gini = 0.496\nsamples = 475\nvalue = [353, 418]\nclass = 1", fillcolor="#e0f0fb"] ;
60 -> 61 ;
62 [label="gini = 0.451\nsamples = 524\nvalue = [287, 550]\nclass = 1", fillcolor="#a0d0f3"] ;
60 -> 62 ;
63 [label="admission_age <= -1.466\ngini = 0.419\nsamples = 5575\nvalue = [2609, 6112]\nclass = 1", fillcolor="#8ec7f0"] ;
1 -> 63 ;
64 [label="bun_mean <= -0.1\ngini = 0.498\nsamples = 624\nvalue = [528, 467]\nclass = 0", fillcolor="#fcf0e8"] ;
63 -> 64 ;
65 [label="spo2_min <= -1.368\ngini = 0.492\nsamples = 558\nvalue = [507, 393]\nclass = 0", fillcolor="#f9e3d2"] ;
64 -> 65 ;
66 [label="po2_max <= -1.253\ngini = 0.202\nsamples = 19\nvalue = [4, 31]\nclass = 1", fillcolor="#53aae8"] ;
65 -> 66 ;
67 [label="gini = 0.0\nsamples = 1\nvalue = [2, 0]\nclass = 0", fillcolor="#e58139"] ;
66 -> 67 ;
68 [label="mbp_mean <= 2.452\ngini = 0.114\nsamples = 18\nvalue = [2, 31]\nclass = 1", fillcolor="#46a3e7"] ;
66 -> 68 ;
69 [label="gini = 0.061\nsamples = 17\nvalue = [1, 31]\nclass = 1", fillcolor="#3fa0e6"] ;
68 -> 69 ;
70 [label="gini = 0.0\nsamples = 1\nvalue = [1, 0]\nclass = 0", fillcolor="#e58139"] ;
68 -> 70 ;
71 [label="totalco2_max <= -0.653\ngini = 0.487\nsamples = 539\nvalue = [503, 362]\nclass = 0", fillcolor="#f8dcc7"] ;
65 -> 71 ;
72 [label="glucose_mean <= -0.237\ngini = 0.42\nsamples = 127\nvalue = [154, 66]\nclass = 0", fillcolor="#f0b78e"] ;
71 -> 72 ;
73 [label="gini = 0.495\nsamples = 61\nvalue = [59, 48]\nclass = 0", fillcolor="#fae8da"] ;
72 -> 73 ;
74 [label="gini = 0.268\nsamples = 66\nvalue = [95, 18]\nclass = 0", fillcolor="#ea995f"] ;
72 -> 74 ;
75 [label="gcs_verbal <= -0.772\ngini = 0.497\nsamples = 412\nvalue = [349, 296]\nclass = 0", fillcolor="#fbece1"] ;
71 -> 75 ;
76 [label="gini = 0.433\nsamples = 126\nvalue = [60, 129]\nclass = 1", fillcolor="#95cbf1"] ;
75 -> 76 ;
77 [label="gini = 0.464\nsamples = 286\nvalue = [289, 167]\nclass = 0", fillcolor="#f4caab"] ;
75 -> 77 ;
78 [label="bicarbonate_mean <= 1.73\ngini = 0.344\nsamples = 66\nvalue = [21, 74]\nclass = 1", fillcolor="#71b9ec"] ;
64 -> 78 ;
79 [label="ph_min <= -0.752\ngini = 0.304\nsamples = 65\nvalue = [17, 74]\nclass = 1", fillcolor="#66b4eb"] ;
78 -> 79 ;
80 [label="gini = 0.0\nsamples = 17\nvalue = [0, 25]\nclass = 1", fillcolor="#399de5"] ;
79 -> 80 ;
81 [label="calcium_max.1 <= 0.915\ngini = 0.382\nsamples = 48\nvalue = [17, 49]\nclass = 1", fillcolor="#7ebfee"] ;
79 -> 81 ;
82 [label="gini = 0.311\nsamples = 42\nvalue = [11, 46]\nclass = 1", fillcolor="#68b4eb"] ;
81 -> 82 ;
83 [label="gini = 0.444\nsamples = 6\nvalue = [6, 3]\nclass = 0", fillcolor="#f2c09c"] ;
81 -> 83 ;
84 [label="gini = 0.0\nsamples = 1\nvalue = [4, 0]\nclass = 0", fillcolor="#e58139"] ;
78 -> 84 ;
85 [label="mbp_min <= 0.673\ngini = 0.394\nsamples = 4951\nvalue = [2081, 5645]\nclass = 1", fillcolor="#82c1ef"] ;
63 -> 85 ;
86 [label="ph_min <= 0.058\ngini = 0.368\nsamples = 3819\nvalue = [1452, 4519]\nclass = 1", fillcolor="#79bced"] ;
85 -> 86 ;
87 [label="sbp_min <= -0.314\ngini = 0.296\nsamples = 1381\nvalue = [390, 1772]\nclass = 1", fillcolor="#65b3eb"] ;
86 -> 87 ;
88 [label="abs_eosinophils_mean <= 0.029\ngini = 0.239\nsamples = 773\nvalue = [175, 1084]\nclass = 1", fillcolor="#59ade9"] ;
87 -> 88 ;
89 [label="gini = 0.202\nsamples = 629\nvalue = [116, 901]\nclass = 1", fillcolor="#52aae8"] ;
88 -> 89 ;
90 [label="gini = 0.369\nsamples = 144\nvalue = [59, 183]\nclass = 1", fillcolor="#79bded"] ;
88 -> 90 ;
91 [label="heart_rate_mean <= -0.439\ngini = 0.363\nsamples = 608\nvalue = [215, 688]\nclass = 1", fillcolor="#77bced"] ;
87 -> 91 ;
92 [label="gini = 0.164\nsamples = 167\nvalue = [22, 222]\nclass = 1", fillcolor="#4da7e8"] ;
91 -> 92 ;
93 [label="gini = 0.414\nsamples = 441\nvalue = [193, 466]\nclass = 1", fillcolor="#8bc6f0"] ;
91 -> 93 ;
94 [label="dbp_mean <= -1.237\ngini = 0.402\nsamples = 2438\nvalue = [1062, 2747]\nclass = 1", fillcolor="#86c3ef"] ;
86 -> 94 ;
95 [label="hematocrit_min.1 <= -1.816\ngini = 0.259\nsamples = 198\nvalue = [45, 249]\nclass = 1", fillcolor="#5dafea"] ;
94 -> 95 ;
96 [label="gini = 0.444\nsamples = 6\nvalue = [6, 3]\nclass = 0", fillcolor="#f2c09c"] ;
95 -> 96 ;
97 [label="gini = 0.236\nsamples = 192\nvalue = [39, 246]\nclass = 1", fillcolor="#58ade9"] ;
95 -> 97 ;
98 [label="ph_max <= 0.775\ngini = 0.411\nsamples = 2240\nvalue = [1017, 2498]\nclass = 1", fillcolor="#8ac5f0"] ;
94 -> 98 ;
99 [label="gini = 0.431\nsamples = 1829\nvalue = [899, 1966]\nclass = 1", fillcolor="#94caf1"] ;
98 -> 99 ;
100 [label="gini = 0.297\nsamples = 411\nvalue = [118, 532]\nclass = 1", fillcolor="#65b3eb"] ;
98 -> 100 ;
101 [label="ptt_min <= -0.207\ngini = 0.46\nsamples = 1132\nvalue = [629, 1126]\nclass = 1", fillcolor="#a8d4f4"] ;
85 -> 101 ;
102 [label="ptt_min <= -0.334\ngini = 0.478\nsamples = 748\nvalue = [459, 704]\nclass = 1", fillcolor="#baddf6"] ;
101 -> 102 ;
103 [label="weight_admit <= -0.024\ngini = 0.444\nsamples = 472\nvalue = [239, 479]\nclass = 1", fillcolor="#9ccef2"] ;
102 -> 103 ;
104 [label="gini = 0.483\nsamples = 246\nvalue = [152, 221]\nclass = 1", fillcolor="#c1e0f7"] ;
103 -> 104 ;
105 [label="gini = 0.377\nsamples = 226\nvalue = [87, 258]\nclass = 1", fillcolor="#7cbeee"] ;
103 -> 105 ;
106 [label="abs_neutrophils_mean <= -0.367\ngini = 0.5\nsamples = 276\nvalue = [220, 225]\nclass = 1", fillcolor="#fbfdfe"] ;
102 -> 106 ;
107 [label="gini = 0.435\nsamples = 73\nvalue = [85, 40]\nclass = 0", fillcolor="#f1bc96"] ;
106 -> 107 ;
108 [label="gini = 0.488\nsamples = 203\nvalue = [135, 185]\nclass = 1", fillcolor="#c9e5f8"] ;
106 -> 108 ;
109 [label="weight_admit <= -0.872\ngini = 0.409\nsamples = 384\nvalue = [170, 422]\nclass = 1", fillcolor="#89c4ef"] ;
101 -> 109 ;
110 [label="glucose_max <= -0.14\ngini = 0.498\nsamples = 70\nvalue = [54, 48]\nclass = 0", fillcolor="#fcf1e9"] ;
109 -> 110 ;
111 [label="gini = 0.465\nsamples = 57\nvalue = [50, 29]\nclass = 0", fillcolor="#f4caac"] ;
110 -> 111 ;
112 [label="gini = 0.287\nsamples = 13\nvalue = [4, 19]\nclass = 1", fillcolor="#63b2ea"] ;
110 -> 112 ;
113 [label="temperature_min <= 0.255\ngini = 0.361\nsamples = 314\nvalue = [116, 374]\nclass = 1", fillcolor="#76bbed"] ;
109 -> 113 ;
114 [label="gini = 0.24\nsamples = 103\nvalue = [23, 142]\nclass = 1", fillcolor="#59ade9"] ;
113 -> 114 ;
115 [label="gini = 0.409\nsamples = 211\nvalue = [93, 232]\nclass = 1", fillcolor="#88c4ef"] ;
113 -> 115 ;
116 [label="ph_min <= 0.058\ngini = 0.328\nsamples = 8116\nvalue = [2674, 10238]\nclass = 1", fillcolor="#6db7ec"] ;
0 -> 116 [labeldistance=2.5, labelangle=-45, headlabel="False"] ;
117 [label="po2_min <= 0.268\ngini = 0.253\nsamples = 3538\nvalue = [836, 4779]\nclass = 1", fillcolor="#5caeea"] ;
116 -> 117 ;
118 [label="admission_age <= -2.345\ngini = 0.223\nsamples = 2836\nvalue = [576, 3919]\nclass = 1", fillcolor="#56abe9"] ;
117 -> 118 ;
119 [label="temperature_min <= 0.452\ngini = 0.455\nsamples = 54\nvalue = [27, 50]\nclass = 1", fillcolor="#a4d2f3"] ;
118 -> 119 ;
120 [label="ph_max <= -2.884\ngini = 0.245\nsamples = 32\nvalue = [6, 36]\nclass = 1", fillcolor="#5aade9"] ;
119 -> 120 ;
121 [label="gini = 0.0\nsamples = 3\nvalue = [3, 0]\nclass = 0", fillcolor="#e58139"] ;
120 -> 121 ;
122 [label="spo2_min <= 1.012\ngini = 0.142\nsamples = 29\nvalue = [3, 36]\nclass = 1", fillcolor="#49a5e7"] ;
120 -> 122 ;
123 [label="gini = 0.1\nsamples = 28\nvalue = [2, 36]\nclass = 1", fillcolor="#44a2e6"] ;
122 -> 123 ;
124 [label="gini = 0.0\nsamples = 1\nvalue = [1, 0]\nclass = 0", fillcolor="#e58139"] ;
122 -> 124 ;
125 [label="baseexcess_max <= 1.764\ngini = 0.48\nsamples = 22\nvalue = [21, 14]\nclass = 0", fillcolor="#f6d5bd"] ;
119 -> 125 ;
126 [label="bun_mean <= -0.811\ngini = 0.4\nsamples = 18\nvalue = [21, 8]\nclass = 0", fillcolor="#efb184"] ;
125 -> 126 ;
127 [label="gini = 0.0\nsamples = 1\nvalue = [0, 3]\nclass = 1", fillcolor="#399de5"] ;
126 -> 127 ;
128 [label="gini = 0.311\nsamples = 17\nvalue = [21, 5]\nclass = 0", fillcolor="#eb9f68"] ;
126 -> 128 ;
129 [label="gini = 0.0\nsamples = 4\nvalue = [0, 6]\nclass = 1", fillcolor="#399de5"] ;
125 -> 129 ;
130 [label="pco2_min <= 4.189\ngini = 0.218\nsamples = 2782\nvalue = [549, 3869]\nclass = 1", fillcolor="#55abe9"] ;
118 -> 130 ;
131 [label="sbp_mean <= -3.338\ngini = 0.213\nsamples = 2758\nvalue = [529, 3843]\nclass = 1", fillcolor="#54aae9"] ;
130 -> 131 ;
132 [label="inr_max <= 8.155\ngini = 0.408\nsamples = 9\nvalue = [10, 4]\nclass = 0", fillcolor="#efb388"] ;
131 -> 132 ;
133 [label="gini = 0.278\nsamples = 8\nvalue = [10, 2]\nclass = 0", fillcolor="#ea9a61"] ;
132 -> 133 ;
134 [label="gini = 0.0\nsamples = 1\nvalue = [0, 2]\nclass = 1", fillcolor="#399de5"] ;
132 -> 134 ;
135 [label="resp_rate_max <= -1.801\ngini = 0.21\nsamples = 2749\nvalue = [519, 3839]\nclass = 1", fillcolor="#54aae9"] ;
131 -> 135 ;
136 [label="gini = 0.459\nsamples = 11\nvalue = [9, 5]\nclass = 0", fillcolor="#f3c7a7"] ;
135 -> 136 ;
137 [label="gini = 0.207\nsamples = 2738\nvalue = [510, 3834]\nclass = 1", fillcolor="#53aae8"] ;
135 -> 137 ;
138 [label="po2_min <= -0.716\ngini = 0.491\nsamples = 24\nvalue = [20, 26]\nclass = 1", fillcolor="#d1e8f9"] ;
130 -> 138 ;
139 [label="ph_max <= -8.411\ngini = 0.298\nsamples = 12\nvalue = [4, 18]\nclass = 1", fillcolor="#65b3eb"] ;
138 -> 139 ;
140 [label="gini = 0.0\nsamples = 1\nvalue = [2, 0]\nclass = 0", fillcolor="#e58139"] ;
139 -> 140 ;
141 [label="gini = 0.18\nsamples = 11\nvalue = [2, 18]\nclass = 1", fillcolor="#4fa8e8"] ;
139 -> 141 ;
142 [label="po2_min <= -0.449\ngini = 0.444\nsamples = 12\nvalue = [16, 8]\nclass = 0", fillcolor="#f2c09c"] ;
138 -> 142 ;
143 [label="gini = 0.133\nsamples = 8\nvalue = [13, 1]\nclass = 0", fillcolor="#e78b48"] ;
142 -> 143 ;
144 [label="gini = 0.42\nsamples = 4\nvalue = [3, 7]\nclass = 1", fillcolor="#8ec7f0"] ;
142 -> 144 ;
145 [label="bun_mean <= -0.321\ngini = 0.357\nsamples = 702\nvalue = [260, 860]\nclass = 1", fillcolor="#75bbed"] ;
117 -> 145 ;
146 [label="weight_admit <= 0.101\ngini = 0.424\nsamples = 386\nvalue = [188, 428]\nclass = 1", fillcolor="#90c8f0"] ;
145 -> 146 ;
147 [label="admission_age <= 0.315\ngini = 0.462\nsamples = 246\nvalue = [146, 257]\nclass = 1", fillcolor="#a9d5f4"] ;
146 -> 147 ;
148 [label="weight_admit <= -1.017\ngini = 0.493\nsamples = 165\nvalue = [120, 152]\nclass = 1", fillcolor="#d5eafa"] ;
147 -> 148 ;
149 [label="gini = 0.389\nsamples = 23\nvalue = [25, 9]\nclass = 0", fillcolor="#eeae80"] ;
148 -> 149 ;
150 [label="gini = 0.48\nsamples = 142\nvalue = [95, 143]\nclass = 1", fillcolor="#bddef6"] ;
148 -> 150 ;
151 [label="sodium_mean <= 1.163\ngini = 0.318\nsamples = 81\nvalue = [26, 105]\nclass = 1", fillcolor="#6ab5eb"] ;
147 -> 151 ;
152 [label="gini = 0.29\nsamples = 76\nvalue = [22, 103]\nclass = 1", fillcolor="#63b2eb"] ;
151 -> 152 ;
153 [label="gini = 0.444\nsamples = 5\nvalue = [4, 2]\nclass = 0", fillcolor="#f2c09c"] ;
151 -> 153 ;
154 [label="mbp_mean <= -0.742\ngini = 0.317\nsamples = 140\nvalue = [42, 171]\nclass = 1", fillcolor="#6ab5eb"] ;
146 -> 154 ;
155 [label="glucose_min <= -1.349\ngini = 0.078\nsamples = 29\nvalue = [2, 47]\nclass = 1", fillcolor="#41a1e6"] ;
154 -> 155 ;
156 [label="gini = 0.0\nsamples = 1\nvalue = [1, 0]\nclass = 0", fillcolor="#e58139"] ;
155 -> 156 ;
157 [label="gini = 0.041\nsamples = 28\nvalue = [1, 47]\nclass = 1", fillcolor="#3d9fe6"] ;
155 -> 157 ;
158 [label="hematocrit_max.1 <= -1.216\ngini = 0.369\nsamples = 111\nvalue = [40, 124]\nclass = 1", fillcolor="#79bded"] ;
154 -> 158 ;
159 [label="gini = 0.32\nsamples = 4\nvalue = [4, 1]\nclass = 0", fillcolor="#eca06a"] ;
158 -> 159 ;
160 [label="gini = 0.35\nsamples = 107\nvalue = [36, 123]\nclass = 1", fillcolor="#73baed"] ;
158 -> 160 ;
161 [label="spo2_max <= -0.718\ngini = 0.245\nsamples = 316\nvalue = [72, 432]\nclass = 1", fillcolor="#5aade9"] ;
145 -> 161 ;
162 [label="calcium_max.1 <= 0.094\ngini = 0.426\nsamples = 9\nvalue = [9, 4]\nclass = 0", fillcolor="#f1b991"] ;
161 -> 162 ;
163 [label="gini = 0.0\nsamples = 6\nvalue = [8, 0]\nclass = 0", fillcolor="#e58139"] ;
162 -> 163 ;
164 [label="glucose_max.2 <= 0.042\ngini = 0.32\nsamples = 3\nvalue = [1, 4]\nclass = 1", fillcolor="#6ab6ec"] ;
162 -> 164 ;
165 [label="gini = 0.0\nsamples = 2\nvalue = [0, 4]\nclass = 1", fillcolor="#399de5"] ;
164 -> 165 ;
166 [label="gini = 0.0\nsamples = 1\nvalue = [1, 0]\nclass = 0", fillcolor="#e58139"] ;
164 -> 166 ;
167 [label="dbp_min <= -0.365\ngini = 0.224\nsamples = 307\nvalue = [63, 428]\nclass = 1", fillcolor="#56abe9"] ;
161 -> 167 ;
168 [label="temperature_max <= -5.718\ngini = 0.115\nsamples = 163\nvalue = [16, 245]\nclass = 1", fillcolor="#46a3e7"] ;
167 -> 168 ;
169 [label="gini = 0.0\nsamples = 2\nvalue = [2, 0]\nclass = 0", fillcolor="#e58139"] ;
168 -> 169 ;
170 [label="gini = 0.102\nsamples = 161\nvalue = [14, 245]\nclass = 1", fillcolor="#44a3e6"] ;
168 -> 170 ;
171 [label="pco2_min <= -0.261\ngini = 0.325\nsamples = 144\nvalue = [47, 183]\nclass = 1", fillcolor="#6cb6ec"] ;
167 -> 171 ;
172 [label="gini = 0.208\nsamples = 90\nvalue = [17, 127]\nclass = 1", fillcolor="#54aae8"] ;
171 -> 172 ;
173 [label="gini = 0.454\nsamples = 54\nvalue = [30, 56]\nclass = 1", fillcolor="#a3d2f3"] ;
171 -> 173 ;
174 [label="dbp_min <= -0.04\ngini = 0.377\nsamples = 4578\nvalue = [1838, 5459]\nclass = 1", fillcolor="#7cbeee"] ;
116 -> 174 ;
175 [label="po2_max <= -0.409\ngini = 0.323\nsamples = 2464\nvalue = [789, 3107]\nclass = 1", fillcolor="#6bb6ec"] ;
174 -> 175 ;
176 [label="dbp_mean <= -0.94\ngini = 0.238\nsamples = 793\nvalue = [173, 1082]\nclass = 1", fillcolor="#59ade9"] ;
175 -> 176 ;
177 [label="bicarbonate_mean <= 4.939\ngini = 0.106\nsamples = 238\nvalue = [21, 354]\nclass = 1", fillcolor="#45a3e7"] ;
176 -> 177 ;
178 [label="ptt_min <= -0.18\ngini = 0.101\nsamples = 237\nvalue = [20, 354]\nclass = 1", fillcolor="#44a3e6"] ;
177 -> 178 ;
179 [label="gini = 0.245\nsamples = 54\nvalue = [12, 72]\nclass = 1", fillcolor="#5aade9"] ;
178 -> 179 ;
180 [label="gini = 0.054\nsamples = 183\nvalue = [8, 282]\nclass = 1", fillcolor="#3fa0e6"] ;
178 -> 180 ;
181 [label="gini = 0.0\nsamples = 1\nvalue = [1, 0]\nclass = 0", fillcolor="#e58139"] ;
177 -> 181 ;
182 [label="bun_mean <= -0.027\ngini = 0.286\nsamples = 555\nvalue = [152, 728]\nclass = 1", fillcolor="#62b1ea"] ;
176 -> 182 ;
183 [label="gcs_min <= -2.546\ngini = 0.368\nsamples = 264\nvalue = [102, 318]\nclass = 1", fillcolor="#79bced"] ;
182 -> 183 ;
184 [label="gini = 0.401\nsamples = 9\nvalue = [13, 5]\nclass = 0", fillcolor="#efb185"] ;
183 -> 184 ;
185 [label="gini = 0.345\nsamples = 255\nvalue = [89, 313]\nclass = 1", fillcolor="#71b9ec"] ;
183 -> 185 ;
186 [label="bun_mean <= 6.452\ngini = 0.194\nsamples = 291\nvalue = [50, 410]\nclass = 1", fillcolor="#51a9e8"] ;
182 -> 186 ;
187 [label="gini = 0.182\nsamples = 288\nvalue = [46, 408]\nclass = 1", fillcolor="#4fa8e8"] ;
186 -> 187 ;
188 [label="gini = 0.444\nsamples = 3\nvalue = [4, 2]\nclass = 0", fillcolor="#f2c09c"] ;
186 -> 188 ;
189 [label="glucose_max <= -0.932\ngini = 0.358\nsamples = 1671\nvalue = [616, 2025]\nclass = 1", fillcolor="#75bbed"] ;
175 -> 189 ;
190 [label="inr_min <= 0.433\ngini = 0.497\nsamples = 78\nvalue = [57, 67]\nclass = 1", fillcolor="#e1f0fb"] ;
189 -> 190 ;
191 [label="sbp_mean <= -1.088\ngini = 0.449\nsamples = 32\nvalue = [35, 18]\nclass = 0", fillcolor="#f2c29f"] ;
190 -> 191 ;
192 [label="gini = 0.245\nsamples = 10\nvalue = [2, 12]\nclass = 1", fillcolor="#5aade9"] ;
191 -> 192 ;
193 [label="gini = 0.26\nsamples = 22\nvalue = [33, 6]\nclass = 0", fillcolor="#ea985d"] ;
191 -> 193 ;
194 [label="inr_min <= 0.787\ngini = 0.428\nsamples = 46\nvalue = [22, 49]\nclass = 1", fillcolor="#92c9f1"] ;
190 -> 194 ;
195 [label="gini = 0.159\nsamples = 13\nvalue = [2, 21]\nclass = 1", fillcolor="#4ca6e7"] ;
194 -> 195 ;
196 [label="gini = 0.486\nsamples = 33\nvalue = [20, 28]\nclass = 1", fillcolor="#c6e3f8"] ;
194 -> 196 ;
197 [label="dbp_mean <= -1.069\ngini = 0.346\nsamples = 1593\nvalue = [559, 1958]\nclass = 1", fillcolor="#72b9ec"] ;
189 -> 197 ;
198 [label="pco2_max <= -0.138\ngini = 0.265\nsamples = 416\nvalue = [105, 563]\nclass = 1", fillcolor="#5eafea"] ;
197 -> 198 ;
199 [label="gini = 0.166\nsamples = 171\nvalue = [26, 259]\nclass = 1", fillcolor="#4da7e8"] ;
198 -> 199 ;
200 [label="gini = 0.327\nsamples = 245\nvalue = [79, 304]\nclass = 1", fillcolor="#6cb6ec"] ;
198 -> 200 ;
201 [label="sbp_max <= -1.698\ngini = 0.37\nsamples = 1177\nvalue = [454, 1395]\nclass = 1", fillcolor="#79bded"] ;
197 -> 201 ;
202 [label="gini = 0.426\nsamples = 16\nvalue = [18, 8]\nclass = 0", fillcolor="#f1b991"] ;
201 -> 202 ;
203 [label="gini = 0.364\nsamples = 1161\nvalue = [436, 1387]\nclass = 1", fillcolor="#77bced"] ;
201 -> 203 ;
204 [label="ph_max <= 0.152\ngini = 0.427\nsamples = 2114\nvalue = [1049, 2352]\nclass = 1", fillcolor="#91c9f1"] ;
174 -> 204 ;
205 [label="baseexcess_min <= 0.073\ngini = 0.455\nsamples = 1265\nvalue = [721, 1343]\nclass = 1", fillcolor="#a3d2f3"] ;
204 -> 205 ;
206 [label="heart_rate_min <= 1.809\ngini = 0.354\nsamples = 165\nvalue = [64, 214]\nclass = 1", fillcolor="#74baed"] ;
205 -> 206 ;
207 [label="spo2_mean <= 1.146\ngini = 0.394\nsamples = 138\nvalue = [62, 168]\nclass = 1", fillcolor="#82c1ef"] ;
206 -> 207 ;
208 [label="gini = 0.372\nsamples = 131\nvalue = [54, 165]\nclass = 1", fillcolor="#7abdee"] ;
207 -> 208 ;
209 [label="gini = 0.397\nsamples = 7\nvalue = [8, 3]\nclass = 0", fillcolor="#efb083"] ;
207 -> 209 ;
210 [label="totalco2_min <= -1.649\ngini = 0.08\nsamples = 27\nvalue = [2, 46]\nclass = 1", fillcolor="#42a1e6"] ;
206 -> 210 ;
211 [label="gini = 0.0\nsamples = 1\nvalue = [1, 0]\nclass = 0", fillcolor="#e58139"] ;
210 -> 211 ;
212 [label="gini = 0.042\nsamples = 26\nvalue = [1, 46]\nclass = 1", fillcolor="#3d9fe6"] ;
210 -> 212 ;
213 [label="heart_rate_max <= 0.593\ngini = 0.465\nsamples = 1100\nvalue = [657, 1129]\nclass = 1", fillcolor="#acd6f4"] ;
205 -> 213 ;
214 [label="glucose_max <= -0.799\ngini = 0.482\nsamples = 756\nvalue = [496, 730]\nclass = 1", fillcolor="#c0e0f7"] ;
213 -> 214 ;
215 [label="gini = 0.499\nsamples = 171\nvalue = [140, 131]\nclass = 0", fillcolor="#fdf7f2"] ;
214 -> 215 ;
216 [label="gini = 0.468\nsamples = 585\nvalue = [356, 599]\nclass = 1", fillcolor="#afd7f4"] ;
214 -> 216 ;
217 [label="temperature_min <= 1.164\ngini = 0.41\nsamples = 344\nvalue = [161, 399]\nclass = 1", fillcolor="#89c5ef"] ;
213 -> 217 ;
218 [label="gini = 0.393\nsamples = 330\nvalue = [144, 392]\nclass = 1", fillcolor="#82c1ef"] ;
217 -> 218 ;
219 [label="gini = 0.413\nsamples = 14\nvalue = [17, 7]\nclass = 0", fillcolor="#f0b58b"] ;
217 -> 219 ;
220 [label="wbc_mean <= -0.494\ngini = 0.37\nsamples = 849\nvalue = [328, 1009]\nclass = 1", fillcolor="#79bded"] ;
204 -> 220 ;
221 [label="dbp_mean <= 1.661\ngini = 0.46\nsamples = 183\nvalue = [99, 177]\nclass = 1", fillcolor="#a8d4f4"] ;
220 -> 221 ;
222 [label="weight_admit <= -0.491\ngini = 0.444\nsamples = 170\nvalue = [86, 172]\nclass = 1", fillcolor="#9ccef2"] ;
221 -> 222 ;
223 [label="gini = 0.488\nsamples = 63\nvalue = [56, 41]\nclass = 0", fillcolor="#f8ddca"] ;
222 -> 223 ;
224 [label="gini = 0.303\nsamples = 107\nvalue = [30, 131]\nclass = 1", fillcolor="#66b3eb"] ;
222 -> 224 ;
225 [label="aniongap_min <= -1.52\ngini = 0.401\nsamples = 13\nvalue = [13, 5]\nclass = 0", fillcolor="#efb185"] ;
221 -> 225 ;
226 [label="gini = 0.0\nsamples = 1\nvalue = [0, 2]\nclass = 1", fillcolor="#399de5"] ;
225 -> 226 ;
227 [label="gini = 0.305\nsamples = 12\nvalue = [13, 3]\nclass = 0", fillcolor="#eb9e67"] ;
225 -> 227 ;
228 [label="temperature_min <= -11.387\ngini = 0.338\nsamples = 666\nvalue = [229, 832]\nclass = 1", fillcolor="#6fb8ec"] ;
220 -> 228 ;
229 [label="gini = 0.0\nsamples = 1\nvalue = [3, 0]\nclass = 0", fillcolor="#e58139"] ;
228 -> 229 ;
230 [label="aniongap_max <= 0.413\ngini = 0.336\nsamples = 665\nvalue = [226, 832]\nclass = 1", fillcolor="#6fb8ec"] ;
228 -> 230 ;
231 [label="gini = 0.357\nsamples = 538\nvalue = [195, 642]\nclass = 1", fillcolor="#75bbed"] ;
230 -> 231 ;
232 [label="gini = 0.241\nsamples = 127\nvalue = [31, 190]\nclass = 1", fillcolor="#59ade9"] ;
230 -> 232 ;
}