digraph Tree {
node [shape=box, style="filled, rounded", color="black", fontname="helvetica"] ;
edge [fontname="helvetica"] ;
0 [label="dbp_min <= 0.177\ngini = 0.421\nsamples = 21193\nvalue = [10104, 23386]\nclass = 1", fillcolor="#8fc7f0"] ;
1 [label="gcs_eyes <= 0.412\ngini = 0.372\nsamples = 12654\nvalue = [4948, 15102]\nclass = 1", fillcolor="#7abdee"] ;
0 -> 1 [labeldistance=2.5, labelangle=45, headlabel="True"] ;
2 [label="ph_max <= -5.297\ngini = 0.325\nsamples = 7149\nvalue = [2317, 9009]\nclass = 1", fillcolor="#6cb6ec"] ;
1 -> 2 ;
3 [label="platelets_mean <= 1.906\ngini = 0.283\nsamples = 23\nvalue = [34, 7]\nclass = 0", fillcolor="#ea9b62"] ;
2 -> 3 ;
4 [label="abs_neutrophils_mean <= -1.091\ngini = 0.149\nsamples = 21\nvalue = [34, 3]\nclass = 0", fillcolor="#e78c4a"] ;
3 -> 4 ;
5 [label="gini = 0.0\nsamples = 1\nvalue = [0, 1]\nclass = 1", fillcolor="#399de5"] ;
4 -> 5 ;
6 [label="spo2_min <= -9.846\ngini = 0.105\nsamples = 20\nvalue = [34, 2]\nclass = 0", fillcolor="#e78845"] ;
4 -> 6 ;
7 [label="gini = 0.0\nsamples = 1\nvalue = [0, 1]\nclass = 1", fillcolor="#399de5"] ;
6 -> 7 ;
8 [label="black <= 0.5\ngini = 0.056\nsamples = 19\nvalue = [34, 1]\nclass = 0", fillcolor="#e6853f"] ;
6 -> 8 ;
9 [label="gini = 0.0\nsamples = 18\nvalue = [34, 0]\nclass = 0", fillcolor="#e58139"] ;
8 -> 9 ;
10 [label="gini = 0.0\nsamples = 1\nvalue = [0, 1]\nclass = 1", fillcolor="#399de5"] ;
8 -> 10 ;
11 [label="gini = 0.0\nsamples = 2\nvalue = [0, 4]\nclass = 1", fillcolor="#399de5"] ;
3 -> 11 ;
12 [label="weight_admit <= -0.128\ngini = 0.323\nsamples = 7126\nvalue = [2283, 9002]\nclass = 1", fillcolor="#6bb6ec"] ;
2 -> 12 ;
13 [label="admission_age <= -0.86\ngini = 0.388\nsamples = 3585\nvalue = [1501, 4209]\nclass = 1", fillcolor="#80c0ee"] ;
12 -> 13 ;
14 [label="glucose_mean <= 0.056\ngini = 0.494\nsamples = 398\nvalue = [279, 347]\nclass = 1", fillcolor="#d8ecfa"] ;
13 -> 14 ;
15 [label="ptt_max <= -0.195\ngini = 0.5\nsamples = 296\nvalue = [235, 237]\nclass = 1", fillcolor="#fdfeff"] ;
14 -> 15 ;
16 [label="gini = 0.491\nsamples = 211\nvalue = [189, 145]\nclass = 0", fillcolor="#f9e2d1"] ;
15 -> 16 ;
17 [label="gini = 0.444\nsamples = 85\nvalue = [46, 92]\nclass = 1", fillcolor="#9ccef2"] ;
15 -> 17 ;
18 [label="sbp_min <= 0.076\ngini = 0.408\nsamples = 102\nvalue = [44, 110]\nclass = 1", fillcolor="#88c4ef"] ;
14 -> 18 ;
19 [label="gini = 0.312\nsamples = 81\nvalue = [24, 100]\nclass = 1", fillcolor="#69b5eb"] ;
18 -> 19 ;
20 [label="gini = 0.444\nsamples = 21\nvalue = [20, 10]\nclass = 0", fillcolor="#f2c09c"] ;
18 -> 20 ;
21 [label="po2_min <= -0.199\ngini = 0.365\nsamples = 3187\nvalue = [1222, 3862]\nclass = 1", fillcolor="#78bced"] ;
13 -> 21 ;
22 [label="sbp_max <= -2.378\ngini = 0.281\nsamples = 1206\nvalue = [324, 1595]\nclass = 1", fillcolor="#61b1ea"] ;
21 -> 22 ;
23 [label="gini = 0.18\nsamples = 6\nvalue = [9, 1]\nclass = 0", fillcolor="#e88f4f"] ;
22 -> 23 ;
24 [label="gini = 0.276\nsamples = 1200\nvalue = [315, 1594]\nclass = 1", fillcolor="#60b0ea"] ;
22 -> 24 ;
25 [label="inr_max <= 0.035\ngini = 0.406\nsamples = 1981\nvalue = [898, 2267]\nclass = 1", fillcolor="#87c4ef"] ;
21 -> 25 ;
26 [label="gini = 0.428\nsamples = 1526\nvalue = [759, 1684]\nclass = 1", fillcolor="#92c9f1"] ;
25 -> 26 ;
27 [label="gini = 0.311\nsamples = 455\nvalue = [139, 583]\nclass = 1", fillcolor="#68b4eb"] ;
25 -> 27 ;
28 [label="admission_age <= -1.603\ngini = 0.241\nsamples = 3541\nvalue = [782, 4793]\nclass = 1", fillcolor="#59ade9"] ;
12 -> 28 ;
29 [label="glucose_min.2 <= -0.479\ngini = 0.451\nsamples = 203\nvalue = [105, 200]\nclass = 1", fillcolor="#a1d0f3"] ;
28 -> 29 ;
30 [label="pco2_min <= 1.201\ngini = 0.363\nsamples = 84\nvalue = [30, 96]\nclass = 1", fillcolor="#77bced"] ;
29 -> 30 ;
31 [label="gini = 0.299\nsamples = 77\nvalue = [21, 94]\nclass = 1", fillcolor="#65b3eb"] ;
30 -> 31 ;
32 [label="gini = 0.298\nsamples = 7\nvalue = [9, 2]\nclass = 0", fillcolor="#eb9d65"] ;
30 -> 32 ;
33 [label="glucose_max.2 <= -0.484\ngini = 0.487\nsamples = 119\nvalue = [75, 104]\nclass = 1", fillcolor="#c8e4f8"] ;
29 -> 33 ;
34 [label="gini = 0.394\nsamples = 25\nvalue = [27, 10]\nclass = 0", fillcolor="#efb082"] ;
33 -> 34 ;
35 [label="gini = 0.448\nsamples = 94\nvalue = [48, 94]\nclass = 1", fillcolor="#9ecff2"] ;
33 -> 35 ;
36 [label="glucose_max <= 0.032\ngini = 0.224\nsamples = 3338\nvalue = [677, 4593]\nclass = 1", fillcolor="#56abe9"] ;
28 -> 36 ;
37 [label="admission_age <= 0.57\ngini = 0.269\nsamples = 1765\nvalue = [451, 2367]\nclass = 1", fillcolor="#5fb0ea"] ;
36 -> 37 ;
38 [label="gini = 0.309\nsamples = 1185\nvalue = [359, 1523]\nclass = 1", fillcolor="#68b4eb"] ;
37 -> 38 ;
39 [label="gini = 0.177\nsamples = 580\nvalue = [92, 844]\nclass = 1", fillcolor="#4fa8e8"] ;
37 -> 39 ;
40 [label="weight_admit <= 0.066\ngini = 0.167\nsamples = 1573\nvalue = [226, 2226]\nclass = 1", fillcolor="#4da7e8"] ;
36 -> 40 ;
41 [label="gini = 0.29\nsamples = 307\nvalue = [86, 402]\nclass = 1", fillcolor="#63b2eb"] ;
40 -> 41 ;
42 [label="gini = 0.132\nsamples = 1266\nvalue = [140, 1824]\nclass = 1", fillcolor="#48a5e7"] ;
40 -> 42 ;
43 [label="po2_min <= -0.216\ngini = 0.421\nsamples = 5505\nvalue = [2631, 6093]\nclass = 1", fillcolor="#8ec7f0"] ;
1 -> 43 ;
44 [label="bun_mean <= -0.37\ngini = 0.347\nsamples = 1833\nvalue = [660, 2292]\nclass = 1", fillcolor="#72b9ec"] ;
43 -> 44 ;
45 [label="weight_admit <= -0.919\ngini = 0.454\nsamples = 567\nvalue = [326, 608]\nclass = 1", fillcolor="#a3d2f3"] ;
44 -> 45 ;
46 [label="glucose_max.2 <= -0.007\ngini = 0.481\nsamples = 99\nvalue = [95, 64]\nclass = 0", fillcolor="#f7d6be"] ;
45 -> 46 ;
47 [label="potassium_min.1 <= -0.821\ngini = 0.499\nsamples = 62\nvalue = [46, 51]\nclass = 1", fillcolor="#ecf5fc"] ;
46 -> 47 ;
48 [label="gini = 0.399\nsamples = 25\nvalue = [29, 11]\nclass = 0", fillcolor="#efb184"] ;
47 -> 48 ;
49 [label="gini = 0.419\nsamples = 37\nvalue = [17, 40]\nclass = 1", fillcolor="#8dc7f0"] ;
47 -> 49 ;
50 [label="sbp_mean <= 0.559\ngini = 0.331\nsamples = 37\nvalue = [49, 13]\nclass = 0", fillcolor="#eca26e"] ;
46 -> 50 ;
51 [label="gini = 0.282\nsamples = 35\nvalue = [49, 10]\nclass = 0", fillcolor="#ea9b61"] ;
50 -> 51 ;
52 [label="gini = 0.0\nsamples = 2\nvalue = [0, 3]\nclass = 1", fillcolor="#399de5"] ;
50 -> 52 ;
53 [label="dbp_mean <= -0.953\ngini = 0.418\nsamples = 468\nvalue = [231, 544]\nclass = 1", fillcolor="#8dc7f0"] ;
45 -> 53 ;
54 [label="potassium_min.1 <= -1.523\ngini = 0.131\nsamples = 56\nvalue = [7, 92]\nclass = 1", fillcolor="#48a4e7"] ;
53 -> 54 ;
55 [label="gini = 0.494\nsamples = 6\nvalue = [4, 5]\nclass = 1", fillcolor="#d7ebfa"] ;
54 -> 55 ;
56 [label="gini = 0.064\nsamples = 50\nvalue = [3, 87]\nclass = 1", fillcolor="#40a0e6"] ;
54 -> 56 ;
57 [label="admission_age <= 0.058\ngini = 0.443\nsamples = 412\nvalue = [224, 452]\nclass = 1", fillcolor="#9bcef2"] ;
53 -> 57 ;
58 [label="gini = 0.482\nsamples = 260\nvalue = [175, 258]\nclass = 1", fillcolor="#bfdff7"] ;
57 -> 58 ;
59 [label="gini = 0.322\nsamples = 152\nvalue = [49, 194]\nclass = 1", fillcolor="#6bb6ec"] ;
57 -> 59 ;
60 [label="weight_admit <= -0.828\ngini = 0.276\nsamples = 1266\nvalue = [334, 1684]\nclass = 1", fillcolor="#60b0ea"] ;
44 -> 60 ;
61 [label="spo2_min <= -0.029\ngini = 0.426\nsamples = 248\nvalue = [118, 265]\nclass = 1", fillcolor="#91c9f1"] ;
60 -> 61 ;
62 [label="temperature_mean <= 0.115\ngini = 0.278\nsamples = 132\nvalue = [34, 170]\nclass = 1", fillcolor="#61b1ea"] ;
61 -> 62 ;
63 [label="gini = 0.148\nsamples = 93\nvalue = [12, 137]\nclass = 1", fillcolor="#4aa6e7"] ;
62 -> 63 ;
64 [label="gini = 0.48\nsamples = 39\nvalue = [22, 33]\nclass = 1", fillcolor="#bddef6"] ;
62 -> 64 ;
65 [label="resp_rate_mean <= -0.578\ngini = 0.498\nsamples = 116\nvalue = [84, 95]\nclass = 1", fillcolor="#e8f4fc"] ;
61 -> 65 ;
66 [label="gini = 0.295\nsamples = 24\nvalue = [32, 7]\nclass = 0", fillcolor="#eb9d64"] ;
65 -> 66 ;
67 [label="gini = 0.467\nsamples = 92\nvalue = [52, 88]\nclass = 1", fillcolor="#aed7f4"] ;
65 -> 67 ;
68 [label="glucose_max.2 <= 3.379\ngini = 0.229\nsamples = 1018\nvalue = [216, 1419]\nclass = 1", fillcolor="#57ace9"] ;
60 -> 68 ;
69 [label="po2_max <= -0.984\ngini = 0.218\nsamples = 988\nvalue = [198, 1392]\nclass = 1", fillcolor="#55abe9"] ;
68 -> 69 ;
70 [label="gini = 0.285\nsamples = 547\nvalue = [151, 727]\nclass = 1", fillcolor="#62b1ea"] ;
69 -> 70 ;
71 [label="gini = 0.123\nsamples = 441\nvalue = [47, 665]\nclass = 1", fillcolor="#47a4e7"] ;
69 -> 71 ;
72 [label="sbp_max <= 1.355\ngini = 0.48\nsamples = 30\nvalue = [18, 27]\nclass = 1", fillcolor="#bddef6"] ;
68 -> 72 ;
73 [label="gini = 0.411\nsamples = 28\nvalue = [11, 27]\nclass = 1", fillcolor="#8ac5f0"] ;
72 -> 73 ;
74 [label="gini = 0.0\nsamples = 2\nvalue = [7, 0]\nclass = 0", fillcolor="#e58139"] ;
72 -> 74 ;
75 [label="inr_min <= -0.099\ngini = 0.45\nsamples = 3672\nvalue = [1971, 3801]\nclass = 1", fillcolor="#a0d0f2"] ;
43 -> 75 ;
76 [label="admission_age <= -0.861\ngini = 0.467\nsamples = 2512\nvalue = [1458, 2465]\nclass = 1", fillcolor="#aed7f4"] ;
75 -> 76 ;
77 [label="glucose_min.2 <= 0.811\ngini = 0.467\nsamples = 335\nvalue = [337, 199]\nclass = 0", fillcolor="#f4cbae"] ;
76 -> 77 ;
78 [label="inr_max <= -0.178\ngini = 0.451\nsamples = 313\nvalue = [326, 170]\nclass = 0", fillcolor="#f3c3a0"] ;
77 -> 78 ;
79 [label="gini = 0.436\nsamples = 293\nvalue = [318, 150]\nclass = 0", fillcolor="#f1bc96"] ;
78 -> 79 ;
80 [label="gini = 0.408\nsamples = 20\nvalue = [8, 20]\nclass = 1", fillcolor="#88c4ef"] ;
78 -> 80 ;
81 [label="bicarbonate_mean <= -2.311\ngini = 0.399\nsamples = 22\nvalue = [11, 29]\nclass = 1", fillcolor="#84c2ef"] ;
77 -> 81 ;
82 [label="gini = 0.278\nsamples = 3\nvalue = [5, 1]\nclass = 0", fillcolor="#ea9a61"] ;
81 -> 82 ;
83 [label="gini = 0.291\nsamples = 19\nvalue = [6, 28]\nclass = 1", fillcolor="#63b2eb"] ;
81 -> 83 ;
84 [label="weight_admit <= -0.059\ngini = 0.443\nsamples = 2177\nvalue = [1121, 2266]\nclass = 1", fillcolor="#9bcdf2"] ;
76 -> 84 ;
85 [label="pco2_max <= -0.223\ngini = 0.48\nsamples = 1303\nvalue = [807, 1210]\nclass = 1", fillcolor="#bddef6"] ;
84 -> 85 ;
86 [label="gini = 0.394\nsamples = 323\nvalue = [135, 365]\nclass = 1", fillcolor="#82c1ef"] ;
85 -> 86 ;
87 [label="gini = 0.493\nsamples = 980\nvalue = [672, 845]\nclass = 1", fillcolor="#d6ebfa"] ;
85 -> 87 ;
88 [label="abs_lymphocytes_mean <= 0.142\ngini = 0.353\nsamples = 874\nvalue = [314, 1056]\nclass = 1", fillcolor="#74baed"] ;
84 -> 88 ;
89 [label="gini = 0.327\nsamples = 771\nvalue = [248, 955]\nclass = 1", fillcolor="#6cb6ec"] ;
88 -> 89 ;
90 [label="gini = 0.478\nsamples = 103\nvalue = [66, 101]\nclass = 1", fillcolor="#baddf6"] ;
88 -> 90 ;
91 [label="bun_mean <= -0.443\ngini = 0.401\nsamples = 1160\nvalue = [513, 1336]\nclass = 1", fillcolor="#85c3ef"] ;
75 -> 91 ;
92 [label="pco2_min <= -0.261\ngini = 0.478\nsamples = 323\nvalue = [194, 298]\nclass = 1", fillcolor="#baddf6"] ;
91 -> 92 ;
93 [label="heart_rate_min <= -1.835\ngini = 0.383\nsamples = 74\nvalue = [31, 89]\nclass = 1", fillcolor="#7ebfee"] ;
92 -> 93 ;
94 [label="gini = 0.0\nsamples = 1\nvalue = [3, 0]\nclass = 0", fillcolor="#e58139"] ;
93 -> 94 ;
95 [label="gini = 0.364\nsamples = 73\nvalue = [28, 89]\nclass = 1", fillcolor="#77bced"] ;
93 -> 95 ;
96 [label="ph_min <= 0.922\ngini = 0.492\nsamples = 249\nvalue = [163, 209]\nclass = 1", fillcolor="#d3e9f9"] ;
92 -> 96 ;
97 [label="gini = 0.498\nsamples = 228\nvalue = [157, 177]\nclass = 1", fillcolor="#e9f4fc"] ;
96 -> 97 ;
98 [label="gini = 0.266\nsamples = 21\nvalue = [6, 32]\nclass = 1", fillcolor="#5eafea"] ;
96 -> 98 ;
99 [label="po2_min <= -0.166\ngini = 0.36\nsamples = 837\nvalue = [319, 1038]\nclass = 1", fillcolor="#76bbed"] ;
91 -> 99 ;
100 [label="abs_lymphocytes_mean <= 0.077\ngini = 0.419\nsamples = 502\nvalue = [246, 576]\nclass = 1", fillcolor="#8ec7f0"] ;
99 -> 100 ;
101 [label="gini = 0.402\nsamples = 445\nvalue = [203, 526]\nclass = 1", fillcolor="#85c3ef"] ;
100 -> 101 ;
102 [label="gini = 0.497\nsamples = 57\nvalue = [43, 50]\nclass = 1", fillcolor="#e3f1fb"] ;
100 -> 102 ;
103 [label="dbp_mean <= 0.645\ngini = 0.236\nsamples = 335\nvalue = [73, 462]\nclass = 1", fillcolor="#58ace9"] ;
99 -> 103 ;
104 [label="gini = 0.219\nsamples = 326\nvalue = [65, 454]\nclass = 1", fillcolor="#55abe9"] ;
103 -> 104 ;
105 [label="gini = 0.5\nsamples = 9\nvalue = [8, 8]\nclass = 0", fillcolor="#ffffff"] ;
103 -> 105 ;
106 [label="admission_age <= -1.634\ngini = 0.473\nsamples = 8539\nvalue = [5156, 8284]\nclass = 1", fillcolor="#b4daf5"] ;
0 -> 106 [labeldistance=2.5, labelangle=-45, headlabel="False"] ;
107 [label="gcs_verbal <= -0.772\ngini = 0.49\nsamples = 1035\nvalue = [946, 710]\nclass = 0", fillcolor="#f9e0ce"] ;
106 -> 107 ;
108 [label="admission_age <= -2.557\ngini = 0.471\nsamples = 281\nvalue = [169, 276]\nclass = 1", fillcolor="#b2d9f5"] ;
107 -> 108 ;
109 [label="resp_rate_mean <= 1.11\ngini = 0.349\nsamples = 25\nvalue = [31, 9]\nclass = 0", fillcolor="#eda672"] ;
108 -> 109 ;
110 [label="resp_rate_max <= 1.344\ngini = 0.272\nsamples = 23\nvalue = [31, 6]\nclass = 0", fillcolor="#ea995f"] ;
109 -> 110 ;
111 [label="heart_rate_min <= -1.769\ngini = 0.202\nsamples = 22\nvalue = [31, 4]\nclass = 0", fillcolor="#e89153"] ;
110 -> 111 ;
112 [label="gini = 0.0\nsamples = 1\nvalue = [0, 1]\nclass = 1", fillcolor="#399de5"] ;
111 -> 112 ;
113 [label="gini = 0.161\nsamples = 21\nvalue = [31, 3]\nclass = 0", fillcolor="#e88d4c"] ;
111 -> 113 ;
114 [label="gini = 0.0\nsamples = 1\nvalue = [0, 2]\nclass = 1", fillcolor="#399de5"] ;
110 -> 114 ;
115 [label="gini = 0.0\nsamples = 2\nvalue = [0, 3]\nclass = 1", fillcolor="#399de5"] ;
109 -> 115 ;
116 [label="temperature_max <= 1.597\ngini = 0.449\nsamples = 256\nvalue = [138, 267]\nclass = 1", fillcolor="#9fd0f2"] ;
108 -> 116 ;
117 [label="glucose_max.2 <= -0.238\ngini = 0.48\nsamples = 203\nvalue = [129, 193]\nclass = 1", fillcolor="#bddff6"] ;
116 -> 117 ;
118 [label="chloride_mean <= 0.62\ngini = 0.5\nsamples = 122\nvalue = [103, 97]\nclass = 0", fillcolor="#fdf8f3"] ;
117 -> 118 ;
119 [label="gini = 0.483\nsamples = 75\nvalue = [50, 73]\nclass = 1", fillcolor="#c1e0f7"] ;
118 -> 119 ;
120 [label="gini = 0.429\nsamples = 47\nvalue = [53, 24]\nclass = 0", fillcolor="#f1ba93"] ;
118 -> 120 ;
121 [label="female <= 0.5\ngini = 0.335\nsamples = 81\nvalue = [26, 96]\nclass = 1", fillcolor="#6fb8ec"] ;
117 -> 121 ;
122 [label="gini = 0.193\nsamples = 55\nvalue = [9, 74]\nclass = 1", fillcolor="#51a9e8"] ;
121 -> 122 ;
123 [label="gini = 0.492\nsamples = 26\nvalue = [17, 22]\nclass = 1", fillcolor="#d2e9f9"] ;
121 -> 123 ;
124 [label="heart_rate_max <= 0.495\ngini = 0.193\nsamples = 53\nvalue = [9, 74]\nclass = 1", fillcolor="#51a9e8"] ;
116 -> 124 ;
125 [label="aniongap_min <= -0.131\ngini = 0.384\nsamples = 16\nvalue = [7, 20]\nclass = 1", fillcolor="#7ebfee"] ;
124 -> 125 ;
126 [label="gini = 0.165\nsamples = 12\nvalue = [2, 20]\nclass = 1", fillcolor="#4da7e8"] ;
125 -> 126 ;
127 [label="gini = 0.0\nsamples = 4\nvalue = [5, 0]\nclass = 0", fillcolor="#e58139"] ;
125 -> 127 ;
128 [label="ph_max <= -1.872\ngini = 0.069\nsamples = 37\nvalue = [2, 54]\nclass = 1", fillcolor="#40a1e6"] ;
124 -> 128 ;
129 [label="gini = 0.0\nsamples = 1\nvalue = [1, 0]\nclass = 0", fillcolor="#e58139"] ;
128 -> 129 ;
130 [label="gini = 0.036\nsamples = 36\nvalue = [1, 54]\nclass = 1", fillcolor="#3d9fe5"] ;
128 -> 130 ;
131 [label="glucose_min.2 <= 2.405\ngini = 0.46\nsamples = 754\nvalue = [777, 434]\nclass = 0", fillcolor="#f4c7a8"] ;
107 -> 131 ;
132 [label="spo2_mean <= -0.442\ngini = 0.456\nsamples = 743\nvalue = [771, 419]\nclass = 0", fillcolor="#f3c5a5"] ;
131 -> 132 ;
133 [label="sbp_max <= 0.499\ngini = 0.499\nsamples = 135\nvalue = [103, 112]\nclass = 1", fillcolor="#eff7fd"] ;
132 -> 133 ;
134 [label="baseexcess_min <= 0.073\ngini = 0.487\nsamples = 103\nvalue = [97, 70]\nclass = 0", fillcolor="#f8dcc8"] ;
133 -> 134 ;
135 [label="gini = 0.32\nsamples = 12\nvalue = [4, 16]\nclass = 1", fillcolor="#6ab6ec"] ;
134 -> 135 ;
136 [label="gini = 0.465\nsamples = 91\nvalue = [93, 54]\nclass = 0", fillcolor="#f4caac"] ;
134 -> 136 ;
137 [label="resp_rate_mean <= 1.387\ngini = 0.219\nsamples = 32\nvalue = [6, 42]\nclass = 1", fillcolor="#55abe9"] ;
133 -> 137 ;
138 [label="gini = 0.061\nsamples = 23\nvalue = [1, 31]\nclass = 1", fillcolor="#3fa0e6"] ;
137 -> 138 ;
139 [label="gini = 0.43\nsamples = 9\nvalue = [5, 11]\nclass = 1", fillcolor="#93caf1"] ;
137 -> 139 ;
140 [label="hematocrit_min.1 <= -0.216\ngini = 0.431\nsamples = 608\nvalue = [668, 307]\nclass = 0", fillcolor="#f1bb94"] ;
132 -> 140 ;
141 [label="aniongap_max <= 0.02\ngini = 0.5\nsamples = 142\nvalue = [119, 112]\nclass = 0", fillcolor="#fdf8f3"] ;
140 -> 141 ;
142 [label="gini = 0.45\nsamples = 91\nvalue = [96, 50]\nclass = 0", fillcolor="#f3c3a0"] ;
141 -> 142 ;
143 [label="gini = 0.395\nsamples = 51\nvalue = [23, 62]\nclass = 1", fillcolor="#82c1ef"] ;
141 -> 143 ;
144 [label="dbp_max <= 0.997\ngini = 0.387\nsamples = 466\nvalue = [549, 195]\nclass = 0", fillcolor="#eeae7f"] ;
140 -> 144 ;
145 [label="gini = 0.359\nsamples = 400\nvalue = [497, 152]\nclass = 0", fillcolor="#eda876"] ;
144 -> 145 ;
146 [label="gini = 0.496\nsamples = 66\nvalue = [52, 43]\nclass = 0", fillcolor="#fae9dd"] ;
144 -> 146 ;
147 [label="mbp_min <= 0.344\ngini = 0.408\nsamples = 11\nvalue = [6, 15]\nclass = 1", fillcolor="#88c4ef"] ;
131 -> 147 ;
148 [label="gini = 0.0\nsamples = 2\nvalue = [5, 0]\nclass = 0", fillcolor="#e58139"] ;
147 -> 148 ;
149 [label="dbp_min <= 0.416\ngini = 0.117\nsamples = 9\nvalue = [1, 15]\nclass = 1", fillcolor="#46a4e7"] ;
147 -> 149 ;
150 [label="gini = 0.0\nsamples = 1\nvalue = [1, 0]\nclass = 0", fillcolor="#e58139"] ;
149 -> 150 ;
151 [label="gini = 0.0\nsamples = 8\nvalue = [0, 15]\nclass = 1", fillcolor="#399de5"] ;
149 -> 151 ;
152 [label="inr_min <= -0.099\ngini = 0.459\nsamples = 7504\nvalue = [4210, 7574]\nclass = 1", fillcolor="#a7d3f3"] ;
106 -> 152 ;
153 [label="weight_admit <= 0.291\ngini = 0.476\nsamples = 5401\nvalue = [3330, 5177]\nclass = 1", fillcolor="#b8dcf6"] ;
152 -> 153 ;
154 [label="ptt_max <= -0.345\ngini = 0.493\nsamples = 3497\nvalue = [2420, 3058]\nclass = 1", fillcolor="#d6ebfa"] ;
153 -> 154 ;
155 [label="bun_mean <= -0.615\ngini = 0.499\nsamples = 2469\nvalue = [1822, 2010]\nclass = 1", fillcolor="#ecf6fd"] ;
154 -> 155 ;
156 [label="glucose_mean <= -1.033\ngini = 0.491\nsamples = 780\nvalue = [683, 520]\nclass = 0", fillcolor="#f9e1d0"] ;
155 -> 156 ;
157 [label="gini = 0.403\nsamples = 88\nvalue = [95, 37]\nclass = 0", fillcolor="#efb286"] ;
156 -> 157 ;
158 [label="gini = 0.495\nsamples = 692\nvalue = [588, 483]\nclass = 0", fillcolor="#fae8dc"] ;
156 -> 158 ;
159 [label="gcs_eyes <= 0.412\ngini = 0.491\nsamples = 1689\nvalue = [1139, 1490]\nclass = 1", fillcolor="#d0e8f9"] ;
155 -> 159 ;
160 [label="gini = 0.463\nsamples = 752\nvalue = [421, 736]\nclass = 1", fillcolor="#aad5f4"] ;
159 -> 160 ;
161 [label="gini = 0.5\nsamples = 937\nvalue = [718, 754]\nclass = 1", fillcolor="#f6fafe"] ;
159 -> 161 ;
162 [label="admission_age <= -0.273\ngini = 0.463\nsamples = 1028\nvalue = [598, 1048]\nclass = 1", fillcolor="#aad5f4"] ;
154 -> 162 ;
163 [label="bun_mean <= -0.149\ngini = 0.499\nsamples = 415\nvalue = [321, 348]\nclass = 1", fillcolor="#f0f7fd"] ;
162 -> 163 ;
164 [label="gini = 0.498\nsamples = 340\nvalue = [291, 260]\nclass = 0", fillcolor="#fcf2ea"] ;
163 -> 164 ;
165 [label="gini = 0.379\nsamples = 75\nvalue = [30, 88]\nclass = 1", fillcolor="#7cbeee"] ;
163 -> 165 ;
166 [label="potassium_max.1 <= -0.751\ngini = 0.406\nsamples = 613\nvalue = [277, 700]\nclass = 1", fillcolor="#87c4ef"] ;
162 -> 166 ;
167 [label="gini = 0.498\nsamples = 107\nvalue = [72, 81]\nclass = 1", fillcolor="#e9f4fc"] ;
166 -> 167 ;
168 [label="gini = 0.374\nsamples = 506\nvalue = [205, 619]\nclass = 1", fillcolor="#7bbdee"] ;
166 -> 168 ;
169 [label="totalco2_max <= 0.02\ngini = 0.42\nsamples = 1904\nvalue = [910, 2119]\nclass = 1", fillcolor="#8ec7f0"] ;
153 -> 169 ;
170 [label="ph_min <= 0.058\ngini = 0.46\nsamples = 1164\nvalue = [678, 1210]\nclass = 1", fillcolor="#a8d4f4"] ;
169 -> 170 ;
171 [label="heart_rate_mean <= 0.109\ngini = 0.329\nsamples = 242\nvalue = [78, 297]\nclass = 1", fillcolor="#6db7ec"] ;
170 -> 171 ;
172 [label="gini = 0.403\nsamples = 130\nvalue = [56, 144]\nclass = 1", fillcolor="#86c3ef"] ;
171 -> 172 ;
173 [label="gini = 0.22\nsamples = 112\nvalue = [22, 153]\nclass = 1", fillcolor="#55abe9"] ;
171 -> 173 ;
174 [label="resp_rate_mean <= 0.668\ngini = 0.479\nsamples = 922\nvalue = [600, 913]\nclass = 1", fillcolor="#bbddf6"] ;
170 -> 174 ;
175 [label="gini = 0.489\nsamples = 768\nvalue = [534, 722]\nclass = 1", fillcolor="#cbe5f8"] ;
174 -> 175 ;
176 [label="gini = 0.382\nsamples = 154\nvalue = [66, 191]\nclass = 1", fillcolor="#7dbfee"] ;
174 -> 176 ;
177 [label="glucose_max <= -0.688\ngini = 0.324\nsamples = 740\nvalue = [232, 909]\nclass = 1", fillcolor="#6cb6ec"] ;
169 -> 177 ;
178 [label="abs_monocytes_mean <= 0.118\ngini = 0.474\nsamples = 80\nvalue = [53, 84]\nclass = 1", fillcolor="#b6dbf5"] ;
177 -> 178 ;
179 [label="gini = 0.5\nsamples = 61\nvalue = [48, 51]\nclass = 1", fillcolor="#f3f9fd"] ;
178 -> 179 ;
180 [label="gini = 0.229\nsamples = 19\nvalue = [5, 33]\nclass = 1", fillcolor="#57ace9"] ;
178 -> 180 ;
181 [label="dbp_max <= -0.12\ngini = 0.293\nsamples = 660\nvalue = [179, 825]\nclass = 1", fillcolor="#64b2eb"] ;
177 -> 181 ;
182 [label="gini = 0.371\nsamples = 274\nvalue = [102, 313]\nclass = 1", fillcolor="#7abded"] ;
181 -> 182 ;
183 [label="gini = 0.227\nsamples = 386\nvalue = [77, 512]\nclass = 1", fillcolor="#57ace9"] ;
181 -> 183 ;
184 [label="gcs_verbal <= 0.155\ngini = 0.393\nsamples = 2103\nvalue = [880, 2397]\nclass = 1", fillcolor="#82c1ef"] ;
152 -> 184 ;
185 [label="glucose_min.2 <= 2.016\ngini = 0.24\nsamples = 655\nvalue = [143, 884]\nclass = 1", fillcolor="#59ade9"] ;
184 -> 185 ;
186 [label="aniongap_min <= -0.687\ngini = 0.224\nsamples = 629\nvalue = [127, 863]\nclass = 1", fillcolor="#56abe9"] ;
185 -> 186 ;
187 [label="resp_rate_min <= -1.333\ngini = 0.367\nsamples = 149\nvalue = [55, 172]\nclass = 1", fillcolor="#78bced"] ;
186 -> 187 ;
188 [label="gini = 0.475\nsamples = 14\nvalue = [11, 7]\nclass = 0", fillcolor="#f6d1b7"] ;
187 -> 188 ;
189 [label="gini = 0.332\nsamples = 135\nvalue = [44, 165]\nclass = 1", fillcolor="#6eb7ec"] ;
187 -> 189 ;
190 [label="weight_admit <= -1.68\ngini = 0.171\nsamples = 480\nvalue = [72, 691]\nclass = 1", fillcolor="#4ea7e8"] ;
186 -> 190 ;
191 [label="gini = 0.278\nsamples = 3\nvalue = [5, 1]\nclass = 0", fillcolor="#ea9a61"] ;
190 -> 191 ;
192 [label="gini = 0.161\nsamples = 477\nvalue = [67, 690]\nclass = 1", fillcolor="#4ca7e8"] ;
190 -> 192 ;
193 [label="baseexcess_max <= -0.488\ngini = 0.491\nsamples = 26\nvalue = [16, 21]\nclass = 1", fillcolor="#d0e8f9"] ;
185 -> 193 ;
194 [label="bicarbonate_mean <= -2.133\ngini = 0.219\nsamples = 6\nvalue = [7, 1]\nclass = 0", fillcolor="#e99355"] ;
193 -> 194 ;
195 [label="gini = 0.0\nsamples = 1\nvalue = [0, 1]\nclass = 1", fillcolor="#399de5"] ;
194 -> 195 ;
196 [label="gini = 0.0\nsamples = 5\nvalue = [7, 0]\nclass = 0", fillcolor="#e58139"] ;
194 -> 196 ;
197 [label="baseexcess_min <= 0.276\ngini = 0.428\nsamples = 20\nvalue = [9, 20]\nclass = 1", fillcolor="#92c9f1"] ;
193 -> 197 ;
198 [label="gini = 0.198\nsamples = 11\nvalue = [2, 16]\nclass = 1", fillcolor="#52a9e8"] ;
197 -> 198 ;
199 [label="gini = 0.463\nsamples = 9\nvalue = [7, 4]\nclass = 0", fillcolor="#f4c9aa"] ;
197 -> 199 ;
200 [label="totalco2_min <= -0.503\ngini = 0.441\nsamples = 1448\nvalue = [737, 1513]\nclass = 1", fillcolor="#99cdf2"] ;
184 -> 200 ;
201 [label="potassium_min.1 <= 0.934\ngini = 0.294\nsamples = 210\nvalue = [57, 261]\nclass = 1", fillcolor="#64b2eb"] ;
200 -> 201 ;
202 [label="glucose_mean <= -0.838\ngini = 0.34\nsamples = 165\nvalue = [54, 195]\nclass = 1", fillcolor="#70b8ec"] ;
201 -> 202 ;
203 [label="gini = 0.5\nsamples = 25\nvalue = [18, 19]\nclass = 1", fillcolor="#f5fafe"] ;
202 -> 203 ;
204 [label="gini = 0.282\nsamples = 140\nvalue = [36, 176]\nclass = 1", fillcolor="#61b1ea"] ;
202 -> 204 ;
205 [label="pco2_min <= -1.787\ngini = 0.083\nsamples = 45\nvalue = [3, 66]\nclass = 1", fillcolor="#42a1e6"] ;
201 -> 205 ;
206 [label="gini = 0.0\nsamples = 1\nvalue = [1, 0]\nclass = 0", fillcolor="#e58139"] ;
205 -> 206 ;
207 [label="gini = 0.057\nsamples = 44\nvalue = [2, 66]\nclass = 1", fillcolor="#3fa0e6"] ;
205 -> 207 ;
208 [label="temperature_mean <= -0.369\ngini = 0.456\nsamples = 1238\nvalue = [680, 1252]\nclass = 1", fillcolor="#a5d2f3"] ;
200 -> 208 ;
209 [label="glucose_max.2 <= 2.337\ngini = 0.398\nsamples = 370\nvalue = [160, 423]\nclass = 1", fillcolor="#84c2ef"] ;
208 -> 209 ;
210 [label="gini = 0.384\nsamples = 361\nvalue = [147, 421]\nclass = 1", fillcolor="#7ebfee"] ;
209 -> 210 ;
211 [label="gini = 0.231\nsamples = 9\nvalue = [13, 2]\nclass = 0", fillcolor="#e99457"] ;
209 -> 211 ;
212 [label="glucose_min.2 <= -0.382\ngini = 0.474\nsamples = 868\nvalue = [520, 829]\nclass = 1", fillcolor="#b5daf5"] ;
208 -> 212 ;
213 [label="gini = 0.496\nsamples = 346\nvalue = [247, 298]\nclass = 1", fillcolor="#ddeefb"] ;
212 -> 213 ;
214 [label="gini = 0.449\nsamples = 522\nvalue = [273, 531]\nclass = 1", fillcolor="#9fcff2"] ;
212 -> 214 ;
}